AI_FB_MODEL_TXT_V2_ANGULAR_DELAY
encad_hidden 24
encad_w1 4608 -0.0999438092 0.166399419 -0.0433103964 -0.279210061 -0.204267249 0.0957460105 -0.0500748493 -0.0925582275 0.055858966 -0.0617185012 -0.0375209115 0.101285554 -0.0523293875 0.122114249 0.0372591019 -0.108240202 0.0192579553 7.26566068e-05 -0.0333886072 0.0213857386 -0.0298091508 0.0286659431 -0.0198548716 0.0323645771 -0.361138552 -0.052180443 -0.0630238652 -0.269639403 0.172094151 -0.13280195 -0.00614976371 -0.105918862 -0.171263829 0.254235446 -0.0810975209 0.0618587621 0.011985505 -0.0351174176 -0.131830782 -0.154506654 0.00801280327 -0.0955508351 0.102636062 0.00968164578 0.0736193508 0.328243464 0.0544551089 0.133499369 0.0457547046 -0.0322314426 0.00465900544 0.0228632335 -0.0106325177 -0.0698846281 0.0413385406 0.0443747081 0.0658656284 0.062173184 -0.0226022825 0.000947331602 -0.0372104794 0.039653942 0.0575078279 -0.0479753166 0.0193545613 -0.035749685 -0.00938866939 0.0693318322 -0.00453154091 -0.0157187842 0.0659348145 0.0397013165 -0.0239734668 0.033705093 -0.0486507267 0.0633213073 0.0616539903 -0.0388898924 0.00167233089 0.0515728518 0.0277965348 0.0159577373 0.0656635985 -0.00593296578 -0.049638655 0.00241822749 0.0720530972 0.00542294281 -0.0136781763 0.0161554739 -0.00698307948 0.026940586 0.0456712432 0.0482247286 0.0386854969 0.00657407567 0.175088227 0.161114618 -0.0222373977 -0.0134226289 0.14446713 -0.136780694 -0.0432367846 0.0819645226 -0.0657910854 0.0894420817 -0.0496838689 0.00421464164 0.0179797504 -0.0553538576 -0.0955580249 -0.272180289 -0.00703729037 0.12210761 -0.0538854972 -0.050071422 -0.0464626253 0.0211876575 0.119428501 0.0112129711 -0.018975595 0.0310268663 0.176098749 -0.0113202538 0.109282389 -0.0149716027 -0.0717013478 -0.169682369 -0.341009736 -0.173199147 0.18126066 -0.134698376 -0.010997395 0.0691904873 -0.181377336 0.0690671727 -0.0480079688 -0.0910424963 0.149051905 0.0107679609 0.15943332 0.0643396899 -0.0494734421 -0.0475762114 -0.00767097343 -0.0132552693 0.0674662367 0.0234048907 0.0386975147 0.040046297 0.0234744307 -0.0253665131 -0.0578718297 -0.0186043717 0.0386364497 -0.0439057983 0.0162938386 -0.0158751123 -0.0161006618 0.0197317842 0.0219053719 0.0441892147 -0.0417831279 -0.0270746574 -0.0139563344 0.0479491875 0.00174056285 -0.070112817 -0.0583129674 -0.0576943569 0.0340407193 0.00439284882 0.0288639665 0.0199366007 0.0310867559 0.0365092345 0.0712928846 -0.0544154719 -0.0169832036 0.00186825136 0.0590427779 0.0564578101 -0.000587176299 -0.0629734322 -0.0572360195 0.0255242605 0.0637439489 -0.00976609066 -0.0342481434 -0.0537647121 -0.00357368728 -0.000316597376 -0.192368597 0.132903546 0.0742360726 0.141245976 -0.046117451 -0.141590789 0.185565993 0.0568654574 -0.0950697064 0.00883427635 -0.10417401 0.0121131679 -0.0347154848 -0.053302262 0.110084459 -0.0716746822 0.0663296357 0.0527560674 -0.0223240592 0.0341878384 -0.00272823405 0.0585124977 -0.111190595 0.0316693336 -8.45472096e-05 -0.0168455932 0.0587395653 -0.0398635268 -0.00988155045 -0.0763612911 0.0224179812 -0.0238072705 0.0743053779 -0.300400317 -0.107719488 0.103048131 0.14904134 0.122777805 0.0506343953 -0.187971115 -0.167481527 0.114131369 0.160463601 0.113234662 0.137602851 0.0648099929 -0.159609511 0.0323288888 0.0448812544 -0.00146181951 0.0451081656 -0.0199402403 -0.0399599485 -0.0113478815 -0.031217739 -0.0397736616 0.0467492491 0.0574845076 0.0443878211 -0.0665497035 -0.0132596055 0.0387820154 0.0175763331 -0.0418750159 -0.039998129 0.0557807386 -0.026750885 0.0355041996 0.0315237194 0.0344877094 -0.0351153538 -0.03240823 -0.0527258739 0.0512393378 0.00296274922 -0.0594137534 0.02637152 -0.0690882206 -0.0383106656 -0.00947676599 -0.0364614353 0.00482699135 -0.0507420413 0.053613551 0.0135371611 0.00712031778 0.0655358061 -0.0464456603 -0.0355117545 -0.0038294429 -0.00999035034 -0.0209870767 -0.0465563126 -0.0529318526 -0.0659218952 -0.0688231736 -0.0833939612 -0.0794538409 0.0080483323 -0.0783136562 -0.124831259 0.033017911 -0.120625034 -0.0804955214 -0.0734319761 -0.0551344268 -0.0375036299 0.0428971425 0.0505976416 0.0194750186 -0.00222408725 -0.00638552615 0.224570349 0.0382424071 -0.0454682186 -0.0111076878 -0.0569998734 0.234302416 0.150658399 -0.0250585154 -0.159083843 0.0281249173 0.042327825 0.0021529668 0.292319655 0.0202732384 -0.109753996 -0.147496775 -0.0740638003 0.221996099 0.127952144 -0.0253840983 0.166415721 0.105946198 0.150599107 0.0164903421 0.00178804586 0.210037917 0.00861470588 -0.333694369 -0.140848935 0.0826519206 0.00938344561 -0.00879050046 -0.0265191849 0.072117798 0.0334985889 -0.0506408326 -0.0693670362 0.0494944565 0.0504047796 -0.000389268505 -0.0512914583 -0.00632149447 -0.0229261573 0.0628799647 -0.0545615479 0.0428393558 0.0413506515 0.0270778593 0.00697683357 0.00769728189 0.00621765386 0.0651901737 0.00102593889 -0.064408794 -0.0220652968 0.0672707856 -0.0410019048 -0.0507981665 -0.0140724434 0.0515707433 -0.0370125473 0.00801218487 -0.0707343146 0.0411051624 -0.0160117391 -0.00713509787 -0.0367047675 0.0645333827 -0.03427279 -0.0720945746 -0.0354341604 -0.0312034748 -0.0156090762 -0.0620772913 -0.00366634363 -0.0661878958 -0.0373612754 -0.00411549024 0.0199842025 0.0423352271 -0.321914405 0.0174043085 -0.0419182964 -0.0595165342 0.276372403 -0.0653689206 -0.385219991 0.0940860808 -0.0841927081 0.0841228887 -0.169351324 -0.0686122254 -0.00392399728 -0.0108790081 0.164440021 -0.0985028967 0.23935695 -0.0315622389 0.0311113987 0.0709827244 -0.287892044 0.386124343 -0.215199903 -0.000451772707 0.111907706 -0.0150154317 0.0499360971 0.247357383 0.0949911624 -0.181136936 0.178341016 0.115573756 -0.47233662 -0.157186493 -0.0104317581 0.108251587 0.177496836 0.378658682 0.253728747 -0.0356448144 0.0815890059 -0.0188091025 -0.114272937 0.147990555 -0.17844981 0.0687535256 -0.0433331355 -0.343102098 -0.070297502 -0.0373149328 -0.0274966955 -0.015509503 0.0463384911 -0.0226956774 0.010226585 -0.000195232176 -0.0462887473 -0.0357046798 0.0332841836 -0.0210892987 -0.00834521372 -0.00330359885 -0.0358784497 0.051506348 -0.0165351834 0.0229122974 -0.0622377582 -0.0544096157 -0.0492878333 -0.0460991673 0.0539305359 0.0596383922 -0.0241623316 -0.0694302395 0.0668974519 -0.0629070103 -0.0193404779 -0.0347620286 0.0466847494 0.00591656798 -0.0207214616 0.0264582392 0.0166824702 -0.0140820956 0.0177795924 -0.0366416536 -0.0607840978 -0.0160040651 -0.0078157736 0.0442844369 -0.0266709104 0.0523497276 -0.0501050353 0.0475455597 0.0511633307 -0.0602918305 0.118242189 -0.294171482 -0.0946774408 0.0910103917 0.0481242947 -0.0742481872 0.0991249904 -0.0949303284 0.138681844 -0.00765495235 0.0481363535 0.100613095 -0.102449611 -0.283551633 -0.20495002 0.150137201 -0.28799662 -0.124512129 0.128500342 0.0549308956 0.241291955 0.0184934884 0.218284234 -0.176330328 0.101004027 -0.329870343 -0.0334467441 0.0133242235 -0.0805958211 0.0584714822 -0.0710725412 -0.134623602 0.146750018 0.182994887 0.150398731 -0.0452881455 -0.266188204 -0.252005577 0.102993831 -0.0416224189 0.127925128 -0.0971926302 0.115557306 0.219080657 -0.130112514 -0.00442954665 0.11354091 -0.266964912 -0.00790233072 0.0455643572 -0.0200102013 -0.0339961573 -0.00521532213 -0.0389575139 -0.0538731888 -0.0677591637 -0.046657566 -0.0352239609 0.0610132925 0.0381708965 0.0259397849 0.0609847307 -0.0424454696 0.0222532768 -0.00785951223 -0.057068035 -0.0500365794 -0.0211934671 -0.00139226275 -0.0055252607 0.0590356104 0.050360851 -0.0575637743 0.0257329568 0.04120389 0.00113618874 0.0446730405 -0.0447799265 -0.0145835932 0.0212572422 -0.0597590506 0.0301696118 -0.0110709965 0.00441778079 -0.0372601114 0.00746663054 -0.0402069464 -0.0470402613 -0.0385037549 -0.0491510853 -0.0483608171 -0.0442051068 -0.031483043 -0.0630132407 0.0502191558 -0.0376197062 0.302211374 0.239961535 0.0622200668 -0.315193921 -0.128118798 -0.102013588 -0.180342704 0.0943969637 -0.00496885274 -0.0255596992 -0.0343501382 0.0495332517 0.0689689741 -0.097657159 0.0271506496 -0.00707270578 0.057159517 0.0557819903 0.0162030943 0.0174428578 0.0203296486 -0.0645457953 0.00369834807 -0.0870723352 0.0929170847 0.117104329 0.146651089 0.0312450659 0.0992908329 0.05485484 0.0104626603 -0.0578919537 0.0418835431 -0.0315267257 -0.158107638 -0.252786964 -0.0419897102 0.0852404758 -0.0627791733 0.0103868302 0.162603632 0.132919997 0.178454354 0.0687516332 -0.0243524052 -0.0740751252 0.0704485252 -0.0161045268 -0.00344419223 0.0151129905 -0.0250374917 0.0222217031 0.0235176776 -0.0371567011 0.0250255428 -0.0695347339 0.0685714185 -0.0489285327 -0.0344409421 -0.0226855259 0.0289740525 0.0243740138 -0.0436619334 0.0301890634 -0.0668779239 -0.0673112944 -0.0580650941 -0.0707719997 0.066290766 0.0332171209 0.0245616324 -0.0294701904 -0.0271354578 -0.0292026233 0.0666593462 -0.00272943918 -0.0526416674 -0.0624038689 0.0655948669 -0.0664292574 -0.0651309267 -0.0694464073 0.0438050926 0.0599327572 0.0221103951 -0.0403003842 0.00352621498 -0.0574303046 -0.00373190874 0.046496924 0.044860512 -0.00240610563 -0.0700224862 0.0308765285 0.0500621125 -0.0347431377 -0.0788551345 -0.00414789608 -0.106863327 0.0691802055 0.094174318 2.88454776e-05 0.13597095 0.0128007 0.309110552 -0.0387661085 0.0653648525 -0.00708430633 0.0158179421 0.119336136 -0.100190647 -0.0495645404 -0.00716670509 0.0862751007 0.0779038891 -0.0387525372 0.0708021447 -0.0203869175 -0.0446368866 0.102075592 0.0849663466 0.0602742508 -0.18289654 -0.0673450381 -0.0135998828 0.0804646984 0.0798391551 -0.139199153 0.108905591 -0.0108638424 -0.189835221 0.250936508 0.0752896667 -0.171182841 -0.0647870377 0.088701196 0.0718003511 -0.280386299 -0.0993634909 0.0123955645 -0.0799674839 -0.0197623707 0.17013368 -0.0118956966 0.0129538393 0.0501920544 0.0451670028 -0.0167610608 -0.0619090907 -0.0652683079 0.0437188782 0.00716553628 0.0396359265 0.0688281804 0.00754267396 0.0203238297 0.024994554 0.0499184392 0.0201600678 -0.0437464081 0.0277155358 -0.0120121688 0.00158168771 -0.0696050897 0.0259420406 0.0613196455 -0.0647723228 0.00417049043 0.00045232987 0.0311259516 -0.00671924558 0.00170914398 0.0301048737 0.0498817749 -0.0234795138 -0.0641165003 0.00751646003 -0.0694730058 0.0696928874 0.0485692881 0.0260222387 -0.0102306204 -0.0146897733 0.045231998 0.0218961835 -0.0319485813 0.0657960996 0.0625322461 0.0214953013 0.0552037135 0.0705985427 0.0341465473 0.0112128826 -0.220052212 -0.171483889 0.124295749 0.035586331 0.117122114 0.177083462 0.00397827569 0.0981517583 -0.128706798 0.0524546206 0.0427154861 0.0533766374 0.0325642601 -0.274069548 0.102235548 -0.052335158 0.0447869189 0.0394159555 -0.110915042 0.173686057 -0.154225841 0.181613222 -0.0101884268 -0.201893419 -0.0929491669 -0.240340203 -0.210051477 0.145663589 0.175048813 -0.0166967493 0.125727534 0.35295859 0.0442821346 -0.0462165885 -0.0398553498 -0.0482510999 -0.480772972 -0.271283716 -0.0349690281 -0.0726134032 -0.112176687 0.0296080019 0.144689783 0.20162797 -0.0220791642 0.0281779692 0.0112260971 0.00178084301 0.0519909747 -0.0262166969 0.00355855445 -0.0528407544 0.0693964511 -0.0145726325 -0.0647937581 -0.0218166821 0.0288562402 -0.0327129401 -0.0149466908 -0.0347876139 0.00595584186 0.0243547522 -0.0128407851 -0.0179707371 -0.00523180608 0.0247201808 0.0551813208 -0.0640553758 -0.00943975523 0.0324363299 0.00622790027 -0.0663570464 0.0408638082 0.0718223974 -0.0683618262 0.0551748611 -0.0012443309 0.00132217258 0.044496607 0.0362290628 -0.000313508819 0.0669692606 0.0597027279 0.00589111121 -0.00110738527 0.00071490783 -0.0344076119 0.00532797212 0.0153429108 -0.050893981 0.011905076 -0.00450518914 -0.0169719327 0.00086764025 0.0208276249 -0.27955696 0.196046889 0.0791125298 0.103519775 0.0319019817 -0.0382928178 -0.0975101814 0.0300151911 0.0549329743 -0.0251332242 -0.0102831041 -0.0953131467 0.430708408 0.0854301676 0.0256463997 -0.182503685 0.194167092 0.111940049 -0.0660898983 -0.0265134908 -0.282428384 0.13688013 -0.101216048 0.0171640646 -0.108172633 0.0968569517 0.0810905993 -0.0517518967 -0.0761190727 0.0674675405 -0.0244991146 -0.0342968628 -0.0364276618 -0.0328099169 0.0976422504 0.109636083 0.111522697 0.0426358096 -0.169127733 -0.0788651705 0.00906143151 -0.0473933816 -0.319810182 -0.293697357 0.0423826464 0.0591931269 -0.0345112756 0.0478597954 -0.0643765107 0.0622565933 0.0182661545 -0.031875968 -0.0415856577 -0.010025546 -0.00642345939 0.0430022143 0.0348603986 -0.0661342219 0.0333913192 0.0181573406 -0.0698334798 -0.0141253788 0.0485010371 -0.0101413187 -0.0187146906 -0.0674262196 0.0286404137 -0.0229742657 -0.000227864075 0.0119634317 0.0171320643 -0.0333948806 -0.0624416806 0.0709853992 -0.0038289784 -0.0499492399 -0.0170513317 -0.00674340362 -0.0319335088 -0.0559818484 0.0717510432 -0.0184672531 0.00107600086 -0.0252850484 -0.0291889776 0.0477996878 -0.0298706517 -0.00522359833 0.00891400501 -0.0215176772 -0.0118792756 0.0497114658 0.068452239 -0.0367750116 -0.0620711148 0.0348556079 0.0671212748 -0.0161597077 0.0937416852 -0.179400608 -0.108317807 0.113759965 0.013661135 -0.204827592 0.0882118344 -0.119894519 0.0273829605 -0.0260752439 -0.133253738 0.146507591 -0.105015978 0.0395463444 0.0078310417 -0.189244166 0.0492243841 -0.0998635367 -0.00180393329 0.00285263709 -0.112219445 0.0217554681 0.0491067469 -0.0285741799 -0.123130843 -0.125103369 0.0143326279 -0.090596661 -0.000702026533 0.0886543691 0.0627426207 -0.444061399 0.0358397439 0.178653792 0.0956567451 0.0542055555 0.0715381131 0.0697992593 0.0409336761 -0.0067965351 -0.126624092 -0.151800811 0.0797095597 -0.103673272 0.113425612 -0.222588107 -0.0187961627 -0.055935882 -0.062368948 -0.0170687363 0.0353944749 -0.00729949633 -0.0315940082 0.0335195661 -0.0692130849 -0.0514137 -0.0286013018 0.0264831968 -0.0410322659 0.0254652947 0.0128594711 -0.0556225255 0.000883315224 0.0183084123 -0.0274456963 -0.0591836721 0.0484934002 0.0497960411 0.0584616549 0.0671634004 -0.016086949 -0.009745555 0.0283330977 -0.0232386943 0.0280753467 0.0560577884 0.017570965 -0.01088103 -0.0097085787 -0.0710222423 -0.0139303617 0.0243641715 -0.0100617306 -0.0471801572 -0.0605868176 -0.0479450151 0.0151992459 -0.0252865031 0.0295807589 0.0267716795 -0.0555819608 -0.0359203443 -0.0445308723 0.0183349028 -0.233152851 -0.197950795 -0.126239702 -0.0170366503 -0.00241915951 0.0320457257 0.022590965 -0.123699695 0.0412635207 0.0528556928 0.0339627713 0.0626572147 0.127808571 -0.0916919112 0.0584096834 -0.060731221 -0.00599572668 -0.0743518919 0.00164264627 0.10864348 0.0472066998 -0.036174953 0.165961251 0.0652216449 -0.152782455 -0.0109409895 0.0899222344 0.112394489 0.0929280296 -0.0166132655 0.00694188289 -0.0353394113 0.119120508 0.035287492 -0.0338929743 -0.114213511 0.0147129036 0.144874752 -0.0875188559 -0.234438255 0.314162791 0.0185371488 -0.035049744 0.0267866049 0.0389410816 0.0531467497 -0.046605207 0.0237961449 0.0203407016 0.00837990176 -0.00560791139 -0.0250277184 0.0574201271 0.0606386587 0.00946338754 -0.0564967394 -0.0365506671 0.0097173024 0.045052167 0.0429903939 -0.00624756701 0.0384481177 0.0636326894 0.047077857 -0.0222531892 -0.0661750957 0.0330520608 0.0636564791 0.0489614308 0.0427416861 0.0272789933 0.038276121 0.0503964424 -0.0111676706 -0.0191344731 0.0593983196 -0.020507345 -0.0221764501 0.0342083275 -0.0130080907 -0.0573971048 -0.00347926747 0.0708076954 -0.045155216 -0.0456788652 0.0572561361 -0.0587861501 0.0143869761 0.0512078069 -0.0280403569 -0.02390798 0.0578320138 -0.0273714084 0.00396762742 0.00142200396 0.0123002203 -0.166569889 0.011258902 0.173950717 0.0747226626 -0.101499602 -0.269875854 -0.211095482 0.0765007064 -0.228403836 0.305930614 -0.0131905861 0.00489224261 0.092620559 -0.166248173 0.161785871 -0.156670362 0.196931571 0.0890173987 -0.231002584 0.14521946 -0.216387764 0.152665347 -0.121238686 0.0200137626 -0.0401570238 -0.0139224371 -0.0248793922 -0.602722049 0.024439944 0.213778228 -0.239559397 -0.122410797 -0.0567958094 0.244431004 0.013930981 -0.109428301 0.0191284511 0.0576400235 0.065115355 -0.351791143 -0.135195017 -0.143316373 -0.344438285 0.0494633056 -0.124901958 0.0662319884 -0.0685241222 -0.0389044955 -0.0472471826 -0.0147195663 0.00456727855 0.0203219205 -0.0525249578 0.0126209734 0.0334762558 0.00278252084 -0.0215483829 0.0348545499 0.0215181932 -0.0530821159 -0.00385717116 0.0706430227 0.00684459414 0.0158255417 0.00941311102 -0.00385430618 0.0639519468 -0.0696261004 0.0206725784 -0.0277974643 -0.0134250363 -0.061634738 -0.0491477922 0.0418186821 0.0233154166 0.0682321489 0.0283723641 0.0386077426 -0.00802020263 0.0479866527 0.0373286121 0.0670877844 0.0320349634 0.0682587177 0.0623336323 0.0582515597 0.0540672243 0.0110706873 0.0461005941 0.00780655956 0.0705397949 -0.0234016031 -0.0354659408 0.0390061215 0.0624406934 -0.0237785447 -0.0816799626 0.0506148376 0.047756087 -0.118956439 -0.104126096 0.0648038685 0.137538254 -0.0424500629 -0.0719634965 -0.208967566 0.0546081476 0.11548882 -0.138310701 0.185854256 -0.16056551 0.0895550624 0.0749069452 -0.0277530681 0.00369560486 -0.152381539 0.041674085 0.111978851 0.292054117 0.0865902603 0.0081861522 -0.236336038 -0.310977459 0.0215381235 -0.0959185511 -0.119654417 0.000756872352 0.231280625 -0.0252981242 0.193933085 0.0236749277 -0.187773675 -0.145829365 0.109429054 0.136640936 -0.155017525 -0.101709619 0.18127571 -0.0556684062 0.31216529 0.0794348121 -0.120181791 -0.0590166301 0.18821685 0.0633001179 -0.0525793135 -0.0593591146 -0.0287771355 0.0305918399 -0.0414164402 0.0566404648 0.0310742818 -0.0106855137 0.0500568412 0.00518173538 0.0323404223 -0.0187864657 0.0494027808 0.0108941672 0.00353621179 0.00838117581 0.0519261472 -0.0572148375 0.0290165003 -0.00817466434 0.0447774306 0.0538183413 0.0289714374 -0.0567444861 0.0159853455 -0.0374946073 -0.0441164486 0.0698860735 0.0240562726 -0.0520008691 -0.0592872687 -0.0235503782 -0.031858772 -0.0242377389 -0.00530403806 -0.002561806 -0.0650315657 -0.0376499556 -0.0450628847 -0.0642047375 0.0438771956 -0.0304858219 0.0715702251 0.0178541392 -0.00722936308 0.0415464528 0.0643581301 0.122351564 -0.134029657 0.129712284 -0.0252440777 -0.101256415 0.194619313 0.0740595385 -0.0281171892 -0.0144354263 -0.0768173337 0.0419728868 -0.0811139867 -0.0116680684 -0.105213366 -0.082412228 0.0409538746 -0.0586469434 0.0843403935 0.0993216634 0.0575608686 0.0406611674 -0.0454801582 0.0808640569 0.0383843221 0.0981509611 -0.100076869 -0.0717481449 0.107702628 -0.11535801 0.17440331 -0.0704035088 -0.117518574 0.14346531 0.0252168067 -0.045799695 0.104540378 -0.0385788716 0.184793457 -0.0245378781 -0.217290252 0.0946742147 -0.124841079 -0.16908963 0.0605774634 -0.05113215 0.0206952132 -0.0807478502 -0.0935807377 0.0348466672 -0.0200004112 -0.0086661214 -0.028568577 -0.0687181652 0.0138078611 0.0270722751 -0.0432179831 0.071675241 -0.0589796305 0.0715140179 0.0308024883 -0.0199211314 0.0489530154 -0.0421304628 0.0114219468 -0.0688319802 0.042060554 -0.0314673707 0.00244368427 0.0487031639 -0.0490362942 -0.056161128 -0.0458711833 -0.0493474565 0.0209169425 -0.0181580298 -0.0542539209 -0.0143590672 0.0428292751 -0.0692853108 0.059699785 -0.0337927863 -0.00745518832 0.00839988701 0.0417930186 0.0660560578 0.0348010957 0.0260523148 0.00431287335 0.0710602924 0.00121865899 0.0572283641 -0.0418453887 -0.0488514975 -0.0131412596 -0.00628959388 -0.0212198701 -0.026772216 0.147288576 0.120798305 -0.0211210176 0.0477033034 -0.0563349314 -0.0881385431 -0.119769908 -0.0348989591 0.184153453 -0.0732940808 -0.0611691214 0.0675695837 -0.0592165999 -0.000959797297 0.0205539353 -0.143020809 -0.0350477919 -0.0618396141 -0.128123373 -0.0758040771 -0.0842806324 -0.0375777818 -0.0363068208 -0.306897283 0.0252786111 -0.0715247989 -0.121330127 0.105606601 -0.0669710189 0.0337061249 0.187063053 0.105585106 0.0581952259 0.0479838178 -0.124699488 0.010557822 -0.0931126028 0.0177360773 0.437916398 0.245085716 -0.167800054 0.00391942868 0.0553393289 -0.086898692 -0.0548510142 0.046623107 -0.0862631202 0.00843865331 -0.058789093 -0.0165405441 -0.0676866323 0.0219690353 0.0152144823 -0.0115912408 -0.0193685573 -0.0421956331 -0.0312692113 -0.0671114698 -0.0168564264 -0.0130711263 -0.069252938 0.0347188488 0.0018228438 0.0452540331 0.0163415093 0.0695282891 0.0218115021 -0.00158660882 0.0684161857 -0.0457328856 -0.0210256875 -0.0417928062 0.0600416586 -0.0528306961 -0.0515974909 -0.0594469607 -0.0350596905 0.013754745 0.0696061775 -0.0281967372 0.000394155126 -0.0229953192 0.00811785739 0.00282491744 -0.0312400125 0.0592394359 0.0316000059 -0.0177911893 -0.0564707145 0.0305927172 0.000221953684 -0.0705682784 -0.0359556116 0.0301539637 -0.0142877642 -0.1592291 -0.0755300596 -0.0724711269 0.167066425 0.141847357 0.0948265791 0.2547324 0.00943310093 -0.103719637 0.0507135242 0.00343569904 0.0326594859 -0.0623451136 -0.0074222465 -0.0107579362 -0.0260493513 0.114967756 -0.0475925058 -0.00493967114 0.00668067299 -0.0056313104 0.0381667875 0.0278065484 0.017677499 -0.0760762319 -0.0714318454 -0.0917658955 -0.188996598 -0.175459102 0.238249853 -0.0311056972 -0.0903379768 0.0552050285 -0.0982077047 -0.0117827635 -0.0440290011 -0.167921498 -0.00441091601 0.316003144 0.00483664637 -0.114360064 0.113901317 0.180438399 -0.0518475436 -0.0615587719 0.204397187 0.0364263952 -0.0189741477 -0.0697260201 -0.0609465316 0.0252255145 0.0165868457 -0.0285894815 -0.000413796195 0.0701525733 0.0173921734 0.0661987737 -0.00329985656 0.0471710302 -0.0633771718 0.0488582961 -0.0331870876 0.0550712496 0.00383139588 -7.78330505e-05 0.0312279854 0.0215463433 -0.0159215443 0.0617144518 0.0384214558 0.0703767985 -0.0314848423 -0.00607114146 -0.058538802 -0.0033798404 -0.0664962903 -0.058961872 0.0234404653 -0.00788033195 0.0518310927 0.0550058223 0.0635894611 0.0296777003 -0.0284287054 -0.0382119156 0.022773331 0.0171822216 -0.00120039436 0.0279476922 -0.0106342994 -0.035113927 -0.0336733833 -0.0322798379 0.0300013516 0.0530678369 -0.00627230993 -0.0122062862 0.191743642 0.029277904 -0.161424249 -0.00510822749 0.0389191881 -0.0703473091 -0.0241254047 -0.0743461773 -0.0164385978 0.0275757555 0.0133825736 0.124501027 0.0655088946 -0.0669596791 -0.0704412162 0.0544721782 0.102450296 -0.137060836 -0.0495441854 0.0827913135 0.0428319536 0.00275806128 0.141504481 -0.0961285532 -0.0796984211 -0.0691504776 -0.184098154 -0.12960951 -0.0878291056 -0.030132262 0.107450128 0.127826333 0.0315473303 0.00454325136 -0.259965211 0.0179396681 0.067541495 0.0914240703 0.0422584414 -0.000918193662 0.266494423 -0.0417268127 -0.0103188036 0.112481974 0.0864669457 -0.1327115 -0.280317038 -0.00254384265 0.00554555561 -0.0410558283 0.0679718032 -0.0542893149 0.0198800005 0.0692442134 -0.0176490135 0.0188551806 -0.0177408606 -0.0508212596 0.00514073251 -0.0214287899 0.0331417657 -0.0575975701 -0.0114143677 0.017897835 -0.0441431887 -0.0269500073 -0.0659022629 -0.0510280803 0.0263501238 0.0259075332 -0.00981610175 -0.0211519729 0.0367509313 0.0705887377 0.0310174227 0.060750559 0.038085036 -0.0363474414 0.0424130782 -0.00194525847 -0.028524898 -0.0280179642 -0.011613437 -0.0306314752 -0.0429994017 -0.0541185066 -0.0237385314 0.0328559317 0.0538855158 -0.0488149077 -0.0114781512 -0.0716736838 0.00454674242 0.00777115766 -0.0600848533 -0.186912134 0.117136948 -0.045818463 0.0408746898 -0.2698704 -0.195522949 -0.0107883159 -0.102871478 0.237173066 -0.036334075 0.0127570406 0.00952527113 -0.0631073937 0.133323357 -0.207778171 0.00177982543 0.0355797075 -0.0954779908 0.160768107 -0.182329401 -0.0967002362 -0.0403633304 -0.0943538547 0.00539215608 0.0970245823 -0.166302562 -0.115956113 -0.0337867402 -0.156650245 0.201482892 0.316687882 0.0928967595 -0.226261139 -0.00590666151 0.141054302 -0.0821640119 -0.345986038 -0.258059561 -0.0273087807 0.0328472294 -0.0895256624 -0.130390525 0.00793700852 0.0802368149 -0.0358446911 -0.436514318 -0.155292317 -0.133150458 -0.0610770173 0.0186685771 0.0272166971 -0.0165031366 -0.0436509661 0.0442461856 0.0639485642 -0.0453901514 -0.0230565127 -0.0199111439 -0.050935749 -0.0404891223 0.0604923777 0.0414426737 -0.031154247 0.0128707327 0.061478246 0.0463337414 -0.0597195961 -0.00781769212 -0.00583933713 0.038530305 0.0697288811 -0.057475552 0.0243329853 -0.0658521801 -0.0015976209 -0.0564019829 0.00458375365 -0.0158982631 -0.0201088358 -0.0579593927 0.0458370112 0.0257636439 -0.00294976681 -0.0400843583 -0.0535064787 -0.0569589101 0.0122267576 -0.0326618701 -0.0647231936 0.0638025776 -0.02627353 -0.0686110631 0.0502496362 0.0087844329 0.0423694253 0.0534652844 0.00181522069 -0.212165087 0.0644894913 -0.181236669 -0.0368694067 0.121203877 -0.0850056335 0.1467731 0.146484762 0.0669227615 -0.00469830306 -0.121961884 0.0409599319 -0.000875818136 0.132736772 -0.0849784017 -0.110615388 0.0659125969 -0.160109133 -0.101621628 -0.0571644381 -0.0683133975 -0.0408278741 -0.130197361 0.183659852 -0.347914159 -0.382646471 -0.129204378 0.150230899 0.0859187543 0.227915481 -0.0233304165 -0.166616499 0.002956677 0.168271959 0.110231966 -0.183369666 -0.154059187 0.0959173813 -0.0776000768 -0.172105774 0.0179405846 0.0770434439 0.124831825 -0.0850462839 -0.157642841 0.24228853 -0.168417022 0.00340098701 0.0141401077 0.0191631131 -0.0721388683 0.0673310831 -0.0187251084 0.0348983482 0.0313352495 0.0659967735 0.0357303284 0.0543443263 -0.0555631146 0.0517435968 -0.0219606645 -0.00963467732 0.0159497187 -0.0591796115 0.0660094842 0.0164892431 0.0257228743 0.00644285092 0.0207192414 -0.00744567299 0.0324242935 0.0657357648 0.00803232472 0.0204356536 0.0697691217 0.0711173862 -0.0225584228 -0.00258785649 0.050012663 0.0192402415 0.0229583513 0.0101474794 -0.0408132561 -0.0574498251 0.0547501892 -0.003925859 0.0176954269 0.0472572148 -0.0658955052 -0.061691545 0.0277443137 0.0402903706 -0.026829768 -0.0492587201 0.0652947202 0.159004748 -0.0592375994 -0.203367263 -0.0789203644 -0.0935706645 0.176771685 -0.137510985 -0.091040194 0.0781549737 -0.152453631 0.0297105908 -0.075733833 0.00350624952 0.0589596815 -0.106986992 -0.0136569282 -0.086678572 0.0406755134 -0.119644098 -0.149098381 0.134299263 -0.166372225 0.0668966621 -0.0722667649 0.211331293 0.0574540831 0.118597433 0.168908313 -0.152472824 0.000662972277 0.193291754 0.121387407 -0.319326401 -0.112164855 0.144211352 0.0141906133 -0.433478117 -0.013346117 0.551233768 0.0910730958 -0.34649992 0.102089159 -0.0393941551 0.0201450661 0.390544116 -0.182794034 0.0439474806 -0.0325788707 0.0489154793 -0.0704628453 0.050483875 0.0598475449 -0.0600069277 0.0458582677 0.00444188667 0.0404505171 0.0220735036 -0.0612953417 0.0662582815 0.0574596263 0.0325442217 -0.0355863348 -0.0140753165 -0.0542754233 0.0295355059 0.0441818088 -0.0449323319 -0.0334630236 0.00418254361 0.0529643372 0.0657365471 -0.0203965623 0.0353261307 0.0160342976 -0.0466848351 0.0157300532 0.0678259954 -0.0265317019 -0.0710855499 0.0283250194 0.0669362992 -0.024870066 -0.0504162386 0.055056341 -0.0628671497 -0.0165250842 -0.0654798448 -0.0222917497 -0.0107152462 0.0501352325 -0.0251346212 -0.00936009828 0.0560884997 0.043330729 -0.0234403964 0.0374838188 -0.152884156 0.131292105 0.0817414746 0.0130675491 -0.111893594 -0.0937179849 -0.0704932362 -0.0801271498 -0.0185721107 -0.107552141 -0.0103770886 0.126351997 -0.108351082 -0.0894708708 -0.0523558892 0.0593143702 0.16285482 -0.102618255 -0.0175678805 0.0601995364 -0.0046608327 -0.00664905598 0.00284862099 0.0284048766 -0.0790306255 -0.00695058797 -0.0973078087 -0.214691177 -0.0263306014 0.0926746875 0.255077004 0.000236278604 0.126033127 -0.000791639264 -0.0456256978 0.111233063 -0.0424415916 -0.265621334 -0.0498821735 0.106203057 -0.450280428 0.113227107 0.209305361 0.0380665064 0.218370363 0.0644948781 -0.135205835 -0.0765743628 0.052962549 -0.0543218367 -0.0366768911 0.0132256998 -0.0570175238 0.0182522591 -0.0673651323 -0.00912382826 -0.0650540367 0.0681988895 -0.0146035356 0.0408721864 -0.0133314421 0.0534844957 0.0644170716 0.0579928942 0.0702215806 -0.0283207521 0.0147984065 -0.0293380544 0.0118115339 -0.00322321919 0.061589174 -0.0478830561 0.0596393123 0.0394151583 0.0646631122 -0.0389499143 -0.0482820868 0.0171511453 0.00768300053 0.0630765185 0.0672050714 -0.0235174894 0.0161853172 0.0136149172 0.0251253825 -0.0604793094 -0.0195560567 -0.0665742829 -0.0559887737 -0.0415390953 -0.0168104507 -0.0563182048 0.0482030138 0.0636628643 -0.0202122554 -0.0704651475 -0.208767325 -0.0909687653 -0.266557693 -0.145185158 -0.160452679 0.08350835 0.0450810865 -0.119952567 0.0766623095 -0.170183018 -0.0561923049 0.0562560298 -0.0109122964 0.115026131 -0.167423338 -0.0471213385 -0.011393968 -0.118665911 -0.048578728 -0.0403366536 0.00885228254 -0.105121434 -0.114417695 -0.0355627388 -0.139432609 0.103005275 0.061224401 -0.101321325 -0.0152768306 0.116280593 -0.154258132 -0.312266409 0.412900686 0.312454045 -0.0865800381 -0.0336271226 0.0302666035 0.239585966 0.0660160929 -0.23594901 -0.154435992 -0.132392183 -0.0650491938 -0.0262657385 -0.259074122 -0.192062512 0.0336096622 0.102902904 0.0283507686 -0.0421338081 0.0333467945 -0.044409018 0.0098526217 0.0307583194 0.0291988291 0.0681449473 0.0662507117 -0.0329700448 0.013803645 0.049656827 -0.0505390242 0.0194981992 0.0676182508 -0.00768341357 0.00997100212 0.0185712837 0.0621755086 0.0454616249 0.0174506139 -0.00529402401 -0.0505912341 0.0237036534 0.0605131201 -0.0635579899 -0.00943183992 0.0206870306 -0.0530444011 0.027863346 0.065633364 0.0285124145 -0.0379686095 0.0183345322 -0.0245926902 -0.0680847988 0.0435435101 0.0462893136 0.00590474717 0.0392430685 -0.0459165797 0.0599056929 0.00970955938 -0.0614544116 0.044626601 0.00248482474 -0.0232677478 0.014396104 0.00971150585 -0.00277050212 -0.0163554605 -0.115220085 -0.00019311643 0.0799826831 0.0687753931 0.131698772 -0.066850394 -0.079243429 0.0762138367 -0.0554437973 -0.0678044111 0.0242118202 -0.0203580745 0.0553979799 0.148333266 -0.00240595057 0.0120793339 -0.03209069 0.0388995036 0.155913725 0.0235966519 0.185565919 -0.0459321067 -0.0259263031 -0.0390248373 -0.0832197815 -0.049975913 -0.176730067 -0.0187695641 0.0352662504 0.0295564756 -0.118441939 0.121298209 0.0929496139 -0.015623345 0.0112551255 0.148331478 -0.049561996 -0.0632117242 0.213997036 0.0230786391 -0.023233166 -0.0512713455 -0.0675258934 -0.0252915323 0.105507739 -0.048844967 0.019045284 0.0382696539 -0.0588734485 0.0178682394 -0.054039292 0.02048699 0.00550333131 -0.054177165 -0.0404516719 -0.0321391933 -0.0694665909 -0.00129927951 -0.00148799038 0.0145742586 0.0511569977 -0.00712884357 -0.0517914742 0.00651673507 0.00655422779 -0.0214175023 0.0367656685 -0.0643970817 0.0713727176 -0.0644708797 0.0397532657 0.0377915204 0.0240101945 -0.0150506599 0.05824643 0.0324180052 0.0232454818 0.00910705235 -0.0667589754 0.0422436893 -0.0433987007 -0.0605501682 0.0132427691 0.0491764583 0.013766462 -0.0503009222 -0.00115701708 -0.00416674837 0.0274139773 6.73199538e-05 0.0604701489 0.0345729999 0.0592716709 0.232434243 -0.279912978 -0.0101611316 0.14888522 -0.0475258306 -0.371173263 -0.276568919 0.0335141048 0.176711738 -0.0772369131 0.163596317 -0.0446574278 -0.0226473324 0.381885886 -0.0988831446 0.046993833 0.0152161019 0.133082479 -0.0573762096 -0.0935851485 0.257393301 -0.18118827 0.0182635747 -0.00460194191 -0.139271438 0.495265841 -0.172337174 -0.191544101 -0.219705448 -0.383751512 -0.0291668512 0.0653606653 -0.396631926 -0.23492305 -0.246665671 -0.278664261 0.217745781 0.112879403 0.00186618953 0.013623693 -0.0460675471 0.187675789 0.330019206 -0.0194423068 -0.0568939857 -0.0585277341 -0.179565653 0.199524164 -0.00109534943 -0.0314000659 -0.0509523526 -0.0710572451 0.0461298265 -0.0207994655 -0.0492639355 -0.0316161104 -0.0234034192 0.0279263649 0.0501860417 0.0262167044 -0.00699030655 0.00846056547 0.0643094257 0.0217956379 -0.01267076 -0.0521860085 -0.0229817424 0.0221478008 -0.00938949455 -0.0230598673 0.0516857915 0.0229080915 -0.023608502 -0.0359173156 -0.023700092 -0.0616780631 -0.0386573374 -0.0471888557 -0.0593360513 0.0680384934 -0.0528640337 -0.000205530188 -0.0477481894 0.0124843121 0.0545546561 0.00769202551 0.0197153874 0.0349907205 -0.0346893072 -0.0458973795 0.0395081751 0.00456994539 -0.0470474027 0.04701389 0.03937665 -0.0315914527 -0.134434581 -0.272533149 -0.0741179138 -0.160205066 -0.105312176 0.0774643272 -0.0819285214 -0.060153354 -0.0104504107 -0.0542366579 0.0638459995 -0.0290368367 -0.308206409 0.0220976528 0.0257512517 -0.0189488586 0.0475180112 -0.118784674 -0.075469546 0.132560924 0.0252934638 0.175946042 0.200745687 0.2752783 0.215940893 -0.193465158 -0.11390698 0.2423338 0.241418138 -0.0224573184 -0.0940578654 -0.26281175 -0.186542436 -0.0998861864 0.0479081757 -0.210199773 0.0299459528 0.066396445 0.0105524696 -0.116182938 -0.299089402 -0.0800643414 -0.351416975 -0.225902319 0.0693946332 -0.0733543187 0.131602168 0.137248114 0.0414946191 -0.043175932 -0.0383052342 0.00268927962 -0.0228822641 -0.033412464 -0.0589780957 -0.0361398123 0.029397089 0.0291055702 -0.0138972132 -0.0504247807 -0.0162281524 0.0128183737 0.0273767766 -0.0628541708 0.0518687814 -0.0272316579 -0.0608059391 0.0635214224 0.030990839 0.0276134852 0.0354452357 0.0303401016 -0.0193367265 -0.0669079125 -0.067809321 -0.0113474866 -0.00555852056 0.0214493256 -0.067316398 0.0519800559 -0.0404548645 -0.00520414673 0.0379563496 -0.00301275076 -0.0414923728 0.0355224572 -0.0143276826 -0.0374514982 0.0475377329 0.00459227897 -0.0618358776 -0.00381810404 0.00576003315 -0.0517966039 -0.0450985022 0.0114493305 -0.0547893271 -0.171438321 -0.0623645857 -0.0959483013 0.320709318 0.0839522704 -0.133285016 -0.00230918126 -0.145702481 0.0934650376 -0.149746552 -0.00374184665 -0.00980319921 -0.128429443 0.158479869 -0.207309023 0.0071828803 0.00747580128 -0.0749855638 0.0984655842 -0.199611738 0.0904829055 -0.231608182 0.106957078 -0.0667584315 -0.00359707838 0.136968672 -0.0631396174 -0.00719405897 0.693585336 0.113986649 0.0917142034 -0.0812695399 -0.325323671 -0.0508053713 -0.080076687 -0.167478383 -0.436498404 0.0525360331 -0.0395705365 -0.0226190165 0.050822258 0.00309971464 0.254169911 0.0374019369 0.0459500663 -0.0423641205 0.293016195 0.0533622541 -0.0114564719 0.0700210631 -0.00339654763 -0.025098823 -0.018492762 -0.0112637943 -0.0613980182 0.066968143 0.0687842593 -0.00521006575 -0.00050534273 -0.064910464 -0.0712704808 0.0512145273 0.0605523773 -0.014988347 0.0480274744 0.0136861345 0.0363618694 -0.0595239177 0.0450888425 0.0622790456 -0.0504703 -0.0213741083 0.0125024905 -0.0393715054 0.0143172042 -0.0577515662 0.000209969439 0.0109028649 0.0162082873 -0.0523939133 -0.0689665601 -0.0334998034 0.047542911 -0.0050450908 0.0228902381 0.0282797664 -0.0666915849 -0.0313475616 -0.0497914553 -0.0263544079 -0.000397811469 0.0409336202 -0.0559383072 -0.0702272803 -0.0178710874 -0.100537412 -0.0637209192 0.0767268017 -0.250161976 -0.0771731585 0.0130492393 -0.0521793887 -0.0771826208 0.177950636 0.0479450859 0.0368704274 0.0772146583 0.094697386 0.283594877 -0.0389294289 0.00609266758 0.0410209745 0.544843018 -0.0342466235 -0.268034667 -0.0234379172 -0.195622563 -0.0818214044 -0.18218556 0.0532813855 -0.0284829717 -0.249793753 -0.0306423437 0.0979162306 0.0797812641 0.026443921 -0.0521739349 -0.217644975 0.0567297004 0.0316018164 -0.0879734531 0.120967291 -0.126364991 0.109929867 0.0470812283 -0.0119289765 0.0628520921 0.227330714 0.0413757749 -0.0435353667 0.0688092783 0.0670575202 0.000400978577 0.00959013868 -0.0125724599 -0.0621262863 0.0317042507 0.036625281 -0.0206718817 0.045816455 0.0520067364 -0.0454266295 0.0416100286 0.0308513474 -0.00258290977 0.0594108477 -0.0371234156 0.00163288531 0.0572344214 0.032722678 0.0551212877 0.0226589087 0.00896711275 -0.0689548254 0.0362541936 0.0408180393 0.060747765 0.0191519037 0.0308919363 0.0573021434 -0.0700857118 0.0154876076 -0.0477823876 -0.0249732342 -0.0674623325 -0.00543540018 -0.0479151271 -0.0414993428 0.0541256852 0.0200834312 -0.00854125526 0.0109901698 0.0531261899 0.0611080416 0.056644354 0.0446149334 0.0284951385 -0.0181749854 -0.0587031841 -0.0652320981 -0.000661198108 -0.0458701774 0.135164231 0.110685788 -0.0963323414 -0.116011202 -0.216146931 -0.134598956 0.106628761 -0.148897946 0.0771731064 -0.0169892684 0.0708394125 0.228387803 -0.0571453981 0.306911588 -0.0935118124 0.0961154103 0.0375436358 -0.154954195 0.236079127 -0.0253275316 0.25863722 -0.120353967 0.0693939254 -0.288525462 0.219562411 0.166275561 0.0914628208 0.352014393 -0.0795052275 0.0654280931 0.136994705 -0.0675012544 -0.093263723 -0.119455479 0.0771392435 -0.178669542 -0.472762555 0.294100255 -0.137494251 -0.0552262515 -0.409163326 -0.226808146 0.109983459 -0.0935486853 0.0127901034 0.0984932929 0.0267145652 -0.0526898876 0.0705862343 -0.0296377204 -0.0128426943 0.0595147461 -0.056755852 -0.067133829 -0.0261339433 -0.0110031264 -0.0589385927 -0.0377546921 0.0436930433 0.00302310055 -0.0196811296 0.0250575375 0.00487833517 0.0018440506 0.0106773153 -0.0246977955 0.0391073041 -0.00749679329 -0.0634918585 -0.0583215207 -0.00207101135 0.0488997363 0.0506755561 -0.0197477601 -0.0411563516 0.00076734426 -0.0100476993 -0.05850894 0.00123577076 -0.00989108626 0.0162172876 -0.0269854423 -0.0526399463 0.0291624796 0.0690484941 -0.00838368759 0.00429314608 -0.0300404616 -0.0429369956 -0.0235400628 -0.00294072484 -0.020063309 0.0524933152 -0.0641818568 -0.0680942237 -0.47188893 0.298814416 0.0641844496 -0.189680085 0.120674871 -0.0797416866 0.0646578968 -0.107286051 -0.179256842 -0.0792787597 0.0105710709 0.153354093 0.264639199 0.114675172 -0.0728191435 0.428372562 0.101526462 -0.124000937 0.0230871849 -0.326106876 0.151985139 -0.0394642949 -0.106952704 0.0140273655 -0.291567862 0.030100815 0.130145207 -0.0611624159 -0.173735857 -0.182004452 0.104374826 0.088801235 -0.0658094138 0.300876707 -0.0896241665 -0.117857777 0.14532505 -0.0506429225 0.113951065 0.158400536 0.0503908992 -0.207214475 -0.128238454 -0.071059905 -0.171533704 0.104211144 0.075423792 -0.140983284 0.0283621512 -0.0547116026 0.0233659949 -0.0249210224 0.0702330098 -0.0720382184 -0.0550892316 -0.0129492367 0.0708811656 0.0159138963 0.0490133688 -0.0226404965 0.0515511632 0.0549443886 -0.0295004658 -0.0536511578 -0.0372439548 0.0309180133 -0.0232531298 0.0044453796 0.025981158 0.0135551933 -0.0525615625 0.03635763 -0.0387231521 -0.0552389547 0.047653839 -0.0254938658 -0.0700182691 0.0494032279 -0.0124829262 -0.0277477372 -0.0619634055 -0.0380274057 0.064894408 0.0226267576 0.012808118 0.00979573745 -0.0550129227 -0.00536472537 0.03764157 -0.0664409772 0.0666598752 -0.00906810537 0.0621716529 -0.0468704514 0.0123204552 -0.0249323603 -0.171632573 0.108733252 -0.199705943 -0.196913794 0.0812923685 0.197848096 0.200461179 0.122671232 -0.248569086 0.12197458 -0.0888464749 -0.0422978364 0.0702565983 -0.0560071804 0.140692919 -0.0328984484 0.166923851 -0.0612742789 0.0334985331 0.0646034628 0.0314990692 0.132380843 -0.0384189487 0.0385368243 -0.0719857141 -0.279966623 -0.180875212 0.159660205 0.219616875 0.0220824555 0.0284912921 -0.0143206147 0.032130748 0.328722298 -0.0156056667 0.0235513654 0.231075406 -0.0437578261 -0.321353853 0.0472149253 0.142367557 -0.234694719 0.0486973561 -0.0336028188 -0.147311509 0.113818176 -0.262193173 -0.280018181 -0.00673012016 0.0365982354 -0.0549521074 -0.0514721833 -0.0154693518 -0.0299731065 -0.0493561886 -0.027948888 -0.00389124826 -0.0104702618 0.0151073728 -0.063021034 0.0283718389 0.0203646272 0.0352229439 0.0674782023 -0.0148512125 0.0348183103 0.0546681136 0.046447061 0.0387147292 0.00676192623 -0.0423311666 0.0240029059 -0.0169603266 0.0141992802 0.0178131964 0.0607083775 -0.0329553261 0.041383449 0.0094338702 -0.0607466362 -0.0264984518 -0.0282395221 -0.00778451841 -0.0702136457 0.0493327938 -0.0513624512 0.0192756616 -0.0508153923 0.0657246932 0.0287123863 -0.0277964566 0.0372097045 0.0533223189 -0.0458595082 -0.072039932 0.0660565794 -0.0551405735 -0.184193134 -0.0107284617 -0.0504001528 0.0274477936 -0.0604495667 -0.00687934319 0.0222702026 -0.178886756 -0.00835435279 0.161276087 -0.0270785224 -0.0779525265 0.102674529 0.0349522606 -0.00334338401 -0.200719669 -0.164896831 0.0327441506 -0.00393114192 0.0196181051 0.154759005 0.0107542593 -0.161345229 0.0999613702 -0.0141467229 0.279616833 0.229091808 0.22969459 -0.150007829 -0.064273648 0.138292983 0.132259637 -0.12860842 -0.0621928759 -0.0720891804 0.00983841904 -0.0183654763 -0.292837858 -0.248144999 -0.0592411608 0.0229341555 -0.366657555 -0.288416266 -0.160746396 -0.100688584 0.34930867 0.225191638 -0.00905843545 -0.00156991859 0.0175970588 0.0144425957 -0.0600414611 0.0664955229 0.0465213843 -0.0465727113 -0.0575346798 -0.0669089705 0.00795210805 -0.0324555561 0.0124508366 -0.0552984439 -0.0378249958 0.00561187742 0.0463839844 -0.0429357216 -0.0159947407 -0.0232219007 -0.0138405273 0.0170350727 0.0464915223 -0.0606875084 0.0238274354 0.0479217097 -0.0147439567 -0.00707980525 0.0195986163 -0.0672760904 0.0631359816 -0.0635865852 -0.0190373342 -0.011352622 0.0610547438 -0.0415093824 0.0491985008 -0.0303425621 -0.0405250229 0.0380544625 0.00407028943 0.00416436512 0.019295482 -0.0657873824 0.0227102004 0.0627403483 -0.042532336 0.0152709708 0.239773542 -0.224312559 0.0103644785 0.343317717 -0.1723575 0.0745425224 0.254307956 0.0166290551 0.0284303557 -0.164558962 0.0286923964 -0.0871505141 -0.0986984149 -0.0251155514 -0.209379807 0.101129614 -0.0933092237 -0.116798826 -0.0229056552 -0.189323187 0.0860840082 -0.161077008 0.0602141917 -0.091716893 -0.0886158347 -0.214531422 -0.0122304 0.272128284 0.0830064714 0.544812679 0.279963762 -0.234537274 0.0216310937 0.0464086309 -0.0288893264 -0.130559489 0.0782585815 -0.0574048683 -0.115634263 0.0659757853 -0.147077069 -0.089703314 0.401394308 -0.0938653275 0.131508842 0.207161069 -0.138947561 0.157239407 0.0198157262 -0.0686102882 0.0230770055 -0.032793086 -0.005491863 -0.0411687717 0.0682694465 0.0421237797 -0.00500998134 0.0624103136 0.0664771274 -0.0705670938 0.0493437387 0.0187527332 -0.0530062541 -0.0666899458 1.08916374e-05 0.0582632571 -0.00970744342 -0.0676310286 0.0526504442 -0.00777814351 -0.0573160984 0.062758483 0.0500398241 -0.0149988607 -0.00996903982 -0.0538360924 -0.0370511413 0.0645579994 -0.0513851903 0.0653775036 0.0702066645 -0.0465538204 -0.052979514 -0.0622620396 -0.0395576023 0.0614886284 -0.0648632273 0.00442565279 0.0199876782 0.0697021559 -0.0509055108 -0.062774092 0.0540458113 0.0548365116 0.0300889928 0.0356436856 0.16045554 -0.0486581177 -0.127116397 -0.200861171 -0.10215883 0.0550327487 -0.165620014 0.0298707057 0.0739617795 0.037133988 0.136437818 0.121683218 -0.0363841392 0.0240220223 0.012673744 -0.212040514 -0.00520559447 0.033936061 0.251283705 0.110144764 -0.227308795 0.14391534 -0.27118057 -0.215413958 0.127641961 -0.178533584 0.132188365 0.0664256886 -0.125084728 -0.11832428 -0.249220341 -0.254349798 -0.0304271188 0.0704920068 0.0216535721 -0.224385113 -0.275275886 0.0565589331 0.0777640939 -0.10768196 -0.279461026 0.346332222 0.153390482 -0.226113081 0.0416573845 0.0180438198 0.112032868 0.113715902 -0.00977543369 -0.0142658949 -0.0607576221 -0.0318273939 -0.0345815271 -0.0439909734 -0.0408894345 -0.0115315514 0.00121408212 0.0219926517 0.00557234604 0.0712337717 0.0463543981 0.00605298905 -0.0367856547 -0.0366460346 -0.0348907597 -0.0654445589 -0.0135324989 0.0672538728 -0.0422105417 0.043601349 0.0515596084 0.0425961874 0.0681646615 -0.0450039618 0.0635527968 0.0151296118 0.0375736803 0.0632615983 -0.0327964313 -0.0280069336 -0.0569669642 -0.0654908866 0.032336507 0.0462929793 -0.0456046872 -0.0153956395 0.051316388 0.0672097057 0.0682389662 0.0166435055 0.0328440778 0.0398583189 0.0262823906 -0.0279020183 0.0656954646 0.028539937 0.251816958 0.0580523573 -0.112986147 -0.0711336061 0.0686624721 -0.0733897537 0.185774878 -0.0889008567 0.005084679 0.0273291767 0.0341803953 -0.0109842159 -0.0928030163 0.0658407956 -0.00706140883 -0.00985023379 0.0899991766 -0.0458807983 0.0190604627 -0.124695577 0.0710482523 -0.0310241859 0.0351946168 -0.0410739854 0.0773350969 0.33477962 0.0276896544 -0.214972079 -0.0644406676 -0.0718193427 -0.035501387 -0.0185796432 0.10519769 -0.0702560991 0.0413895287 0.21341522 0.0529766418 0.257095248 0.222481623 -0.0325244069 0.0246640425 0.106562376 -0.404181987 -0.0837705806 0.12589851 -0.196086869 0.171395898 0.0481947735 -0.0273719337 0.0678351372 -0.0364663973 -0.00580176711 -0.0398760661 0.0712438524 -0.0655613542 0.0298737995 0.0158655886 -0.0480231829 0.00403612619 0.00359204668 0.0272086021 0.0499909408 0.00574706821 0.00202148268 0.0232045818 0.0613615662 -0.0543723889 -0.0521508045 0.0668554977 -0.00653846702 0.0027198724 -0.0433950461 -0.0310541578 -0.0387738086 0.0445872918 0.0588218644 0.0475025512 0.0718901679 -0.0263989214 -0.0274827331 0.0205504633 -0.0619247928 0.00646821316 0.0250593014 0.0352952816 -0.0253016353 0.0433877595 -0.0322492458 0.046505779 0.0430998541 -0.0612054989 -0.0266062655 0.0127525078 0.0259629022 0.00188036461 -0.0158780627 -0.0746748075 -0.0510978885 0.0370725468 -0.0439392254 -0.0703446865 0.0554464273 -0.180103451 -0.182725012 -0.0760727003 -0.0728693381 0.112459034 -0.0479419231 0.00103945925 -0.0756378248 0.035717126 0.0157155097 -0.0591582693 0.0386571921 -0.0399625152 0.0439450964 -0.0201713778 -0.031723462 0.118364736 0.173523992 -0.212961286 -0.181242585 -0.19384183 0.139315799 -0.0564895198 0.012249127 0.137833104 -0.11229293 -0.0765753463 0.0235832427 0.0740717873 0.0565166809 -0.200027123 0.0673850551 0.0953999981 -0.00298168324 -0.120100632 0.0494311228 0.12805438 0.13515988 0.0911594108 -0.0925120637 -0.203550383 0.105290368 -0.0238261633 -0.0358928256 -0.027381001 -0.0148136858 -0.0419607498 0.0287087485 0.064418599 -0.0415035412 -0.0213445816 0.0716203302 0.0503538661 -0.0442564487 0.00957483333 0.0365203321 -0.0243228767 0.00582809281 0.0511484966 -0.0126850503 0.0468224101 0.0221807864 0.0301485863 0.0480255559 -0.0103141656 -0.0712043196 -0.025108356 0.0276178978 -0.0082212938 -0.0502192155 -0.0375850126 0.0054061925 0.0597531833 -0.00919706747 -0.0470728911 -0.0502545051 -0.00724645751 -0.0445056558 0.00475279754 0.0346119218 -0.0398690812 0.0401567556 -0.0417705327 0.00464593712 -0.057778392 0.0491561294 -0.0470846705 -0.00602045143 -0.0410206877 -0.0151070282 -0.104301132 -0.183627188 0.0314979516 -0.0963294506 -0.182860792 0.208711654 0.0591314808 -0.126487404 0.0627060235 -0.0692229196 0.0946949646 0.0270599034 -0.121958405 0.0866533518 0.0777443573 -0.00492974231 0.0198711101 -0.0412005968 0.0032439651 0.00595004065 0.0967832282 0.0300715361 -0.100050725 -0.0453789644 0.0341156349 -0.105366573 0.0782611296 0.145087928 -0.156844839 -0.320475489 0.0440697223 0.0377051011 -0.0702957958 0.00064781314 -0.0147095583 -0.00903087948 0.118943229 0.158666566 -0.189458624 0.124029934 0.31611082 0.155935705 0.312893063 -0.0106953662 -0.223118737 -0.057223767 0.00715514319 -0.140346661 0.00633508759 0.0649432465 0.0096360622 -0.0134952376 0.0469188616 0.0303762946 0.0381708443 0.0084373625 0.0380162634 -0.0621358193 -0.00339132571 -0.0378668346 0.049606815 0.0676795021 0.0416333117 -0.0344233997 0.0403680988 -0.0259092618 -0.0345972441 -0.00263638725 0.0357499868 -0.0351400524 -0.0199853126 0.0380758643 -0.0596826822 -0.00364829414 0.0301813129 -0.0466169417 0.0317956582 0.0320175327 0.0532194562 0.0161400829 0.00150560972 -0.0141610475 -0.0510686338 -0.00333741796 -0.0287812725 0.0158174802 -0.0338223465 0.0240207575 0.0507473238 0.0300588813 -0.0411993228 0.0580346733 0.064532347 0.0263770688 -0.0615807101 0.0664289296 0.242180005 -0.136280507 0.065179266 -0.0817323923 -0.0103618475 0.0404981785 -0.0881434008 0.0765676796 -0.0534693077 0.0339596607 0.0404269695 -0.171406254 -0.0656475499 0.0725043789 0.127773583 -0.107792541 -0.0527491234 0.00871256273 -0.109684475 0.0495799892 0.0718798116 -0.0664601028 -0.00380636775 -0.0290217679 -0.0342255272 0.0513946526 0.00621334137 0.162729099 0.0934337005 -0.103116438 0.160900116 0.27179116 -0.0559659898 0.031795565 0.0535769351 0.0871769339 0.187319204 -0.00584670901 0.161619946 -0.0533288755 -0.0240715444 0.0493819043 -0.227612332 0.0240558926 -0.115004972 -0.233864129 0.0178013984 -0.0337225944 0.0499009416 -0.0403542817 -0.0452251174 -0.022433307 0.0423595496 0.0288487822 0.0652811155 -0.0225542244 -0.0394755453 -0.0577191226 -0.0120219421 -0.0228680857 0.0242324993 -0.0217073001 0.0622115806 0.0158040933 -0.0525523424 0.00407649204 -0.0586237237 0.0514821224 -0.017956173 0.0219105333 -0.024078967 0.0315902159 -0.0055494355 0.0277073197 0.0572296977 -0.00724538229 -0.0327051543 0.0667076409 -0.0605022795 0.0153068714 -0.0701947212 0.020876551 -0.0178598948 0.0381499119 0.054084748 -0.0514798239 0.0119957533 0.000776050671 -0.0565406829 -0.0694587454 0.00843213219 0.012836053 0.00284594367 -0.0415342525 -0.0284361131 0.0493880808 0.233346328 -0.0328197405 -0.23202759 -0.229010582 0.188304484 0.114254832 -0.237249076 0.0160762016 0.0291174445 0.0131008225 0.0790628493 -0.0754420534 0.0896814913 -0.111932278 -0.113879867 -0.0181411263 -0.0224882998 -0.0395361148 -0.0955863073 -0.0903291926 0.0341289416 -0.0427559949 0.0374126956 -0.169988051 -0.194632769 -0.0731818751 -0.105111994 -0.156269282 -0.0749124587 -0.174726516 0.0248159897 0.009701089 0.0482467301 -0.0483167768 -0.139465526 -0.0943207964 -0.033143416 0.000898199854 -0.263067216 -0.0473730341 -0.233625516 -0.0817290917 0.402864248 -0.110778585 -0.107463397 -0.0509086438 -0.16171211 -0.0103610102 0.0311433654 0.0630575418 0.0672170296 -0.0157840829 0.0187664032 0.0616223812 -0.0658202842 0.00521718897 -0.0222332384 0.030273255 0.0229441468 -0.0108095808 0.00919298083 0.0446162261 -0.00859742519 -0.00412677787 -0.0277880002 0.0521657988 -0.0337442532 -0.0189763643 0.0302553177 -0.0535506904 -0.0255057197 0.0571530499 -0.0121831317 0.00468202773 -0.035568241 -0.0329468846 -0.00762837054 0.026318593 0.0545399189 -0.0229019914 -0.0355943888 -0.0118039539 -0.0475546978 0.03711804 0.0634405538 0.0429222919 0.0124266269 -0.01867342 0.0205062442 -0.00607415289 0.0584578961 0.0180169977 0.0292034913 -0.0197742507 0.0192677286 0.0106822532 0.0221620593 -0.120673276 0.0177315939 0.0044550146 0.0393835716 0.0271955635 0.232489616 0.115324534 0.0823402852 -0.0683160573 -0.160485074 0.0207396522 0.0148458863 0.0152240423 0.024987204 0.042200096 0.242271736 -0.179913163 0.04081982 0.0649209246 -0.0111144623 0.285600662 0.0695172995 -0.0519416817 0.0265500918 0.0628540292 0.107693374 0.000532911625 -0.0612934381 -0.0916017815 -0.248773083 -0.172766283 -0.157620817 0.206786096 0.110484391 0.0409552306 0.00154206273 0.379956335 0.211326674 -0.0292951111 0.0659281537 0.226610884 -0.0638075694 -0.375266492 -0.1412386 0.102637574 0.0489485525 -0.0105025042 -0.0676405132 0.0371494591 0.00186455203 -0.00626168493 0.0225100983 0.0394745916 0.0256112814 -0.0304554626 -0.0402067229 0.0115651553 -0.00597408041 0.0516383387 -0.0711324215 0.0588213131 0.0212892629 0.0530089214 -0.0138105191 -0.0307393502 -0.0177629534 0.0104256291 0.0440842919 -0.0494068526 0.0639337599 0.0425449647 -0.0377803706 -0.0288803037 -0.0115567502 -0.0433692262 -0.0575387217 0.00707417866 0.00110052002 0.03495894 0.0241001397 -0.00245535886 4.05898463e-05 -0.0442339517 0.013080203 -0.0681178644 0.0397179648 0.0532969199 0.0155107677 -0.061382819 0.0527945384 -0.0173920784 0.00222283183 0.0602457784 0.0118342889 0.0141808689 -0.230250984 0.0444500111 -0.0336149819 -0.176319689 -0.0280698389 0.0623220913 -0.246246353 -0.0944860205 -0.070808351 -0.0295909364 0.0437078178 -0.0675599501 -0.0141790397 -0.288875163 -0.048655279 -0.0423699431 -0.0382159986 -0.0356237739 -0.110771984 -0.0100205494 -0.105635092 -0.0520371646 -0.00267900969 0.0741277859 0.392037392 0.176628202 0.176643014 -0.0570631661 0.240616933 0.323441058 0.132134125 0.213360831 -0.0693792626 -0.218664259 -0.117327616 -0.135335848 -0.11029771 -0.117449991 0.160916612 0.181244314 -0.0429388657 0.278265715 0.00589257199 -0.145451084 0.497233361 0.195365205 -0.0898993984 0.259623498 0.0273460895 0.00771517679 -0.0463332832 -0.00641869335 -0.0679290369 -0.0161062535 -0.0522763766 0.0602799393 0.0208702274 -0.00412212359 -0.0284976605 0.0651619434 0.00522723747 0.00299224094 0.0403834134 0.00179820426 -0.0635493919 0.0461341217 -0.0602413192 -0.0444532633 -0.0354566425 -0.0055001392 -0.0410366096 0.0300734546 -0.0117873754 -0.0521127768 0.000628514623 0.0418512374 0.0144113228 -0.0242012534 -0.0327591114 -0.0356557891 0.0415999144 -0.00891341176 0.027357135 0.0530878194 -0.0472745858 0.0217441302 0.0156240193 -0.0201046895 -0.0125363348 -0.0465103202 0.00641487353 -0.0217920169 -0.0192018114 0.0119751059 -0.0337814391 0.0424118228 -0.0979406983 -0.0758793429 0.0672558546 0.169036523 0.118582159 -0.0468349196 0.0411644615 -0.0920219645 0.181361124 0.130499795 -0.0343801491 0.312788069 0.0546202846 0.0595399551 0.0873331875 0.0414565057 0.0532350317 -0.0104841618 0.263908148 0.222572505 -0.162253574 -0.0758059323 -0.226018488 0.0216543749 0.19877404 0.0125479773 0.00271140109 0.100310855 -0.0422091112 0.186716393 -0.217399403 -0.256777614 0.255909055 0.0395664126 -0.375667512 -0.208494172 0.0755149797 -0.0144082708 -0.171855628 0.214436203 0.0752768442 -0.129612625 -0.0481312834 0.0150088584 0.104202755 0.198344946 -0.00395982806 0.105958708 0.0445763245 0.0465039797 -0.0041607949 -0.0107981982 -0.0287071224 0.0651277751 -0.0142721403 -0.0130309844 -0.0638090447 0.0465182438 0.0713949427 0.0113539128 0.0559859686 0.0124507509 -0.00522873458 -0.053962104 0.0676178858 0.0264295917 0.031228967 0.0310684647 0.0613691919 0.0495679565 0.0290091019 -0.0512762628 0.0426202789 -0.0704700649 0.065595217 -0.0521019623 0.0719145834 0.0329519175 0.0573571771 -0.00584442168 0.0694086701 -0.0429620631 -0.0375891216 -0.0162144564 0.0177222863 0.0671380684 0.0545108579 0.0175492577 0.0563808531 0.00102080277 -0.0433692522 0.0616578199 -0.0399498381 0.0134159941 0.0111431694 -0.0266930293 0.00778674614 0.193385035 -0.271271914 -0.0855030492 -0.157842845 -0.32243371 -0.477827549 -0.194391519 0.0503076948 -0.121161893 -0.0871158987 0.140605986 -0.251745254 0.0269503519 -0.0681894571 -0.125419989 -0.0671901554 -0.274369836 -0.054328613 -0.0949609503 -0.00965630729 -0.0927532017 -0.0558800921 0.157490566 -0.0802744925 -0.371735066 0.0393195301 -0.0051093325 -0.101363152 0.182790041 -0.0673271939 -0.17375201 0.425018489 0.323306113 0.21801503 0.260451287 -0.103999928 -0.10908825 -0.212959558 -0.138195664 0.118558168 -0.0824736655 0.240828559 0.108239576 0.12625733 0.072068274 0.0543522388 -0.000755891786 0.00940791424 -0.0353339687 0.00250623818 -0.0112677515 0.0587031916 -0.0527017266 0.0406233147 -0.0360755213 0.0489525683 0.00963893626 0.0478569083 -0.0393843688 -0.0568746962 -0.0256041847 0.0599877313 0.0681916848 -0.0114952456 -0.0243733171 -0.039851401 0.0407299399 0.0498497784 0.00829086732 -0.0434322879 0.0291827582 0.00535488315 0.0149474563 -0.0220997259 0.0276022144 -0.0330295004 -0.00583988801 0.0670895129 0.0650495067 -0.0198567547 0.0257685985 0.0129584251 -0.0449647419 0.0238315314 -0.0648154467 -0.0514656641 -0.0708908662 -0.0430591516 -0.00692410488 -0.0105509171 -0.0239598043 -0.0629852563 -0.0257810317 0.00975909643 -0.045090545 0.0848656371 0.251128703 0.194139391 -0.136553839 0.0915613845 0.038222488 -0.0674791783 -0.0594943315 0.00262143766 0.0693242252 0.0262266342 -0.0237793773 0.203322455 0.163548544 0.0375102609 -0.0426306352 0.0803386793 0.013624019 -0.0281181633 0.0204303544 -0.224146083 -0.106558889 -0.0990795866 -0.0572387315 -0.281744689 0.118968971 0.271119267 -0.0770926476 0.132023156 -0.0710887834 0.0591429919 0.122241654 -0.0396906622 0.0211101472 0.122503087 -0.0746737495 0.278315783 0.0567357391 -0.0117591023 0.065189369 -0.0686620623 0.115016371 0.0416228175 -0.114582412 0.149050474 -0.0859843642 -0.115600094 0.0225418955 -0.0637594908 -0.0323433205 0.00542579079 0.00570361316 -0.0440988392 -0.0649671406 0.0280923899 -0.00514483638 0.0199374519 0.00830769539 0.0650323108 0.0514700413 0.0495319664 -0.0556378327 0.0138059249 0.0571366549 0.0032064172 -0.0691476837 -0.027483955 0.0413795412 -0.0717132092 -0.0560799763 0.0317634903 -0.0646415651 -0.0476607382 0.0514334366 -0.0355676562 -0.00735152839 -0.0400840566 -0.01481889 -0.00729289791 0.0288758818 -0.0700507015 -0.0432840213 0.0205753874 -0.0293878838 0.0306101386 0.0553268604 -0.0116991932 0.062095359 -0.000499225862 0.0705455169 0.0282048415 0.0219993275 -0.0107699195 -0.057360068 -0.0440265797 -0.0300819036 -0.0511149876 0.243599907 -0.223032847 -0.194414422 0.0703810602 -0.0130553981 0.213356867 -0.080011487 -0.120989248 0.0740216374 -0.0852135345 0.0362569094 -0.12965633 0.164724901 0.0436384268 -0.0748615712 0.143358395 0.0144582046 -0.000947337889 0.0259189624 0.0369198769 -0.0573042072 -0.0091685215 0.0381592959 0.124108337 0.330095112 0.0269267671 -0.355479181 -0.150862932 0.0257772841 0.0445925146 -0.0510680526 -0.272667766 -0.289618343 -0.207149431 -0.049010247 -0.0808732435 0.0649347976 0.0761783943 -0.0518785901 -0.0760703906 0.0984839723 0.14300631 -0.0385830365 0.00632113079 -0.193109944 0.00762325758 0.121394016 -0.0152952578 0.0239691138 0.0345254689 0.0130487839 -0.0274810474 0.0164470952 -0.0186922271 0.0400502309 0.0665553212 0.0460388213 -0.0446886644 0.0419566706 -0.0255421717 0.0121681271 -0.0506268106 -0.0582678281 0.000728595478 0.0184728708 0.0127039421 -0.0210329648 0.0120125217 0.0110611804 -0.0638299286 0.0680856854 -0.0198302139 0.036832042 -0.0277549215 0.0198843963 0.0456091464 -0.0712921843 -0.00855822861 -0.00846752524 0.0634729043 -0.0299864858 -0.0681204125 -0.0236703251 -0.0334960781 -0.0452633388 -0.0355506241 0.0292049032 -0.0299488381 0.0593931563 -0.017844459 -0.0642492771 0.0437777862 0.0652018413 -0.0703216344 -0.0431304537 -0.032672815 -0.0278685503 0.024950102 0.0225487165 -0.0660334602 -0.0771905556 -0.0460438728 0.0914685205 -0.0769286975 0.101629652 0.106901012 -0.059116099 -0.0187772736 -0.00618903991 0.0228662584 0.0565910824 0.16298674 0.0798514038 -0.0750223696 0.159532756 0.0215720758 -0.0202125795 0.191825435 0.133980915 0.130700991 -0.292297393 -0.279277802 -0.327145219 0.0504406691 -0.077323541 0.0561158024 0.0392114334 0.189989105 0.272356302 0.0128385173 -0.163031653 -0.0175923742 -0.0146294013 0.20743908 0.131504998 0.164574578 0.11337021 0.14331454 0.330799162 0.151902437 -0.267468452 -0.105367929 -0.0601665787 0.0597076043 -0.057211414 -0.0688795596 -0.0200946406 0.0389730148 0.0453046113 -0.017147284 -0.0127277216 0.0037121987 -0.0226185583 -0.0399207771 0.0132536087 -0.0687935501 0.0404320471 -0.0162845906 0.0692968071 0.0162218474 -0.0210935567 0.00923397485 0.0195746552 0.039704226 -0.0536674783 -0.0170003399 0.00232586358 0.0119243469 -0.0212376267 0.00834629778 -0.0349594131 0.0429632775 0.0289912336 0.0658112764 0.00483593019 -0.000598902407 -0.0400944762 -0.0146059524 0.0252721608 0.0238616429 0.0496188588 0.00465372298 -0.0290736351 0.0553601719 -0.0541852787 -0.0207993276 -0.0237636082 -0.0177207552 -0.0166790541 0.00336006167 -0.0492200516 0.00777924713 0.0834729001 -0.276768416 0.0889666378 0.0179008897 -0.175199479 0.142222628 -0.117868073 0.163184598 -0.157904536 0.118742608 0.17607069 -0.177655727 0.163198993 -0.168516204 0.185047656 -0.00679942267 -0.00676370831 0.198673993 -0.140254289 0.336458147 -0.0453999974 0.0547865219 -0.146958262 -0.256206483 0.0233938918 -0.0347304866 0.15620093 0.412882775 -0.0376414992 0.0155648822 -0.0720314309 -0.141587079 -0.142765731 -0.146331593 -0.039584063 0.101861157 -0.004696975 -0.198297977 -0.102755651 0.174663618 -0.286885262 -0.220999688 -0.196643934 0.00615384383 0.0781337693 0.0325939693 -0.247006446 -0.0218627602 -0.0019324054 0.0112566622 0.0546793602 -0.0344728939 -0.0687628537 0.00356704579 -0.00688303309 0.0590679049 -0.0601673163 0.0482010618 -0.00187376607 0.0482239909 -0.0522427633 0.0525084399 0.0498573929 -0.0643409863 -0.0581957996 0.0364983417 0.00696893595 0.0590685755 -0.0287471879 -0.0476590618 0.0614996739 -0.00482125301 -0.0567021333 0.0446684733 -0.0683995262 0.0206338894 -0.0337368287 0.0480101928 0.06937325 -0.0673933253 -0.0432506576 0.00727066724 -0.0683339983 0.0178470835 0.0250173341 0.0707744807 -0.0267322678 -0.0507592373 -0.0651043132 -0.0222197585 -0.0388071798 -0.0255206469 0.00943843834 0.0512398221 -0.034646146 -0.162533075 0.0567963384 -0.159408256 0.142175898 0.00571384141 0.102922812 0.086206615 0.123133838 -0.144189909 0.0891124904 0.038722869 0.0438856706 0.208304495 -0.121946506 0.106465057 0.0507892519 -0.0142187672 0.138931349 -0.0184466131 -0.0386591591 -0.0450761467 0.0491651893 -0.146384746 -0.163875446 -0.0493893549 0.174702927 -0.0290661734 0.00822371151 -0.0479982868 -0.3295798 0.0350199491 -0.0246471968 -0.0555725433 0.1308119 -0.141825095 -0.170526147 -0.0576083735 0.0606932156 -0.0647414476 0.212989941 0.492454439 -0.348261565 0.0434001498 0.0651468784 -0.19633761 0.0380854458 0.186053753 -0.0388929769 -0.0575379506 0.0129447971 -0.0275203902 0.0301852711 -0.0143164722 -0.039974004 0.0376387648 0.0675768107 -0.0493018851 -0.0291862674 0.0120711867 0.0617365986 0.022941988 0.0601907074 -0.0355753824 0.0314428657 0.0565304719 -0.0436806194 -0.0104389722 0.00826806109 -0.0586241968 0.0694619268 -0.0686823055 0.0398378 -0.0368296765 0.0146436086 0.0144670885 -0.029299004 0.0359727405 -0.0682322383 -0.00088726409 0.0543651618 0.0711398274 0.0288719758 -0.0258716829 -0.0043318863 0.0514712222 0.0241372027 0.0597071387 -0.000744606019 0.0623483956 -0.0673845857 -0.041467201 0.00306596165 0.030592192 0.0388012007 -0.0240123793 -0.0386256091
encad_b1 24 0.137999699 0.0615627468 0.0752636045 -0.111188442 -0.0310915057 -0.0339818299 -0.1079254 -0.0577977747 0.102686293 0.0818534121 0.0348729677 0.0618275627 -0.257827461 -0.010593445 -0.140569463 0.126634493 -0.0358668901 0.0156998895 -0.0395492725 0.22313112 0.0563010722 0.118014008 0.208290562 -0.138335228
encad_w2 144 0.151607946 0.132986024 -0.361283451 -0.200488463 0.401263475 0.383629948 -0.180733889 0.096825324 -0.133515283 0.224223658 0.187980339 0.353165835 0.00486126496 -0.408877641 -0.136523247 -0.443153679 0.46246013 -0.0176528674 0.415163219 -0.254248351 0.0172844175 -0.403716266 -0.0201496705 0.25620693 0.205443963 0.211419702 -0.461158603 0.412843704 -0.183580801 0.127836138 -0.307418346 -0.107772544 0.0728404149 0.19050841 -0.0028580639 -0.217423022 -0.252663314 -0.308660388 -0.0192456413 0.246615186 0.223942131 0.408522516 -0.247625783 0.105944388 -0.18946214 -0.120606117 0.305917025 0.0549646728 -0.214996129 -0.0118863722 -0.278983146 0.292337716 -0.0740796253 0.0684728324 -0.0639229342 -0.215486556 -0.321763873 0.223430991 -0.0461687371 -0.388538301 0.470822871 -0.38557291 -0.076285027 -0.52459991 0.289076239 0.171343729 -0.330467731 -0.0700499862 -0.314666867 0.542324424 -0.0502534956 0.477621615 -0.294093996 0.266233534 -0.0906081721 -0.330604434 0.24224101 -0.257767618 -0.227288172 -0.178711116 0.364667922 0.0151330754 -0.16259636 0.00158815901 -0.0513415523 -0.163880244 -0.176588416 -0.0351280421 0.0524865873 0.0937107727 -0.100296587 -0.354517758 -0.176729321 -0.248460069 0.049605567 0.23567307 -0.287371576 -0.00920226891 -0.254984379 0.0412953496 0.0689083114 0.115174465 0.291304827 0.288060308 -0.1368545 -0.357742071 -0.10827706 -0.475254297 0.0148843005 0.012327387 0.0541118607 -0.365305424 0.471358985 -0.131678626 -0.00818845164 -0.262952954 -0.44778344 -0.484196544 -0.214255333 -0.22857891 0.132351249 0.344726354 0.312104672 -0.078794606 -0.397870988 -0.163688928 0.31895268 -0.304879636 -0.0513023548 0.269312859 -0.373636335 0.11560899 -0.0934105292 -0.0245282836 0.352137089 -0.00803641416 -0.347511411 -0.410429478 0.0726110786 -0.276898503 0.414579958 0.376791149 -0.102653921 -0.2154257
encad_b2 6 0.141900048 0.0559893735 0.175593957 -0.140662119 -0.206051722 0.153950855
decad_w1 144 -0.274611473 0.521626949 -0.225078985 -0.442019641 0.356517345 0.11487557 -0.211346105 0.0756314471 -0.351038873 -0.177718058 -0.308106244 -0.75605011 -0.130582437 0.149206266 0.102752686 -0.0420479216 -0.383001596 -0.0662470609 0.20516856 0.512133598 0.11706306 0.310686648 -0.189315408 0.228060395 -0.362013608 -0.0850449651 0.264401227 0.478458464 -0.187461779 -0.11235483 -0.0758824274 -0.223183379 -0.0513501801 0.323483884 -0.488688648 -0.130021542 -0.340029359 0.252812177 0.111808226 -0.246173367 -0.319141418 0.181278601 -0.285127699 -0.26767543 0.327764183 0.595969141 -0.334307581 0.261733592 0.27360934 0.193095371 0.215119392 0.258419722 -0.482601672 0.496141016 -0.154343441 -0.230579272 -0.414128989 0.218457133 0.444546729 0.0921381712 0.183689535 -0.0906841159 -0.234000728 0.309399068 -0.0918214098 -0.00777213974 -0.191258952 -0.135260448 -0.373716891 -0.0513692275 -0.360059619 -0.335504293 -0.226382092 -0.0101957591 -0.35895136 -0.127757654 0.105402358 0.394933045 0.379835159 -0.111516252 -0.500827193 -0.40398252 0.0240515471 0.0283013582 -0.262439013 -0.609203041 -0.255169421 0.44929263 -0.404344916 -0.101112008 -0.553183734 0.37637049 0.187694162 0.316332161 0.265685409 -0.170023277 -0.265386492 -0.427080303 -0.133097246 0.147393689 -0.273127139 -0.372631013 -0.228366479 0.0806388929 0.297234088 0.0997262225 -0.169676393 0.0538615212 -0.136017933 0.344539464 -0.0528469756 -0.46217072 0.0161714517 0.233922347 0.317762583 0.456797808 -0.147158191 0.45049572 -0.350639731 -0.49550426 -0.657011688 -0.273098052 -0.590320945 -0.316904962 -0.876675427 0.856253862 -0.411924124 -0.348360091 0.425543725 -0.36595425 -0.308483243 -0.0871067122 -0.119421721 0.21539107 -0.219843596 0.341195911 -0.20591867 0.411650389 0.0405170582 0.0226759166 -0.214311168 -0.262976944 -0.239261568 0.207577065
decad_b1 24 -0.132824689 0.213078752 -0.370780677 -0.390570015 -0.0909140632 -0.0273138657 -0.325073212 0.0580854751 -0.16264309 0.230546519 -0.218047872 0.0122459736 -0.3296507 0.317929894 0.056117177 0.0551935807 -0.253233761 0.226713747 -0.213121548 0.16296199 0.245421991 -0.329157501 -0.298536241 0.110336103
decad_w2 4608 0.12683028 0.17777504 0.167790473 -0.293611586 0.000539472443 0.0761287287 -0.0219420549 -0.145215616 -0.203363851 -0.241774991 -0.293102354 -0.093109332 -0.192757279 -0.180108279 -0.278621465 0.454305917 -0.0219946653 -0.201876953 0.113965131 0.230687618 -0.0300001353 0.222656041 -0.205519512 -0.171539173 0.3103908 -0.0901508555 0.174216226 0.187061593 0.190366969 0.0657585189 0.22094889 0.0459551886 0.212106928 -0.285171509 0.0413863771 -0.186736777 -0.136769354 -0.227868631 -0.131308094 0.300535142 -0.173977852 -0.0664424151 0.0924603045 0.306010216 0.470987469 -0.262483537 0.158964872 0.1509756 0.19266741 -0.308356941 -0.0975302905 -0.27248311 -0.335562617 -0.338498563 -0.243588045 -0.0898401439 0.0290041603 0.190027282 -0.0627214015 -0.252310753 0.137774676 0.0115928175 -0.173539057 0.0784628019 -0.247021079 -0.144453615 0.0364994556 -0.207467169 0.336885184 -0.205306858 -0.169119924 0.0695815831 -0.404846251 -0.319608301 -0.0568960905 -0.100536443 0.0779538229 0.263131887 -0.179910794 0.357912213 -0.0728866011 0.0688204765 -0.0140548162 -0.315641403 -0.202885389 -0.240019932 0.136891872 0.271253407 -0.141561717 -0.00156591681 -0.231856152 0.227813929 0.243922472 -0.127017453 -0.0956183746 -0.27123934 0.0141099431 0.215303615 -0.118971713 -0.321750075 0.121044397 0.135286197 -0.0585402474 0.209918171 -0.0675907284 0.23536396 -0.11862243 0.146272346 -0.203179702 -0.291648388 0.348564982 0.357913136 0.240479305 0.0748603866 -0.03221884 0.0233410113 0.287366599 0.0634820238 -0.178223953 -0.0261813123 0.0342132337 0.108186811 -0.125333026 -0.00426082732 -0.197184488 0.0139475819 -0.17207329 -0.303697199 -0.0286738109 -0.0377269685 0.103429265 0.04855657 0.0552221462 0.137334108 -0.111071184 -0.136634722 0.173367769 -0.0108643826 -0.107728511 0.438396454 0.415108293 0.0581003763 -0.108840197 -0.225050598 0.310341716 0.23261556 -0.110887296 0.525309205 0.0106268842 0.184414864 -0.0379137546 0.106136478 0.158888891 0.411664069 0.302173585 0.111455455 0.177341595 0.0526453443 -0.165006444 0.256100208 -0.308210343 -0.127730116 0.0350259654 0.26707229 -0.324003458 -0.131037071 0.426872432 0.0100486735 -0.104992941 0.260285079 -0.103031851 0.0626963153 0.0566090979 -0.336577982 -0.254069835 -0.0451297536 -0.0213405881 -0.04170027 -0.047450494 -0.016423678 0.490496367 0.465884417 -0.2407289 0.418806851 0.0433421172 0.256273389 -0.339582741 -0.0740774423 0.0691022575 0.378676981 0.312682122 -0.267664135 -0.053128507 -0.309781253 0.162782103 -0.20859924 -0.110576294 0.0263647754 -0.020977255 -0.105040662 0.172718689 -0.0843007192 -0.146094114 -0.0483983196 -0.414720505 -0.382778347 0.168269381 -0.30889973 0.252451092 -0.085010238 0.194182739 0.172760457 0.120777726 -0.178584874 -0.205692112 0.20050025 0.342927605 -0.122867823 -0.143640235 0.0719035789 0.15795508 0.0826638639 0.181750789 -0.0288856551 0.123780705 0.212932333 -0.0646871254 0.0920331702 0.180904478 -0.00249776081 0.0552309975 0.150494203 0.0633526444 -0.214663237 0.0810561106 0.140137896 -0.185437664 -0.0297869816 -0.0259051789 -0.0899854228 -0.27321586 0.0482552275 -0.10286139 0.0287542772 -0.120170765 -0.0840080008 -0.221388295 -0.162430331 0.00122193864 -0.233249128 -0.246983647 -0.237752706 0.121664383 0.264339834 -0.00502514932 0.221233875 0.231415868 0.155759081 -0.0638741627 0.052855026 0.229693323 0.130408525 0.0632750392 -0.153444737 0.318133205 -0.422314584 0.0439683758 -0.00397862773 0.0788067281 -0.0323434882 0.080913797 0.167074263 -0.0463579148 0.0903947949 0.143916368 0.206903785 -0.372641474 -0.0340538174 0.12125814 -0.166039586 0.021839954 0.132714644 0.0819653049 0.281365871 -0.0915593654 -0.0368296877 -0.139222905 0.340254366 -0.0169911552 0.0835162029 0.0223071184 -0.0233397502 0.177998692 -0.161522791 0.112747312 -0.230364218 0.0730418935 0.0947503448 0.012735554 -0.0932590142 0.189580724 0.188295513 0.0457816161 0.175461903 -0.0013431824 0.00965700764 -0.0931496844 -0.0549806394 0.016407067 0.0831626207 -0.0379810408 -0.174541339 -0.130682111 -0.0666352063 0.196035668 -0.060821794 -0.101383261 0.213708058 -0.105409816 0.0841006935 -0.111931615 -0.0277099088 0.214167744 -0.220040306 -0.195543528 0.0634999648 -0.0989270955 -0.0165797975 -0.0409767963 0.0782029852 0.119164467 0.117194057 0.15448834 0.0661162287 -0.030507274 0.0118293064 0.23632814 -0.472482055 -0.0597127713 0.0575512126 -0.126525357 0.169957325 0.0631533265 -0.0966847837 -0.217645809 0.0322912671 0.19745329 0.230741128 0.0757938996 -0.20299679 0.190505832 0.148157984 -0.0702080503 0.0679236129 0.177408263 0.238305107 -0.0587792024 0.0808286071 -0.154776856 0.0250575393 -0.323472112 0.0865793005 -0.238698632 -0.0822057426 0.0793217719 -0.175952658 0.148849696 -0.106733315 -0.0340954848 -0.152555764 -0.127245829 -0.154708743 0.172813639 0.121100932 0.0101278871 0.174703375 0.085380815 0.126318961 0.0509013236 0.0920062065 0.131796673 -0.200662509 -0.0797951519 0.0187415425 0.150502086 -0.149773002 0.225452214 -0.0907108858 -0.0762154609 0.108299531 0.0603930652 -0.0231736321 0.174423009 0.0875299796 0.24464269 0.072359927 -0.137571737 -0.21863915 0.0426930897 0.0437864251 0.0569644757 0.04052791 0.067030862 -0.0203765221 -0.0326487757 -0.232575044 -0.196327195 0.0907972977 -0.14861095 0.0828061029 -0.0857598484 0.0176698398 0.211348206 -0.29842484 0.0251313001 -0.255887687 -0.0059493375 -0.0539193377 0.0617313124 0.0731748268 0.318375319 -0.0619264431 0.183506295 0.18283765 -0.235199407 -0.0537821166 -0.00535416557 -0.0216640104 0.0440931953 0.0366788022 -0.0709184855 -0.0826822668 -0.181090817 -0.13067773 -0.202960983 0.0429401994 0.26783964 -0.195098177 0.191582009 -0.182628959 0.120842882 -0.085064359 -0.143169686 0.0583886057 0.112011082 0.00243922137 0.022754861 0.0257743653 0.206843942 0.0770186186 -0.0118554877 0.139668718 0.0663784817 -0.255053014 -0.21604085 0.140057996 0.181184441 -0.307919115 -0.0677310377 0.00144095346 0.0336318798 0.0488033965 0.122517124 -0.0358751826 -0.177128986 0.12585333 -0.0186730362 0.109665707 0.1830948 -0.0845636949 0.0504450686 -0.0252379347 -0.0351449288 0.157817483 0.0426999144 0.362166166 -0.0493625849 0.0202274136 -0.0670873895 0.0203657094 -0.169186473 -0.0836666897 -0.0720852986 0.00389126618 0.0335010886 -0.0169997755 0.0287426617 0.0536242202 -0.14997226 -0.0446949601 -0.0215106439 -0.0537901893 0.120493829 0.0222007651 -0.188912272 -0.000910290866 0.0884320438 -0.138800308 0.0480171256 0.212123901 0.147891417 0.116443194 -0.0427775718 -0.0900116712 0.107125692 -0.251176804 0.0519891046 -0.0424077585 -0.0285546444 0.0494364053 0.163315877 -0.165166423 0.119650513 -0.000182731572 0.216891959 0.0921825692 -0.0718729943 -0.182190701 0.111631609 0.119231865 0.100512534 -0.00434137369 0.0239079166 0.0234058071 -0.0312465411 -0.158939674 -0.168590933 0.109097973 -0.249284282 -0.11061094 -0.115320154 0.0278428048 0.158372357 -0.191017658 0.099447459 -0.363101929 -0.0667674541 0.0502504483 -0.0391383693 0.123255007 -0.0235299561 -0.0288055595 0.0505843721 0.226515934 -0.0379913934 -0.052982524 0.0471078493 -0.00871777814 0.0366661921 0.0791005641 0.176377043 0.0406926274 -0.0632828474 -0.243265823 -0.00287725963 -0.0244215019 0.237676099 -0.000342372165 -0.055143632 0.0115137137 -0.232376009 -0.154667914 0.238679916 -0.151003748 -0.0969522372 0.0355889462 -0.101591542 0.0727004334 0.0792691782 -0.147440284 0.0555271953 0.208597451 0.0777596384 0.117174827 -0.0213417746 0.446596891 -0.0560624972 -0.0377669744 -0.128671646 0.0749290884 -0.0228151213 -0.0711121261 0.0988824889 -0.0821736604 -0.104674563 -0.235860273 0.232263342 -0.024547426 -0.0684721991 0.0325346738 0.107535377 0.128877386 0.116352469 0.0808424056 0.0440813489 -0.166817412 0.00305200415 -0.117001146 -0.0119562903 0.0531865358 -0.118022993 -0.0530354455 0.153018445 0.060436707 0.0135794356 -0.13851954 0.126648769 -0.0472809225 -0.213360101 0.060803201 0.0946058109 -0.117799141 0.0444427915 0.0449562408 0.114584126 0.00193964574 -0.0511269197 0.0531293824 0.13423954 0.110945739 0.0227096062 -0.00128242723 0.00737257069 -0.103098191 0.153789192 -0.249705628 -0.0623364449 0.0118367737 0.155351982 -0.17686148 -0.124770693 0.000996389892 -0.166086242 0.00361902523 0.143792585 0.0183141753 -0.037464194 0.202814773 0.117964581 -0.0580736957 -0.138223693 0.139478415 0.00267556217 0.358498633 0.0202009585 0.410670429 0.0640513003 0.082369037 -0.144618526 -0.138551012 -0.181687355 0.0258001089 -0.247013286 -0.0687909573 0.0812289342 0.129491761 -0.203880399 -0.094055593 -0.112265147 0.0544067807 0.0872740671 0.0769100338 0.109078996 0.0993338376 -0.10823638 0.00302657089 0.0250251461 0.260845244 0.00969200209 0.143100679 0.0710231066 -0.000887782837 -0.106382608 -0.0389588363 -0.205739468 0.0846015438 0.12748754 -0.107544579 0.140759483 0.20210059 -0.368604749 -0.0806090385 0.0442934781 0.105545551 -0.0693131611 0.121393673 -0.0257155169 -0.0976402164 -0.189887002 0.0757360682 0.0830546319 0.0911622867 0.0135085918 -0.0140786031 0.0249830894 0.112295493 -0.0121250562 0.161323875 0.014160417 -0.252019405 0.206110314 -0.140519917 -0.239018962 0.0512964278 0.477343023 -0.214512333 0.0318027362 0.177209765 0.0392916016 0.0946846679 -0.0184454117 0.203454524 0.0660360232 -0.131875992 0.10946998 -0.258746177 -0.0297426134 -0.270174861 -0.171887249 0.0400601812 0.0580937676 0.226852477 -0.102751821 -0.0765003562 -0.163497403 -0.10234037 -0.0561438613 0.168903738 0.281904012 -0.131083325 0.115061358 -0.16295819 0.046497196 0.111673959 0.18725653 0.185578197 0.0206517354 -0.0606687069 0.0410074554 -0.0716139376 -0.0336418599 -0.0381535999 -0.200730145 0.0640198961 0.180737421 -0.0954312757 0.033169128 0.0376379639 -0.0925057381 0.0370519273 0.0594430901 0.0789415091 0.0442033857 -0.0186366793 -0.0392862745 0.237943664 -0.0514829047 0.00404929696 0.0233653169 -0.0421953462 -0.122070037 -0.100434437 -0.219690949 -0.047028698 0.0275898036 0.057642743 -0.125699893 -0.183005035 0.0298643354 0.0203886926 0.0988297686 -0.108545534 0.169821188 -0.0222195331 -0.0251643434 0.083835125 0.0177920014 0.0237327162 0.224410266 -0.0978017226 -0.0749969259 0.10749276 -0.195013389 -0.0943870544 0.202556044 -0.00176438387 0.207493246 0.00378231751 0.00732064433 -0.0360285826 0.0567706823 -0.133677289 0.176798433 0.111564867 -0.0182555187 -0.219229698 0.211846471 0.155604869 -0.117222451 -0.0805217847 0.454857141 0.209710866 -0.330915064 -0.0211467892 -0.0880263001 0.0366037339 -0.0566208623 -0.162474275 0.0283356737 -0.0717878565 0.0151576344 0.0387422889 -0.0249679554 0.0136848232 0.0165410172 -0.143467739 0.0625621825 -0.105399199 -0.0399837904 0.0502009243 -0.041430641 0.066739887 -0.202727541 -0.154765427 0.181505769 -0.106922761 0.123088941 0.065487437 -0.0163359549 0.0861558691 0.235682547 0.237840936 -0.0531718135 0.0783120319 0.0661682039 -0.083277896 0.00022025223 0.12598519 -0.247498065 0.0894299746 -0.150884882 -0.207068726 -0.0816664547 -0.0638488904 0.296764731 0.12219552 0.0458159894 -0.144656301 -0.356983691 -0.225925237 0.167531639 0.0553290248 -0.0158291385 0.193840861 -0.0897602364 0.168961048 -0.181344256 0.121734068 -0.0147363376 -0.0122823585 0.010158902 -0.0518623851 0.147865951 0.257538021 -0.292221755 -0.0199406315 -0.230264023 0.128769442 0.139316633 0.0876388475 0.218736917 -0.160731986 -0.544472575 -0.00353907677 -0.0363893732 -0.095004715 0.0236157775 -0.0729786754 -0.105887398 -0.133662298 -0.121372491 0.282392502 0.0553552955 0.0679727271 0.0287096612 -0.0749995783 0.306910843 0.126527652 -0.0162939895 0.0607320704 -0.181927383 0.0222817678 0.17430532 -0.0553369112 0.0803613365 -0.114392102 -0.0993793607 -0.144041047 0.0774017423 0.0174177196 -0.0310751554 -0.121858403 0.0583601259 -0.108484797 -0.0337261818 0.0586080104 0.0374585167 -0.128928438 0.009756363 -0.135064512 0.0843943805 -0.0121015506 0.0288927704 0.135186002 0.121569715 -0.0143482015 0.167097807 0.0790719837 0.0676721409 0.141378015 -0.0826558992 -0.0685501322 -0.0440660901 -0.0462346524 0.0166934766 0.150779724 -0.0211906359 -0.0392126068 -0.11315465 -0.0971974134 0.0403700396 -0.159710601 -0.00971293263 -0.265483916 -0.0433043279 -0.135677665 -0.00829659216 -0.0875844806 0.113807559 -0.228985369 -0.0461112298 -0.0791176856 0.0350033008 0.0294831302 -0.0436081886 -0.100051768 -0.0685415566 0.0967238098 -0.143768713 0.0950511619 0.0234811958 0.00570522016 0.00531785982 0.159858868 0.0489418581 0.0111043723 -0.0032994973 -0.200781733 0.205462679 -0.158058345 0.0238611363 -0.259163558 -0.146585047 0.0858610198 -0.0857491568 -0.175894231 -0.0144927744 -0.0505593978 -0.182495758 -0.151755497 0.0829226151 0.0701652914 0.0922974497 -0.0551753938 0.125100732 0.0225030035 0.112693317 0.0564710423 0.0566565618 0.236364976 0.0147777293 0.171177119 0.0686864629 -0.0117935063 -0.203629196 0.0957473069 -0.11295668 0.142934501 -0.288657159 0.0961108133 0.135873795 -0.021047201 -0.194774866 0.115153462 0.0183885079 -0.136878014 -0.0287250727 -0.00419140747 -0.0191587098 0.0792035758 -0.101369992 0.196328804 -0.111043155 0.00297876843 0.00696089258 0.119829997 0.112939067 0.141552299 -0.0271627903 0.181837291 -0.200282797 -0.0459291115 -0.153678104 0.162752256 0.103286937 -0.0385545827 0.104458094 0.0401921384 0.105597369 -0.192433387 -0.188430712 -0.115954801 0.12435244 -0.0109639419 -0.0917096362 -0.0541540124 0.115372084 -0.0828315169 0.0112068038 0.0715851411 -0.00818798784 -0.0215904173 -0.11567875 -0.106018245 0.00730229355 -0.157166898 0.0860529095 -0.228298858 -0.100542903 -0.243231297 0.257825762 0.155527577 0.14551577 0.250704765 -0.078792721 -0.0239462797 0.0053294911 0.0591958798 -0.0777428374 0.125964537 0.0790261254 0.0704077408 -0.00332874851 0.242885336 0.0644669458 -0.0232455824 0.0303856805 0.00469236076 -0.0693962499 0.0128952591 0.163482025 -0.0684175417 -0.110886402 -0.00575101702 0.267109752 0.046586331 -0.0713866949 -0.0476902947 0.0769583955 0.131191075 -0.0229149666 0.0698139146 0.166645303 -0.230237201 0.0950016901 0.0896380171 -0.0137711838 0.146818995 -0.110741362 0.0155271543 -0.0695604756 -0.114072137 -0.00114305154 -0.101292573 -0.136258483 0.12620692 0.105930008 -0.046950154 -0.225772336 -0.289191574 0.105565459 -0.107747436 0.0270247702 0.0124640688 0.194963798 0.173268944 -0.10890232 -0.0646675751 0.0983527005 -0.00790610909 0.0173046086 -0.113698632 0.0465978123 -0.0860177651 0.146438137 -0.134413391 -0.0523231104 -0.163894564 0.108992241 0.0143223712 0.107233807 -0.0712021515 -0.0720603988 -0.089670606 0.111122288 -0.154407546 0.2993159 0.00886100624 0.075969547 0.0016293095 -0.14171505 -0.0795646831 -0.173243999 0.311535239 -0.0209731571 0.168739796 -0.0488337129 0.0633581728 0.0337074585 0.146407187 0.0767967626 0.0425711535 -0.107382193 -0.0229413491 0.0416386463 0.109087363 0.03795458 0.160409585 -0.197366267 -0.288542718 -0.0598297045 0.0349508859 0.0784239024 -0.115289137 0.115226075 -0.0568259209 0.0636861399 0.100292586 -0.0125922337 0.0113231596 0.0398309603 -0.0485830456 0.119345777 0.0184521973 0.183456734 -0.0562301911 0.11200612 0.0536621325 -0.0919728428 -0.160136685 0.0171607491 -0.000786349119 -0.0750131011 -0.0856887922 0.0276161246 -0.192748204 0.0522476025 -0.098125197 -0.0767749622 -0.12418206 -0.163234577 -0.0541303121 0.00102468976 0.00308493734 0.0885995552 0.0624539368 0.0719724149 -0.0337764174 0.112743795 0.0264319759 -0.0376525111 -0.0683643594 -0.0254559331 0.0548014231 -0.0120814983 -0.0217231922 0.0760229453 0.00340219541 0.0828747004 0.0384292863 0.0153431837 0.0139061185 0.0219571441 0.0336727016 -0.0749005899 0.0237661079 0.000728049898 0.0134686334 -0.0897472501 -0.0150872665 0.10802637 0.00342811481 0.0399073884 -0.0188977625 0.0308235511 0.0643684641 0.0294997059 -0.0572553203 -0.0100336345 0.000635357748 0.098305501 -0.0944667011 0.0259780735 -0.0540876761 0.0154296262 -0.0884117112 0.0335815661 0.070183821 -0.0103063798 -0.00829306804 0.0079344986 -0.0275860783 -0.032746546 -0.0838443264 -0.0306054726 -0.0230497587 -0.136052281 0.0209364351 0.0825810432 -0.0627369136 0.13933748 0.00590978842 0.0125853084 -0.0386946574 0.041543711 0.0500288382 -0.0718922764 0.144004807 0.0656842515 0.0528872982 -0.0765565336 -0.0544755086 -0.00900063012 0.00123445492 0.00164103217 0.0329224765 -0.0502425209 -0.0116486372 -0.0115987221 0.00430148607 0.00632660231 -0.00750182243 -0.0973178521 0.00598190678 -0.00194746826 0.00236214371 -0.0261931438 0.00844945014 -0.0414685942 0.0210742895 0.0048779822 -0.00035841536 0.0212712679 0.0215054099 -0.0433025286 0.14618963 -0.0723966286 0.00140587834 -0.00557108456 -0.0299899913 0.0113944495 0.0491207838 0.0920982733 -0.0423785932 0.0743767098 0.0120926788 0.000150678039 -0.0624171346 0.00343141891 -0.0177505817 0.0522132181 0.00860427506 0.146139935 0.0814335048 0.0793593675 -0.0118647758 -0.00342552015 -0.0386166647 0.0107441293 0.0892242715 -0.0613740087 -0.00308424956 0.0133739365 0.0218382888 -0.115062289 -0.134740546 -0.0117681902 0.0408548974 0.0404147618 -0.0772081986 0.0595993549 -0.0594864972 -0.0342605859 -0.0288110934 0.0436751097 -0.0282509923 -0.0565293133 -0.039195966 0.0219406877 -0.0670359507 0.0122319534 0.0199701358 -0.0272211097 -0.0857830122 -0.0913109109 -0.0112198628 -0.0202459246 -0.0282198619 0.0398522802 0.187103271 0.0658395737 -0.0587747209 -0.0673529357 0.093876116 -0.0510372259 -0.0233807322 -0.0329619497 -0.0469031446 0.102240771 -0.0663641393 -0.0119778253 -0.00452333596 0.00111311849 0.0290072635 0.0624091029 0.0906989798 0.144303948 -0.132084012 -0.0508327335 -0.00751653267 0.00247828499 0.10325294 -0.0214577783 -0.0240382645 0.00878142472 0.0631423369 -0.0960139781 -0.00621780148 0.115150966 -0.140320703 0.104434863 -0.0195722301 -0.0170789845 0.0090016257 0.166869745 0.0262259394 -0.0711573511 -0.113416508 0.00927592441 -0.144124106 -0.0588252433 -0.0394996963 0.0250882879 -0.0220125969 0.013057285 0.0361821093 0.0415024683 -0.0519337803 0.0323520303 -0.00846917275 -0.111572936 -0.0794306248 0.181244075 0.0874568671 0.0556747317 -0.118161164 0.0132789118 -0.00348846824 0.156304508 -0.0643460229 -0.0822258219 0.0903060362 -0.0167126097 -0.0480914041 -0.017619459 0.125826091 0.102441885 -0.00553008122 0.00884881057 0.0150031541 0.0404173806 -0.0867275 0.0257771667 -0.0170984101 -0.0994852558 -0.0929166004 0.108148873 0.00204013288 0.0135151064 -0.00142734358 0.109083243 -0.0868322477 0.0140278637 0.0823675618 -0.0196858626 0.143714055 0.0635036752 0.103949063 -0.145948604 -0.0264238231 -0.0593325533 -0.0156292077 -0.0119791599 0.00669310335 -0.0869223401 0.0705669448 0.0618938729 0.0130904643 0.243234694 0.049101796 0.160015956 -0.119151928 0.0499255471 0.00661574304 -0.104931653 0.103867151 -0.0670253783 -0.108804852 -0.0208606198 0.105422847 0.0255817063 -0.180717692 0.035636615 0.0705079585 0.0135535682 0.0399939343 0.015362354 -0.0779194012 0.0485304408 -0.180889592 0.0441806577 -0.0399637073 0.00106854481 0.0880958512 -0.0896777064 -0.127103508 -0.0207748786 0.0141348857 0.0558031984 -0.00141657738 -0.0944178104 0.152404726 -0.0128599666 -0.0945723206 0.00281135621 -0.0471045971 0.113635354 -0.0406751931 -0.076228641 -0.0199180283 0.00886113197 0.00752230035 0.0268810838 -0.0952673554 0.00889024697 -0.107071631 -0.0281365477 -0.0387801379 0.180624738 0.037894018 -0.117185995 -0.137846529 0.0180245489 0.0086354753 0.0925251171 0.14938423 -0.108681537 -0.0578189343 0.0280122738 -0.0662286654 -0.0821737722 0.0588956624 0.190483809 -0.0227014273 0.0119655747 0.0576279536 -0.0155874211 -0.028868679 -0.0735278577 -0.0734672695 0.0360554419 0.0191400237 -0.0794386566 0.0927365869 -0.0248525757 0.0132057741 -0.0493215136 0.0455091223 0.0671892762 0.124147885 -0.00868669897 -0.0747302026 -0.161525771 -0.0123183569 0.0857152417 -0.00538567174 0.136517644 -0.0263190046 0.0193038769 0.00432407111 0.0328422189 -0.151591718 0.0520685948 0.0761534646 -0.0591105595 -0.0689674094 -0.0589204878 0.0923570693 0.119933359 0.0404027402 -0.0689126775 -0.010247305 0.188678682 -0.219839364 0.00550424075 -0.0245716125 0.0560693853 -0.0741662532 -0.0288515929 0.0706556961 0.110997967 0.0559981056 0.00910848565 -0.0162134934 -0.0306329578 -0.10605637 0.0231681485 -0.030225534 0.0196199734 0.12636517 -0.0132168857 -0.0381266698 -0.0165366568 -0.101224087 -0.0583065227 0.049629014 -0.0070348084 -0.0315734968 0.0409721434 -0.0440529548 -0.0134655014 -0.0524491034 0.113012567 0.126440853 -0.0741809979 0.0125012826 0.00705301436 0.0469206385 0.0544280149 -0.005142543 -0.0235344879 -0.0799820796 0.134063706 -0.0882873908 0.094446741 -0.0579145327 -0.0718275532 -0.121199191 0.0796617642 -0.000791524129 0.0601238012 0.0543957576 -0.0798880681 0.0375031866 -0.043194674 0.0259433687 0.102572903 0.0198076256 0.0734013617 -0.0437265337 0.00737332273 -0.00890660938 0.100210734 -0.0924376398 0.0352122523 0.000648545858 -0.113573149 0.0563103482 0.100030608 0.019688705 -0.0189095903 0.0762051269 -0.00242151506 -0.0306121446 -0.051627811 0.0337298512 0.142714679 -0.0167207215 -0.12223462 -0.00882554147 0.0636608079 -0.0929522738 -0.0800847486 0.0344140045 -0.0194754917 -0.00302875065 -0.0946573392 0.172224864 -0.0327120163 -0.031001782 0.0335765705 0.0713660195 -0.139609665 -0.0767164752 0.168951064 -0.0383438468 0.00456403196 0.0373516679 -0.0545574501 -0.0527414121 -0.0564192235 0.0521251261 0.0661974922 0.052558627 0.123655103 0.0361557007 -0.107805163 -0.006905986 -0.00160870911 -0.0354748294 0.00133291853 -0.0278440025 0.000833870436 -0.0313869752 0.0702696741 0.00760832755 0.0752103776 0.093895942 -0.00567348674 0.00755036715 -0.0130653996 0.0332156867 -0.13510339 0.0249060113 0.082924813 0.0386182033 -0.0580995195 0.00304759666 -0.031295456 -0.0563782454 -0.0476082191 0.01211455 -0.00593304075 -0.0518627055 -0.0643096566 0.0251205936 -0.0833680853 0.0179057624 0.121150136 -0.0574843027 -0.0488671027 -0.0200489294 -0.102901645 -0.00767562352 -0.000200383525 0.00256852922 0.109301478 -0.0527125262 -0.00406155828 -0.0717624426 -0.0324122868 0.0527429059 0.0398052335 -0.0491571426 0.124492981 -0.0232171118 -0.000372469949 0.0206263214 0.0516175292 0.0399002209 0.103112616 -0.107388608 -0.0970498994 0.0166678783 0.0771789402 0.037754517 0.0685038045 -0.0883283839 0.00904476363 -0.0791325644 0.162500709 0.0517889857 0.0614334419 -0.0255150143 -0.0891490504 -0.021197902 0.145738974 0.0426802263 -0.0824494734 -0.0165865254 0.00460929004 0.00526624639 -0.0465564579 -0.0424943306 0.0594951846 -0.00191795011 -0.101236641 0.0354753062 -0.0250270162 0.000592339027 0.0337502956 -0.180811524 0.0681256875 -0.0243058503 0.139045328 -0.0449183136 -0.0954759046 -0.120307013 0.0939082727 -0.058296144 0.107376322 0.067072846 0.0608302392 -0.0707983002 0.0209140033 0.041589316 0.057737615 -0.158378839 0.0609699562 0.000823022623 0.0641748458 0.0277791303 0.0672408417 0.099488996 -0.0101675261 -0.01621175 -0.0198895074 0.00387610518 -0.0125123085 -0.127655804 0.0493274145 0.0296496563 0.021726219 -0.0207640249 0.0235605072 -0.0748810098 0.0321203433 0.0102834282 0.00278615113 -0.00589433452 -0.0562425554 -0.0356225483 -0.0937395096 0.00733743608 -0.0942811817 0.00383446016 -0.0834453031 0.120182425 -0.0280388165 0.0535842404 0.0397483259 -0.089059107 -0.0990520418 -0.127704769 -0.0024667785 0.106434673 0.0588130392 0.219639748 0.0468717143 -0.221850976 0.101454899 0.00844841823 -0.0198579449 0.0184539165 -0.0349350907 0.14842771 0.0124605643 -0.0271817241 0.113024093 -0.0576589033 -0.107770301 0.0192986615 0.0393027477 -0.0927443132 0.0530590974 0.00626592897 0.0353995115 -0.0260228775 0.0348811895 0.0340737887 0.0675924271 0.109973513 -0.0672209412 0.117449716 -0.187635094 -0.0225238111 -0.00691856211 -0.00102065958 -0.0455918349 0.0543470047 0.0335373171 -0.000687628752 0.129416779 0.0345333926 -0.186763182 0.109917805 0.000629048271 0.0810429379 -0.110372514 0.0280982666 -0.00827966258 -0.00488604838 0.0953126848 0.0403643139 0.0774330795 0.0214023888 -0.208812505 0.101516545 -0.0761372596 0.0373122543 0.0166364983 0.0227374546 -0.0888499692 -0.119764984 0.037078388 -0.0780543983 0.165266082 -0.130884558 0.0123150982 0.182917908 -0.157294035 -0.00140625425 -0.0709192231 -0.0748831481 0.077156283 0.0118626161 0.0420582443 -0.00679410761 -0.0904515833 0.0617128946 -0.0855664015 -0.0195128676 0.00181219191 -0.0225537568 0.000416068884 0.00156138104 0.0473469049 0.0412180349 -0.0282517504 0.0296862684 0.0833283588 0.0261711869 0.0546301976 -0.158651322 -0.144224763 0.0292393584 -0.0015218585 -0.00136005378 0.092251949 -0.039497707 -0.0340232961 0.081407778 0.0691055059 0.0267211571 -0.0219173674 -0.0095913941 0.121766619 0.0232468732 0.0050230301 0.106448337 0.0376802348 0.0098800743 0.00538900215 0.0345205367 0.0845099986 -0.13390471 -0.137934431 0.169102684 0.124318346 -0.0071253404 -0.0927015841 -0.0803650692 -0.0160455443 -0.246288434 0.107563324 -0.119204037 0.086847119 0.0319014527 0.000321571715 0.0790579543 -0.0425847955 -0.00308577972 -0.026376985 -0.247135788 -0.101884916 0.164638326 0.0879696235 -0.0955599621 0.114738293 -0.0838049725 0.142136097 0.184914961 -0.0149063226 -0.0903419778 -0.071059972 -0.0639605671 -0.0731421039 -0.0534818396 -0.0562018007 0.112737931 -0.000455527334 0.0069565489 -0.0585387908 -0.0213746708 -0.06204414 -0.0296695344 0.00278715207 -0.0544150211 0.0880784318 -0.0299523287 -0.0302060638 -0.0603012145 0.11902415 0.00149396446 -0.0570717342 -0.0603376776 0.0728158504 0.0308089536 0.0360859558 -0.0145891504 0.129289627 -0.042750895 -0.0166569632 0.0799832344 -0.0047198087 0.103344314 0.116117284 -0.174357533 0.038014058 -0.00208217674 0.00684403908 0.0407321639 -0.0493420288 -0.0884054899 0.0395750515 -0.0654492006 0.00703544682 0.00866696797 0.0688425228 0.0283447299 -0.0995018184 0.0628596619 0.0410421118 -0.0731926709 -0.0967049673 0.108494163 0.0491442196 0.140737996 0.0229577199 0.070024617 -0.0124161225 0.0166294184 0.0356897973 -0.00450771535 -0.00895934179 -0.0647028089 -0.130535886 0.0118798986 -0.153143942 0.0567981079 -0.0193300117 -0.163656205 -0.0254747495 -0.0942072347 0.00741986465 0.115645245 0.0269225519 0.0333666466 0.0909548402 0.116478175 -0.00522829313 -0.0562564246 -0.16167894 0.0239478014 -0.0719076842 -0.0283348393 0.0634335354 0.0256552473 -0.0104949027 -0.0093376413 0.0644448474 0.0806556121 0.155290425 0.0498807617 -0.126073867 -0.0186754428 0.0335816517 -0.0982554927 -0.0625272617 -0.0242741685 0.09293475 -0.181922838 0.238387421 -0.114873081 0.0197137669 -0.154873297 0.157797113 -0.0479311422 0.103304379 -0.0967328399 0.10086441 -0.0290075056 0.00291246152 0.0301057063 -0.0667516515 -0.0174444839 -0.0716129318 0.0558456182 0.150018468 -0.0528616048 0.0423451886 -0.0359998345 -0.0502414033 -0.00526674697 -0.0851008445 0.0693083107 0.0158321168 0.0181593671 -0.0513977595 0.0225105975 0.0517033935 -0.0670761317 -0.197521493 0.171018794 0.105597101 -0.0222088117 0.012827714 -0.0547879003 0.0483805537 -0.0803188011 -0.092908822 0.0161669776 -0.0136823812 0.0367311984 -0.131045222 -0.0321254618 0.125832483 0.0225661937 0.0371553563 -0.0159858465 0.08648289 -0.0866161063 0.0402454026 -0.0634800345 0.0193758719 0.110111423 0.114835158 -0.191497594 0.0284462273 -0.0187640917 -0.00699698506 -0.00359604647 -0.102355644 0.0544128045 0.0426447168 -0.0307349842 0.200706273 -0.0560728014 -0.00493029039 0.00271815876 -0.0675715208 -0.00430378085 0.0347812474 0.0630840734 0.0536837466 0.0406490602 0.0971697271 -0.0518555082 -0.130029097 -0.013406313 0.0243634898 0.0101399207 -0.116026953 0.00402512122 -0.000953977637 0.0168430395 -0.018268127 0.00541359233 0.0844732448 0.0323099717 0.00415715249 0.0347024128 0.101305187 0.052424334 -0.082089752 0.0877029374 0.0216865689 -0.0156782344 -0.0567356721 -0.0254539866 0.0419717431 0.0951259136 0.0134158311 -0.018928159 -0.031818226 -0.0483117402 0.0354259312 0.00250925566 -0.00424990337 -0.0115952725 -0.108232424 0.00569043122 -0.0367560275 -0.0296866521 -0.0134890266 0.0694568604 -0.0668952316 -0.0330105908 -0.0504772067 0.0545851439 -0.0222042091 -0.00314395782 -0.00662237406 0.071958147 -0.00718626147 -0.034245912 -0.0461597927 -0.00111903169 0.103340961 -0.0314303078 0.0985269547 -0.00204398576 0.0072320886 0.0109519372 0.0141822034 -0.0581945144 0.123099007 0.0233823489 -0.026763754 0.0402618162 -0.000391460984 -0.0794784054 0.0717005059 0.102888152 -0.100901999 -0.0795420632 0.0608159602 -0.097024262 -0.0336438864 -0.079993479 0.0324998386 -0.131787047 0.0983826444 -0.0907088369 -0.016167637 0.0138947275 0.00247437623 -0.0364452824 0.0291264746 -0.0182814281 -0.0152661847 0.0617223158 0.0110759884 -0.00634342339 0.0308212545 -0.0240251813 -0.0122492788 -0.0515471697 0.090032272 0.0102593657 -0.0685714185 -0.0402053967 0.0605672188 -0.0529179312 0.0770800635 0.039795626 -0.076291509 -0.103347056 -0.0758423433 -0.0167043284 -0.0115547003 0.0107769798 -0.0620849878 0.11201603 -0.0511486605 -0.00733402837 -0.11072199 -0.0747786835 -0.0289975908 0.0959115997 0.0658307821 -0.0904930606 0.0505058207 0.021375142 0.18786557 -0.0123431608 -0.111713879 0.0596478879 -0.0098024914 0.0457519926 -0.0231472738 0.114349134 0.131849498 -0.0224799532 0.0159602948 0.061332915 0.0426250733 -0.144071296 -0.110195503 -0.0292205326 -0.0539530739 0.0812981352 -0.161970496 0.0542380996 -0.0585381053 0.0278339945 0.0157022793 -0.00653845537 -0.0698437616 0.0233865641 -0.0525048375 0.024965845 0.00725530833 0.1089845 0.131930009 -0.0438089669 0.191842243 -0.0193985142 0.00627077464 0.00974170025 0.0182386786 -0.0763474777 0.024072323 0.00942941289 -0.229655057 -0.02072341 0.155793324 0.0950947776 0.128038406 -0.0941925496 0.0390074849 -0.00565589592 -0.030880535 0.0311937202 -0.0924921706 0.00690630358 -0.00905400328 -0.0816302896 -0.0209604781 0.0291804541 0.0282691475 -0.0365941897 0.00303840591 -0.0478597209 0.0199729353 -0.0577938855 0.00916831195 0.0164237265 -0.0168159362 0.126318276 -0.118070096 0.0255134087 -0.0155024203 -0.0872130543 0.0251708589 -0.0314977355 -0.0331542715 -0.129040256 0.0526752882 -0.0592739992 0.117539614 0.0718559101 0.0922941938 -0.0924957916 -0.0334179699 -0.0227848198 0.00563382637 0.0640404075 -0.00998524763 -0.0069378661 0.0739740282 -0.00524685113 0.0757491589 -0.0971586481 0.173446998 0.0185215566 0.0548972487 0.00327623216 0.0263061877 0.00420507044 0.142230824 -0.0105587337 0.078813456 0.0584422834 -0.0429250598 -0.0286578219 -0.131409392 -0.068017967 -0.0775322914 0.0236241687 0.0015744064 0.0254143141 -0.1023442 -0.0188550483 0.282359004 -0.082378298 0.0170177743 0.112975128 0.00884148199 -0.0205752216 -0.0976805165 0.325463474 -0.299255401 -0.107839301 -0.0652806908 -0.157987088 0.0281908531 -0.068272084 -0.0449499674 -0.244111732 0.223820582 -0.122583434 0.015085591 0.189083382 -0.0218873192 -0.00670793327 0.0344694927 0.158927023 0.0408020355 0.117426232 0.048579555 -0.0551996194 0.241623744 -0.127919778 -0.00918503199 0.149203062 -0.200961575 0.081524685 0.0874934569 -0.153357998 -0.039382074 0.0491310097 -0.0878899619 -0.203373775 -0.0303623881 0.189306274 0.0754811242 0.0784230381 -0.0344015993 -0.096750021 0.04565496 0.236646667 0.118742451 0.0803976282 -0.159983858 -0.150641948 0.11477153 0.0319111161 -0.0513468683 -0.027884163 0.264920861 0.122213483 0.00339771039 0.0379272476 -0.0734446943 -0.114747792 -0.136517033 -0.0710547864 0.00249383808 -0.0616208687 -0.149025753 0.0673519894 -0.0258756075 0.173654184 0.0271093603 0.194485366 0.00816281047 0.1532882 -0.110360824 0.0943662152 -0.156990275 0.123635799 0.0290537383 0.0062583941 0.0203025974 0.104420923 -0.105917886 -0.0507838689 0.0259361677 -0.145199314 -0.0640696213 -0.0526136234 0.00237223087 0.0641857982 -0.124925196 -0.0767373219 -0.0238627344 0.00954951067 -0.066049315 0.209165707 0.0679956079 0.0999288335 0.0590637848 0.01060698 -0.0906957909 -0.0801373571 -0.0855373442 -0.146915585 0.142334804 0.0264348295 0.00628447952 -0.0686639026 0.088937588 -0.214126065 0.0348206982 -0.152548626 0.0404810607 0.102709383 -0.0814814121 -0.0365574099 -0.0126229906 0.0196697675 0.0905524492 -0.0962876379 0.0589835383 -0.113964811 -0.0252956823 -0.0928874239 0.143641055 -0.0424134955 0.138852492 -0.03395788 0.0104829036 0.0731422603 0.176228896 -0.0586502813 0.0288601834 0.0728851482 -0.0946283862 -0.0639086887 -0.0122000985 -0.116126955 -0.0680302903 0.165907279 -0.0274014995 0.275855958 0.109894805 -0.100257352 -0.0634181201 0.107614502 0.070371069 -0.0505425781 -0.127474293 -0.00449933764 -0.0635150298 0.0374974571 0.0786763728 -0.0722661763 0.126640841 -0.0711180121 -0.00713749323 -0.0883082524 0.161586151 0.0423636734 -0.113125287 -0.106549487 0.105086543 -0.121593982 0.0468853898 0.0512643382 -0.190779671 -0.0573748387 0.0900479704 0.00357613689 0.156230375 -0.0448459238 -0.142818898 0.0238494091 -0.00591764599 0.0547600798 0.0410051756 0.0647799075 0.0824748948 -0.074834004 0.0104342233 0.0545102209 0.168570861 -0.0289738718 -0.180059686 0.217767268 -0.0706330016 0.0940482616 0.000333346514 0.0244163275 -0.184669107 0.010962313 -0.0497314967 0.171773091 -0.106619224 0.147849545 0.0975969583 -0.380068362 0.0684481114 0.218030006 0.286757648 0.544308543 -0.327524304 0.143405616 0.0381561667 0.260683209 0.23585102 -0.127350435 -0.551358819 -0.199572206 -0.0150134973 0.433808535 0.0196718313 0.562873781 -0.282822251 -0.151137948 -0.0356433205 -0.0141851837 0.158856571 0.0412236899 0.163760811 0.0556663871 -0.206389129 -0.022067491 -0.0594228469 -0.00646838406 -0.00691563077 0.0672332495 0.0268801842 0.0709562153 -0.00807527918 0.00391495368 -0.155902922 0.184799626 0.0291252993 -0.0608456433 0.0504031293 -0.0726083592 -0.158089399 0.118058518 0.0724535063 -0.0465962067 -0.0022396876 0.0280846767 0.0318812355 0.238996655 0.0466559939 -0.0811186656 0.0770731941 0.103419676 0.17786561 0.0404766798 -0.105423264 0.116133176 -0.0705210567 0.0382470079 0.0381064899 0.138347834 0.121655047 -0.112346545 -0.0281068273 -0.0299276914 -0.0486742258 -0.174853817 0.048585251 0.0863596797 -0.152812183 -0.0283012148 -0.0255758576 0.204801112 0.0821171775 0.110275052 0.012968082 0.0831852257 0.0636011139 -0.176398575 0.0891687945 -0.0404431373 -0.148807228 -0.068936564 0.0312642269 -0.195211887 0.0333078951 0.0816776305 0.00298322923 0.146773249 -0.118746042 0.0109223658 0.176880047 -0.0240430366 -0.127319783 0.152136505 0.143473133 0.0475061014 -0.175990403 0.0883574933 -0.0140170613 -0.0819005296 -0.0204951093 -0.00998487417 -0.0209396835 0.0408950187 0.105327517 -0.0917472541 