AI_FB_MODEL_TXT_V3_ANGULAR_REFINENET
rn_enc_conv_w 144 0.077834174 -0.185676083 0.0978870541 0.103532106 -0.12962462 -0.0236618612 -0.172780871 0.0619183145 -0.0599714033 0.0525106825 0.132505015 0.0170932095 -0.0667164847 -0.0555048212 -0.029491514 -0.0531022027 0.0530512668 -0.0569911972 0.243464872 -0.195993781 0.219139174 -0.0409577526 0.117561221 0.0945538208 -0.0349647477 0.0381293967 0.145331115 0.0720758289 0.0888561159 -0.102180615 0.12762785 0.0679276362 0.0234570522 0.0350689925 0.0356264114 0.0896832496 0.0129002985 -0.202566922 -0.0776872486 -0.113603771 0.114397265 -0.14887169 -0.166223839 0.190881774 0.246147856 0.0304526817 -0.0358810462 -0.0379825458 0.089393422 -0.158983424 -0.0647683889 0.14520593 0.144431293 -0.0140671646 -0.160152972 0.0762859061 -0.187161982 -0.0147415511 0.104841702 0.153289139 -0.0307190884 0.0561187677 0.0609917007 -0.147335231 -0.0534360111 0.0541131124 -0.0529635251 -0.0752292797 0.0905483812 0.0220840294 0.0126148071 -0.051760003 0.116739154 -0.158566535 -0.041662965 0.259214133 0.0362374708 -0.011959048 0.0446591228 -0.0673157945 0.209168687 -0.174792543 0.00283161364 0.00696227187 -0.0732881054 0.0351555757 0.0213674456 0.0776702091 -0.0481779091 0.0946720466 -0.0792253539 -0.174306616 0.148953557 0.0105810082 -0.24735339 -0.151194304 -0.134162948 0.20498471 0.0765578225 0.0522315316 -0.0579550862 -0.200553164 -0.141677588 0.0948021263 -0.0454334691 -0.0566019528 0.10707631 -0.0585493073 -0.160198838 0.166121796 -0.0848576725 0.160459831 0.0373162255 0.0301565062 0.0497111529 -0.160249069 -0.13612324 -0.0165580548 -0.0546264239 0.0797695518 -0.00845959317 -0.0144031653 0.110399082 -0.0874151438 0.0275402162 -0.0446608551 -0.235652968 -0.166411847 0.0895583704 0.0843761116 -0.172167733 0.0387641303 -0.230241552 0.0987610519 0.17193608 0.107335694 -0.064280875 0.11470893 0.159135684 0.0202578548 0.0235707257 0.0895482898 -0.0562360212 0.00761318067
rn_enc_conv_b 8 -0.217612624 -0.160974532 0.0105109904 -0.0157677587 0.202923909 -0.0140115563 -0.0692400634 -0.221148774
rn_enc_bn_g 8 0.967562675 0.898406148 0.948735058 0.925502837 0.887672901 0.957205176 0.875487328 0.909307003
rn_enc_bn_b 8 -0.122513175 -0.117566757 -0.00773466844 -0.0907190666 -0.0873900056 0.00069048244 -0.0899627209 -0.133256063
rn_enc_bn_m 8 -0.217621267 -0.160779744 0.00870351028 -0.0161000658 0.202848613 -0.0154105769 -0.0680618882 -0.222574711
rn_enc_bn_v 8 0.00206432608 0.00419866247 0.00341321272 0.00170981896 0.00218356028 0.00379273342 0.00228087488 0.00379363215
rn_enc_fc_w 4608 -0.00654989621 -0.0168271214 0.0470847711 -0.0126561821 0.00224644435 -0.0064214617 -0.00499269832 -0.0150082782 -0.0319460742 -0.0176830441 0.0112585183 -0.0288873259 0.0204452444 -0.0217475761 0.00100644596 0.00418635132 -0.00446662679 0.0138188358 -0.00156862172 -0.00177059683 0.00761245005 -0.0287939664 0.000850863522 -0.00540214311 -0.00467788661 -0.00464096339 -0.00146338146 -0.00695056748 -0.0240155142 0.0245007537 -0.0184053797 -0.0047342279 -0.0088657774 -0.00209384481 0.00214988692 -0.00134609477 0.00618542684 -0.033005096 -0.00566486316 0.00115732953 0.00101643032 -0.0304670017 0.0117961159 0.0157920234 0.015572276 0.00293824752 -0.0139095746 0.00755638722 0.0208803732 -0.00939378701 -0.0244404245 -0.030795088 0.0218015052 0.044875063 0.051251635 0.0558219701 0.0563250035 0.078977555 0.0452510044 0.0620950907 0.0326198786 0.0872881562 0.0656447634 0.046793066 0.0755180717 0.0645710081 0.057985872 0.0411452129 0.0563348159 0.05437731 0.0307149887 0.052313827 0.0596772358 0.0304242782 0.0582431033 0.0398199707 0.021776583 0.0301869027 0.0231589414 0.0601485074 0.0738705024 0.0846029669 0.0871784836 0.0660103485 0.0694465786 0.0456437469 0.0816279054 0.0380016938 0.0419919118 0.0397881791 0.0276081413 0.0239870399 0.0444415733 0.0809614286 0.0338215083 0.0190380067 -0.00648878608 0.0424723439 -0.0134189725 -0.00958596542 -0.00467084814 0.00974884909 -0.0159543362 0.0130662918 -0.00819422584 0.00615404267 -0.0219055656 0.00257826736 -0.016343439 0.0311209932 -0.00769510074 -0.0230842438 -0.0126276612 -0.0217353478 0.00666832505 0.0268295687 -0.028695235 0.0321607701 0.0125926929 -0.00722356699 -0.017162621 -0.025237238 -0.00420306716 0.00272068684 0.00284188916 0.0199085642 -0.00259840908 0.0290041901 0.0157610029 0.0209361035 -0.0226765331 -0.0359672867 0.0182604771 -0.00353876175 0.00204890221 -0.0307741966 0.0242462866 -0.0110547924 -0.0311111137 -0.00632711733 -0.0558221973 -0.0209573936 0.0070688515 0.0319593549 0.000232252627 -0.00405880203 0.00819452107 0.0230093114 0.0659093484 0.0381219573 0.0219978318 0.0610832088 0.0238651447 0.0189429186 0.0218113437 0.00496048015 0.0307850875 0.00503483787 0.0580223016 -0.000362670427 0.00758291595 0.0415443517 0.0567138977 0.0689033121 0.00514621288 0.0640333071 0.0596748628 0.0107188402 0.0494349264 0.0242402628 0.0447776727 0.00244615041 0.0136720696 0.0115142399 0.0273537524 0.0330781192 0.0336143337 0.0130742239 0.0522132106 0.0527214967 0.00273685763 0.000943502237 0.0266368501 0.0444287173 0.00690707657 0.0310679004 0.0364388116 0.00681855623 0.0681811497 0.0605251528 0.0619521923 0.0196765587 -0.00910084508 0.0193912592 -0.00993382093 0.0120119965 0.00332505954 0.00671922509 -0.00389656844 0.0134326415 -0.00448446441 -0.000386210304 0.0176506955 -0.0199103337 -0.0219295491 0.0158598162 -0.00698646577 -0.0016760896 0.00203645579 0.00061824068 -0.0134592829 -0.00551351346 0.00849335641 -0.0332461968 -0.00730474759 0.017700633 -0.00940263737 -0.0160694644 -0.00961037632 0.0121625094 0.000485605764 -0.0185059719 0.00966179091 -0.011188738 -0.010665956 -0.000229255558 -0.00255950051 -0.0136471596 0.0161843561 0.0144987293 0.021194851 0.00249825791 0.00229070242 0.0175700523 -0.0127928751 -0.0097562233 -0.0110144215 0.00691161165 0.0370849892 -0.0221918914 0.0116890334 -0.0167100243 -0.008856792 -0.0492968448 -0.0212208349 -0.0304516349 -0.017890105 0.0079469895 -0.0163668524 0.000378752564 0.00428885408 -0.0515193567 -0.00375540322 0.0196797568 -0.0346597359 -0.0105117606 -0.0155633548 0.00269847456 -0.00768107269 -0.0434847251 -0.0433285907 0.0144360764 -0.0319279842 -0.048089724 -0.048758857 -0.0477681831 -0.00813595857 -0.012203428 -0.0373221636 -0.0245265644 -0.0107339239 -0.00323040783 -0.00164251379 -0.0357998982 0.0176279005 0.0173339192 -0.0420009606 0.0170719232 -0.0459359959 -0.0401910134 -0.00925060455 -0.00579212047 0.0157114137 -0.0161932241 0.00799617078 -0.0284033138 -0.0426688604 -0.0198832545 0.0226510093 0.00064473477 -0.0286433212 -0.00999793317 0.00749685941 0.0115377624 -0.0235506445 -0.0182642899 -0.0100696012 -0.00863555353 -0.0114208758 -0.00534358947 -0.00915411673 0.00317681232 -0.00677249627 -0.0462768637 0.0155933984 -0.011081513 -0.00956739951 0.022606682 -0.0225855839 0.00725453068 0.0205829646 0.0128695751 -0.00669549685 -0.0121453879 -0.00733336154 0.0334320739 -0.0100054862 -0.0097982157 -0.0211323574 0.011024476 -0.0320396051 -0.0156118972 -0.00341817224 0.00354561955 0.0016509206 -0.0145097943 -0.0205811858 -0.0380150937 0.0137229543 0.00603273464 -0.00822445657 0.0220557898 0.00901214685 -0.00153151655 0.004718374 -0.00537298759 0.00448532822 0.0117833251 0.0113483211 0.0228324812 0.00552809006 0.00500003574 -0.0268750433 0.0350630395 0.0363511927 -0.0224990454 -0.019102918 0.00824294426 -0.0141532086 -0.0230313223 0.017818654 -0.00285821687 0.0190022159 0.0208329987 0.0386271961 0.0279336628 -0.0274265837 -0.0225856137 0.0354156606 -0.024165066 0.0285498668 -0.0154974889 0.0354492627 0.0269017536 -0.0184128527 -0.023338737 -0.00932652317 -0.0100021269 -0.0139847323 0.0319228098 0.015356617 0.00196580053 0.00404408714 0.0215102006 0.010190323 0.00202661217 0.0385357775 0.0313949324 0.00902476534 0.0313976258 -0.00128298195 -0.0208909865 0.027219424 0.0265113246 -0.00577804912 -0.0260590389 0.030137701 -0.0112140616 -0.018675942 -0.0110917352 -0.0149431601 0.0169632956 -0.0101023177 0.00994594395 0.0185883809 0.00517420564 0.0400708504 0.0074427505 0.00814198423 -0.0167309158 -0.0256362334 0.0245542526 -0.0141218295 0.000188535952 0.00563355954 0.0363999866 -0.0125729609 0.0130077228 0.0229667053 0.00939143263 -0.00178818079 -0.0165520869 0.0152497208 -0.0096248202 -0.00864255894 0.0339053124 0.014639602 0.0116627319 0.00308837648 -0.0114774639 -0.0193993933 0.0126236724 -0.0155970501 -0.00443871925 -0.00353424624 -0.00234484556 -0.0111136837 -0.00448399642 -0.0290095843 0.0126451813 -0.0105737271 -0.00553972833 -0.0219806228 -0.0321716331 -0.0364265665 -0.0100260591 0.0721625909 0.0424271338 0.0413504206 0.028277291 0.0245589223 0.047752168 0.041244749 0.063594155 0.0857336 0.0258710925 0.0396004207 0.0640689805 0.0263260882 0.0466828607 0.0323834904 0.0736318156 0.0466651134 0.0536467619 0.0721396282 0.0251180101 0.0311922468 0.0786526278 0.0650191978 0.0474497862 0.0866591111 0.0823135599 0.0350761451 0.0405955724 0.0663209632 0.028181104 0.0148126166 0.032467898 0.0176420119 0.0734982416 0.0598150976 0.0203159284 0.0491626672 0.0852575228 0.029583836 0.0278291609 0.0661930367 0.0251912121 0.0170195866 0.0710957125 -0.00225340226 0.0137703223 -0.0174314026 -0.0235356186 0.0180803128 -0.0016283372 -0.018777065 -0.00196866412 0.0113835204 0.00835132878 -0.0149066495 -0.0204067957 0.0186076872 0.00535007939 0.0179284438 -0.00384517969 0.00510099903 0.0065300623 -0.0017362386 -0.0254887901 -0.0177877843 -0.00633283099 0.0228531435 0.0122402739 -0.00485903583 0.00683946116 -0.00995835848 0.0113669941 0.0192715246 0.00543803722 -0.0152804488 0.00962691102 0.0222264789 0.0194437373 -0.00536810979 0.0154121788 0.00654082978 -0.020060908 -0.00693589309 -0.00363273057 -0.0210767258 -0.00894325227 0.00251279329 0.0015373904 0.0228994247 -0.0114076734 0.0179898757 -0.00981410034 0.0105627095 -0.05273702 0.00428845081 -0.00262670754 -0.0321358927 -0.0263423268 -0.00853447057 -0.0149055496 -0.0436534025 -0.0436040945 -0.00106281287 0.00974112377 0.0156650785 0.00426003151 0.00297665922 -0.0026603709 0.00653821323 -0.0270384755 -0.0122059043 -0.00321896281 -0.0101670027 -0.0208980273 -0.0367499627 -0.0434592254 -0.0385676958 -0.0142883323 0.0154557191 -0.0309290197 -0.0471835472 -0.0492106192 -0.0037079663 -0.00279457821 -0.0370785482 -0.0317854024 0.0101603121 -0.0483317487 0.00340579543 -0.016573647 -0.0347463973 0.0170796234 -0.0415004082 0.0147513766 0.0121224523 -0.00538426265 0.00572116207 -0.00902993791 0.012431385 -0.00973619707 -0.0493623093 -0.0136787947 0.0116253281 0.00700933998 -0.0236228704 0.0327398218 -0.00326127419 -0.0130424155 -0.0202951431 0.0215952657 -0.0231318232 0.0124082677 -0.00317829102 0.0073343385 0.0301373657 0.0131791867 -0.0248161368 -0.000183660683 -0.0143991057 -0.0245093703 -0.028892912 0.0126943793 0.0239391327 -0.00901942421 -0.0175692085 -0.0174224284 0.0268659275 -0.0315408632 -0.00786814187 0.0124932593 -0.0134507213 0.00444670068 -0.00899450574 -0.0303136017 -0.0185032059 0.0109531591 -0.0272029191 0.0214478243 -0.023950614 -0.0029720969 -0.00452407775 0.00483223796 0.013222836 0.015715085 -0.012502308 0.0504757576 -0.00725320261 -0.00141689903 -0.0283700489 -0.000409037864 0.00558952987 -0.0103300307 0.01116776 0.0527826361 -0.00585722644 0.0529476143 0.0290824994 0.00607885048 0.0186308809 0.0247702189 0.0181812532 0.0131574171 0.0193300806 0.0328130312 0.0465491451 0.0350218453 0.0551938005 0.0231168419 0.05952942 0.0411494859 0.00340855983 0.0532866754 0.0367106758 0.0521838702 -0.00529946573 0.0267120264 -0.00446404237 0.0207243897 0.0160109811 0.00676786434 0.00638885424 0.0569014288 0.0453935452 0.0413033627 0.035552714 0.0404650532 0.0325039066 -0.00583618507 0.0249666348 0.0519998707 0.0244183913 0.0353585072 0.0512288176 0.050238084 0.0227365717 0.058423046 -0.0125238569 -0.010345608 0.0137970885 -0.0293239355 0.0242265612 -0.0238411818 -0.00434750691 -0.0125508066 -0.00513312872 -0.0153032495 0.0222937539 0.00165848841 0.00762862805 0.00536510674 -0.00753678894 -0.0169149376 -0.020899944 0.00413769856 0.0193999987 0.0202139132 -0.00900942646 0.0156846903 -0.0108697163 -0.0413743705 -0.022125002 -0.00192886346 0.000242322654 0.00858275779 0.00680591539 -0.00774517143 0.0184329674 0.0127416486 -0.011144585 0.000519170135 -0.0111611197 -0.00863233116 -0.0381247252 0.000505295931 -0.00856939703 -0.00651254319 0.0433227941 0.0102733467 0.00499762176 0.0103021618 -0.0448070578 0.035597425 0.0110323234 -0.0277761649 -0.0227590669 -0.000434756745 -0.0237265211 0.00746460725 0.0164809413 -0.0294366144 -0.0156043796 0.0388295092 0.00373531994 0.0213438272 -0.0131969508 -0.00376821333 -0.0131828766 0.01830668 -0.0182962194 -0.0116347726 0.013575878 0.0064007747 -0.0124953575 0.00772153353 -0.00164150132 -0.0299880132 0.038497448 -0.0247177072 0.0165710486 0.0250482149 -0.00184258295 -0.0052381386 0.0380182154 0.0318858288 -0.00154621212 -0.0080662407 -0.0145404991 0.034355659 -0.0149181709 0.0178085342 0.0146998446 0.0325938798 0.00449221814 0.023280222 -0.0152088217 -0.00953456946 -0.00893065892 -0.0299511701 -0.0276756436 0.0226646364 0.0208521374 -0.00436935807 -0.00836007949 0.0430083759 0.00186104863 0.0433411375 -0.0145085026 0.00861787517 0.00705982652 0.02932797 0.0285147149 0.010590368 0.0201425813 -0.0325947404 0.00482868077 -0.0141840633 0.0171449166 -0.0243087653 -0.016406348 -0.00278211641 -0.0142199481 0.0142555842 0.0175507348 0.0168140028 0.0253682043 0.0266036615 -0.00377189764 0.0119460858 0.00463993009 0.0269840173 0.0284679513 -0.00707520824 0.0114287399 -0.00269461609 0.0132129043 -0.0042903088 -0.019083295 -0.0064413012 0.01746496 0.000736704387 0.0449418947 -0.00876678526 -0.0215885248 0.0222918149 0.00109978835 0.0168197323 0.00424144324 -0.0377265476 -0.0148076611 0.0131992269 0.0376362167 0.00612533418 0.039681308 0.0494702831 -0.0200937651 -0.0207780078 -0.0133551173 -0.0326055065 0.00471649738 0.00848767348 -0.0162097383 0.0234053582 0.00355039351 0.0270709954 0.0241304301 -0.0154346228 -0.0382358581 -0.0325417966 0.0260893703 -0.0305931792 -0.0061510629 0.0146218669 -0.0203664042 0.0120609459 -0.0329201296 -0.00152447401 0.00785503723 -0.0387998596 -0.0218815207 -0.0269288234 -0.0153619722 0.0259633362 0.0232124105 0.00984134711 -0.0256435126 -0.0155069288 -0.00530639244 0.0261369459 -0.0388616994 -0.0173594877 -0.0394998565 0.0047519994 -0.0134084448 -0.0248424485 -0.0416848138 -0.0205810219 -0.0399293751 0.00339143397 -0.0220101122 -0.0196490008 0.052833803 -0.0310432129 -0.0106518315 -0.00881562196 -0.00159152993 0.0264394898 0.00185578805 0.0059593739 0.00253522303 0.00272538862 0.0139571335 0.0123029677 -0.0215144511 0.0151420161 0.0105074551 -0.00123178563 -0.0182932019 -0.0228324011 0.00336760469 -0.000373289775 0.00604312494 -0.00144060573 0.000220499176 0.0258303527 0.0381259695 0.00120197504 -0.00964364875 0.028749194 0.0152816186 -0.0545756184 -0.0632848442 0.0415439121 -0.00378560275 -0.00254697981 -0.0129860202 0.00869030412 0.0183137003 0.00472206157 -0.0362794437 -0.0105726859 0.0251555629 0.0518284589 -0.0144163901 -0.0106593454 0.0237001255 -0.0112670427 0.00119104388 -0.00463874824 0.0363652185 0.0241219178 -0.00278291921 -0.0439649336 0.00214235182 -0.0313859247 -0.0290545076 -0.0178397521 0.0195525326 0.0121945394 0.0155118415 -0.0207257196 0.00990010332 -0.01597853 0.00906297285 -0.0278621651 -0.0335827731 -0.041368518 -0.0172731504 -0.031203825 0.013033268 -0.0342586078 0.00353001454 -0.0341211222 0.00419650925 -0.01423766 -0.037055824 -0.0137114925 -0.0489744805 -0.0188809149 -0.0369325317 -0.048150178 0.0170079358 0.00597715518 -0.00683630863 0.0057672034 -0.0444792025 -0.0344647132 -0.0326319672 -0.0379905216 -0.0229722708 0.0112568391 -0.0383446254 -0.00859362539 0.000202779178 -0.0338350572 0.00197033095 -0.01112442 0.0125660617 0.017997412 -0.00152885215 0.0213264208 -0.0365771875 0.0275724921 -0.00229340373 0.0152823338 -0.000434651651 0.023903301 0.0451712459 0.0107917376 0.0171123091 0.0286114756 0.000385609485 -0.00521175191 0.0255131051 -0.00626040529 -0.000402387639 0.00478852075 0.00202356069 0.0110064251 -0.0200659018 0.00197607046 0.0125537533 0.0143460752 0.0299834516 -0.0151933441 0.0210276656 -0.0178579949 0.0424250029 -0.0290151928 0.0310954284 -0.0015375748 -0.0148663586 0.00200906163 0.00241699419 0.00492024422 0.00107049872 0.0107665388 0.0199734643 -0.00375687541 0.0294966456 0.00698437961 -0.0233380701 0.0447874889 0.0258028395 -0.00392813748 -0.0189041942 0.0704312921 -0.0190580636 0.0238402132 0.0428884365 -0.0117248259 -0.00108013873 -0.020440409 0.0191923399 0.0110153612 0.0352878086 -0.00405622693 -0.0213107131 0.0423717462 0.0455619209 -0.0150659252 -0.00371977873 0.000662204868 -0.0132900719 -0.0241710003 0.0361693911 0.0308460388 0.0264667235 -0.0221246611 0.00200903323 0.0320754237 0.0283412635 0.00120941259 0.0103624929 0.0257957429 0.0415642001 0.0435239114 0.0434700958 0.0420732461 -0.00682134787 0.0440141894 0.00854255818 0.000764491677 0.040518593 0.00542020006 0.014879575 0.00719598262 -0.0156312771 -0.0174620468 0.0418980531 0.0440503322 -0.00749996817 0.000389199529 0.0441953428 0.025180988 0.0163223352 -0.0380379073 0.0295308679 -0.00124860252 0.0039154999 0.0230027661 0.0168645326 0.00882380456 0.0129479812 0.0062236106 0.0214629304 0.0204132479 -0.0253131017 -0.0017258001 0.0520948283 0.0327102467 0.032644555 -0.0107242335 0.00681800349 -0.0400863141 -0.00480938656 -0.00145558699 0.0170087535 0.014380767 0.00488610659 0.000885474787 0.0137401801 -0.00863252115 0.00528832991 0.0191922095 0.0104161026 -0.0195854623 0.0394556969 0.0239431113 0.0240637083 0.0599066131 0.0184436329 -0.0366530754 0.0161721073 0.00797586981 0.0221749078 0.0332542807 -0.00272139767 0.0514067337 0.0467677116 -0.0324929357 0.0103706541 -0.0133071095 0.019918913 0.0143834995 -0.00872315001 0.00152208679 -0.00555367861 -0.0381181277 0.0202490184 -0.00909493212 -0.0346912183 0.00343087176 0.0147240227 -0.0359231345 -0.00655754376 -0.0370072164 0.00527500175 0.000282857276 0.0139255626 -0.0121173775 0.0292539094 -0.0386997201 -0.012846305 -0.0307681281 -0.0314497389 0.0252980087 0.0149344625 0.0249576177 0.0110690454 -0.0248548966 -0.0120925689 -0.0358557664 0.0271240529 -0.00936708692 -0.0064398488 0.00912948232 -0.00945859496 -0.0302750785 -0.00304738199 0.020308191 0.0182158072 -0.0380922295 0.0275980141 0.0101470826 -0.0392057784 -0.00893304404 -0.024705613 0.0279317833 -0.0205226652 -0.00246855919 0.029261319 0.00917326193 -0.0263516679 -0.00155935157 0.0463039726 0.0157383829 -0.015267333 -0.00776576065 0.00393590098 -0.0201445073 0.00862083863 -0.0176675618 -0.0124321664 -0.00762544572 -0.0062655462 -0.00650324021 -0.0175399091 -0.00566608831 0.029761821 -0.0101120677 0.0199908689 0.00164532149 0.00686901063 -0.0107278051 -0.0221355259 0.00868875068 0.0304012559 -0.0270346422 0.0110832555 -0.0152780851 -0.00634460477 -0.00514253788 0.0271849409 0.000216910848 0.0146395881 0.00416960893 0.00388435973 -0.00579707418 0.0340535156 -0.0271225218 -0.0410812609 -0.0170321949 -0.0180081427 -0.00703251269 0.00702268723 -0.00452650199 0.0192488376 0.0383403338 -0.0310393646 0.00952516031 0.0198098235 0.009309371 0.0188010372 -0.0259607099 0.0050366926 -0.0240110382 -0.0192356855 0.0245793574 -0.0129293287 -0.00868382212 -0.00772751262 -0.00618066965 -0.0259570666 0.0162334293 0.0204901285 -0.0303585976 -0.0440055281 -0.0174172781 -0.0274866074 0.01351994 -0.0224499144 0.0154277366 -0.00203479966 -0.0231118426 -0.028295476 -0.00283019594 -0.0392909423 -0.0149452547 -0.045279555 -0.0420237258 -0.0324249938 0.00902312342 -0.037972711 0.0242499895 -0.0451001823 -0.0422696322 0.00580105791 -0.00914103072 0.016562663 -0.0185139962 0.00498549873 0.0186193399 -0.0123397764 -0.0379662402 0.0109428419 0.0432665758 0.00483347243 0.014577915 0.00769355521 0.000555469538 -0.0130033847 -0.0134868044 0.00558971241 -0.0131315906 0.0283639543 -0.0066845105 0.0139175188 -0.000763117569 -0.0010119311 -0.0121451234 -0.00751330936 0.00867258105 -0.00145239464 0.0299045257 -0.00317154708 0.0250754096 0.0208038054 0.00641279994 -0.00400818512 0.00760686444 -0.0249207877 -0.0132389674 0.00972282048 0.00117884041 -0.0228030495 -0.0187797174 0.022642877 0.0143389562 -0.00975550245 0.0220201258 -0.00126724434 0.0268536713 0.0338933878 -0.00230054604 -0.00982841756 0.00570877129 -0.0124926446 -0.00326629775 -0.00664532464 0.0121317357 -0.0303293299 0.0262751691 -0.00883366354 -0.0120995753 0.0372674465 0.0397727713 0.0413819328 0.0236338992 -0.0231494922 0.0154792368 0.00886069424 -0.00997982547 -0.0143332072 0.00712593226 0.0414777473 0.0204775911 0.0134543031 0.0240098257 -0.0220667776 0.0294829961 0.0184929762 -0.0107709579 -0.0210201945 -0.0137666762 0.0212529059 0.0211894009 0.0161488783 0.00319103361 0.026142614 -0.0127687138 0.0285888817 -0.00810733065 -0.00826285221 -0.0162502583 0.0206702705 -0.00887384079 0.0324238762 0.0296925176 0.00935457461 0.0310681332 0.0313403942 0.0242085475 -0.017501073 0.00295968377 0.00408596592 0.0297523011 -0.00361192902 0.0181293692 -0.00337147783 0.0244766884 0.0126834372 0.0291675087 0.0129138306 -0.0115846163 -0.0112405503 0.0260063782 0.0133444062 -0.0303271301 -0.028501112 -0.00277473731 -0.0132613517 0.0180688258 -0.000894623867 0.0150317764 0.0131940236 -0.0244363789 -0.0104251048 0.00679349247 0.00290381745 -0.0078663202 -0.0111609222 -0.015499224 0.00851087458 -0.00615652464 0.00659628632 0.0476743504 0.0324254707 0.00695921015 0.00209898595 -0.0161745045 0.00514290854 0.024957126 0.0285161138 0.0216453578 -0.0023252333 0.022456916 0.00532340491 -0.0189945213 -0.0367506519 0.0154460454 0.0268045459 -0.0321027786 0.0518687814 0.00990098529 -0.00881600007 -0.0355374739 0.0012771202 0.00370370131 -0.033590436 0.00211162306 -0.020401258 0.00631856266 0.00598184112 0.00169633888 -0.0360610746 -0.0229651667 -0.0236943737 -0.0488555841 -0.0490441136 -0.0300522484 -0.0279339068 -0.0106352819 -0.055461619 -0.0403160714 0.00576528814 -0.0168752596 -0.0485979207 -0.00581970159 -0.0370834135 -0.0432694443 -0.0399482809 -0.0429096632 -0.0424848385 -0.0168105364 -0.00545946881 -0.00412877556 0.0130341342 0.00634154771 -0.042112235 0.00739922747 -0.0315321125 -0.00238512387 -0.0399713553 0.00752553437 -0.0255763717 -0.010615184 0.00833205599 -0.0307089947 -0.00867389143 -0.0129165621 -0.0357170887 -0.0222859085 0.00691839959 -0.0148203233 0.0285586286 0.0271135364 -0.0142813418 -0.00887773745 -0.0250284802 0.0294907149 0.00965176709 0.0126567762 0.0315632932 -0.00450826529 0.00511106895 0.002607306 0.0565313771 -0.00697058579 -0.00808356795 0.0189723186 0.0140523491 0.010559665 0.00321097812 0.0127628464 0.00898249727 0.00325105991 -0.0238962024 0.00897999294 0.025018502 0.0213254392 -0.00703189615 0.00818270538 -0.0078398874 0.0128622157 -0.0169533622 -0.00204205257 -0.00282833562 0.0281360596 0.00167257071 0.0134110441 0.000743338838 -0.00356033188 -0.0129589168 -0.0556736849 0.00684789615 0.015671473 0.0136324009 -0.0347266085 -0.000142909019 -0.00697630644 -0.019632943 -0.00588165596 0.00216744468 0.0157153178 -0.0204167422 0.0145434132 0.0190551877 0.00727050612 -0.0261230171 -0.0239395984 0.0153480293 -0.00140840886 -0.00297710998 -0.0126028312 -0.0263688825 -0.0210459158 0.0196295753 0.0264792107 0.019905787 -0.0238077044 -0.002041189 -0.0317095257 -0.0228393301 -0.0268657021 0.00980766397 -0.0351690874 0.0251345597 0.0279242285 -0.00421347516 0.00801987853 0.0114262858 0.0315372385 0.000898191065 0.0319088288 0.0123226224 -0.011869804 0.0261186324 0.00919266883 0.0138331568 0.00345290173 -0.0197088569 0.0315512754 0.00662067393 -0.00620362209 0.00760207372 -0.0195591412 0.00994075928 -0.036202468 0.0197592862 0.0227428786 0.00307314866 0.000891605741 0.00740849553 0.000843588961 0.0377269536 -0.0538013056 -0.0139737222 -0.0559885763 -0.00235521956 -0.037073005 -0.0149745345 -0.00996672083 -0.00981468521 -4.59755211e-05 -0.0295926668 0.00476605585 -0.0213323217 -0.0243255254 -0.0139876381 -0.0114343166 -0.0260271914 0.00345701654 -0.0217704903 0.00462802546 0.00187129562 -0.0162273366 0.0242494419 -0.00675620185 -0.0264397077 -0.011877791 -0.00188755989 -0.0285618417 -0.0120943775 0.00844927318 0.000512539875 -0.0010827363 0.0133618843 -0.0153035214 -0.0386960767 0.0102779903 0.00252826069 -0.0235954951 0.00192269415 -0.018319279 -0.0408770591 0.00759160146 0.00675504701 -0.0348054953 0.0116934292 0.0177641995 -0.0436755642 -0.0341873243 -0.0410053246 -0.0146045368 -0.00434154086 -0.0332915671 0.00289457641 -0.0484695844 0.0118891504 -0.0140904766 -0.00196380075 0.0119994748 -0.00936244428 -0.0309255924 -0.0233305525 0.019056445 -0.0206101779 -0.0149216689 -0.0435562618 -0.0358401723 -0.0153597351 -0.00389691629 -0.0352631398 -0.0113917142 0.01960163 0.0206047017 -0.0118867084 0.0225556176 0.021381693 0.00434813835 0.0157891158 -0.00681875832 -0.0271420125 0.0158436242 -0.00191903114 -0.00586974062 -0.0141309835 -0.0172651913 -0.0436210968 -0.030724356 -0.0372159965 -0.0192365181 0.00630906038 -0.031653665 -0.0107140969 -0.0271761548 0.0184572916 0.050305035 0.00905370899 -0.000602334971 -0.00401020469 0.0170223434 0.00739206234 -0.00577032939 -0.00476740254 0.0252526868 0.00892221648 0.0297567975 -0.0114190336 -0.0118786851 -0.000117707699 -0.0203409102 -0.00825718977 0.017734319 0.0306414887 -0.0195661988 0.020345768 -0.0152127137 -0.00458348868 -0.0022316929 0.021205727 0.0181713924 -0.0489961803 0.0208392832 -0.0170111414 -0.0374578014 -0.0363616683 0.0194564797 0.0140710715 0.00586604094 -0.0346728079 -0.0252374262 0.00421023648 -0.00502950279 -0.0192474425 -0.0134333391 0.00602357183 0.0234542917 0.00459036278 0.00201914203 0.0192701668 -0.0389289111 0.00460072979 7.82100105e-05 -0.0231702235 -0.0455880389 0.00264959852 0.00650026277 0.010575179 0.0278705731 0.0313967504 -0.0244139396 0.036238689 0.00361020234 -0.0308247767 0.0228832774 0.0303760581 -0.00279151672 -0.030752182 0.0283257253 -0.017534934 -0.0239198878 -0.00787187554 0.00206954475 0.00855292194 0.0157891326 0.0144129023 -0.00195497624 -0.0188021809 -0.00900611281 0.0247109197 0.0107011385 0.0251563601 0.00386416679 0.00583696319 -0.0319334678 -0.00382187148 -0.0168513916 -0.0320636593 0.0307031125 0.0223041102 0.0348053686 0.0311982483 0.0262923203 -0.016752217 0.0323150717 -0.02749056 0.0117852893 -0.0244521722 0.0243651643 -0.00500123715 0.0315772258 -0.0190997999 0.0399516299 -0.0404066816 -0.00518137868 -0.0215834472 -0.0332880989 -0.0294577796 -0.0051390091 -0.0113370139 0.00760117918 0.045785252 0.00407961477 0.000712527952 0.00364376162 -0.0207925439 -0.0111989882 -0.00279760105 -0.00642659748 -0.0279380456 -0.0166716017 -0.0197804235 0.0288644303 -0.00560192252 -0.022926366 0.00881824829 0.0162194911 -0.0101950262 0.0101395575 -0.0297574885 0.0213098116 -0.0218489952 0.00687199645 -0.0175055601 -0.0155654699 -0.0127571737 0.0129955234 -0.00935451221 0.00712993927 0.00302449847 -0.0037054834 -0.0119952485 -0.00515036844 -0.0234561935 -0.00372847053 0.0140675865 -0.00432037935 -0.0132883005 0.0241932813 0.0389937349 0.0472781397 0.0280087721 -0.0310756341 0.0293719135 0.0349415243 0.0466903225 -0.00332035357 0.0180938728 0.0196326077 -0.00319069857 0.0394161269 0.0426445976 0.0206920728 -0.00718395319 0.0431373641 0.0428945124 -0.00231753988 -0.00436554942 0.0472909138 -0.016447302 0.0130825862 0.0123593286 0.00558215287 -0.0111835189 -0.000664747902 -0.00622697826 0.0201102458 0.0389819145 -0.00562816486 0.0475420505 0.0303323753 0.00684960932 0.0398960337 0.00723213144 0.00267315703 -0.0176084936 0.00326638343 0.0030339933 0.0297841653 -0.0172186643 0.0483322367 0.0144645516 0.0226830766 0.006201257 0.00437290501 -0.00892135501 0.0144319795 0.0347370915 0.050147377 0.0018723493 -0.0303336754 -0.0213976223 0.00417602016 -0.0436662063 -0.00684985425 0.0225201845 0.00367865479 0.00921565294 -0.0133538442 -0.00235144258 0.0224160161 -0.018684011 -0.00781448279 0.00484723644 0.0110772559 -0.0231668297 -0.00969038624 -0.0173141584 0.0139002213 -0.00102347787 0.00456595002 0.0104099587 -0.0070895995 0.0240620822 -0.0283555742 0.0156043675 -0.0158775244 0.0067961663 0.00138550077 -0.0132488953 -0.015366965 -0.00428695604 -0.00439845771 -0.0279180668 -0.00499993144 0.0139171081 -0.0265334174 -0.0124393282 -0.00522451848 -0.00543679576 -0.0101609705 0.0001863332 0.00484604063 -0.00363839185 -0.0154172545 0.0254644714 0.011664479 -0.0475000478 -0.0286542736 -0.010974844 -0.00558727048 0.000820948277 0.0126328534 -0.00987025071 -0.00886707101 -0.0161155891 -0.0113787716 -0.0216857474 -0.0147197908 -0.000253824022 0.00521453191 0.0337635055 0.00869397912 -0.00943342689 -0.0191548336 -0.00328903645 0.0111025618 -0.0183824208 -0.00408470165 0.0129610403 0.0430748612 0.0102659101 -0.0241908748 -0.0158679653 -0.0169022344 0.0342584625 0.0323828682 0.0110104522 -0.0115278875 -0.0051110182 -0.0104930745 0.0435969234 -0.0182275753 0.0166308414 0.0260403883 -0.0207827631 0.025403956 0.0281318258 0.0194216352 0.0437234417 -0.00647790544 -0.0231928136 -0.0112493848 -0.0121977106 -0.00653312542 0.013933626 0.00358700566 -0.00819301419 0.0109153455 8.31076613e-05 0.00444400171 -0.0220631883 0.00945303217 0.00141726993 0.0116646187 0.0157702826 -0.00322318031 -0.024584217 -0.0385831669 0.0183245465 0.0040652235 0.00523070572 0.0222511478 0.0183574911 -0.014273488 -0.0123433974 0.0692263469 -0.00766377477 0.00317333499 -0.00563551299 -0.0365429074 0.0330823846 0.00472956151 -0.00496881315 0.00627083099 0.00190444966 0.022468375 0.0137402425 -0.0190984122 -0.0176037457 -0.0256517231 0.0273936912 -0.0215215553 0.00519754412 0.00649529183 0.000752006599 0.0165742058 0.0243918039 0.0157409292 0.00336188101 -0.0152889127 0.0201970823 -0.0411185436 -0.0202032365 -0.0182395689 -0.0230690874 -0.0303627327 -0.0125624873 0.0199831314 -0.017292887 -0.049428165 -0.0229138695 -0.0444036275 -0.0132280756 0.0123814829 0.0153048877 -0.00794436969 -0.0382136256 -0.0347964466 0.00515752612 0.000576796243 -0.0341774374 -0.00511296326 -0.0271725617 -0.040647082 0.0204962008 0.00250311778 -0.027535148 0.00622559479 -0.0397695974 0.00496964203 -0.00123580184 -0.0248257481 -0.0327392295 -0.0117099341 0.0085914135 -0.0117782056 -0.0411158651 -0.035741955 -0.0182276219 0.000466121186 0.00696534058 0.0129656829 0.0138943158 -0.0175457075 -0.0346992165 -0.0416184291 -0.0150732491 0.0166714303 0.0259079672 0.00273049693 0.016711656 -0.0555254593 0.0180913396 -0.00394393411 -0.00123975682 0.00741198845 0.0301816277 -0.0220015738 -0.0180969648 0.0157769211 -0.0188147761 -0.0266370792 0.0198066216 0.0059374175 0.00991892628 0.022521425 0.0275779068 -0.0131579395 0.0299128946 -0.023420291 0.00183741457 -0.0268458277 -0.0164708607 -0.0178527124 0.00121688552 -0.0426808149 0.00698677637 0.00917392317 -0.0288011767 -0.0101926634 0.0168511942 0.0172645357 -0.0368187204 -0.0175679121 0.00749909878 -0.0181855131 0.0120500224 -0.0399446748 -0.000614099205 -0.0224035718 -0.0113868024 0.0100343395 -0.00472638197 -0.0270654038 -0.0124884946 0.011072373 0.0374668911 0.00618436281 -0.0258723106 0.0310872421 0.0383898132 0.0194296222 -0.0103326151 0.0196009893 -0.0150324376 0.0469267331 0.0485044308 0.00249629375 0.051334735 0.00873225834 -0.0124338465 0.0354676731 0.0449285544 0.0478140377 0.033260826 0.0401871465 0.0353939347 0.033150252 -0.0153936939 0.00328196259 0.0206241924 0.04437593 0.0114261983 0.0326743461 -0.0189993586 -0.000370205118 0.0269813519 0.0260490943 0.0203576926 0.0194185097 0.0366324596 0.00945130084 0.0393244959 0.0514687188 0.00987292733 -0.0132038472 0.0233258773 0.032371629 0.0329844318 -0.016228335 0.0110496962 0.0142854257 0.0300764162 0.0105127478 0.00682417443 -0.0229355395 0.034053985 -0.00149565854 0.00433883304 -0.00352805434 0.0202296134 0.0503519326 -0.0124678044 0.00380216981 -0.0294863395 0.0133219007 0.018329965 -0.0140216267 0.0182456318 -0.0349977911 -0.0197991356 -0.0237412229 -0.00446264306 -0.0419263244 -0.00122173713 -0.0177528728 0.00567610236 -0.0264663734 0.0176353585 -0.0456741005 -0.0322701335 -0.0197969805 -0.0370756872 -0.0207370613 -0.011938056 -0.0284586102 -0.0176954456 0.0245494973 -0.0349358693 -0.0183256865 -0.0204434898 -0.0215952937 -0.0189799033 -0.0163277648 0.0162799675 -0.0163086466 -0.0129214209 0.0297516249 -0.019538492 -0.0228862893 -0.0317934714 0.0305241328 0.00208268198 -0.0157663673 -0.0223223381 -0.0311239082 0.00810314715 0.00719939638 0.00131743448 0.00415764097 -0.016824821 0.0114892721 -0.056047976 0.00647461321 0.00716246013 -0.00387555081 -0.0310644004 -0.0286812987 -0.00125705521 -0.0204974357 0.00548616517 -0.00865833648 -0.0141688026 -0.0297118742 -0.0535303578 -0.0476331785 -0.0507460237 -0.0521415323 -0.0419394448 -0.0289720986 0.0036747884 -0.0139847677 -0.00285026757 -0.0477502495 0.0129781142 0.0114875697 0.00823392719 -0.0321193263 -0.0200408604 -0.0136989485 -0.0344434679 -0.00512159243 -0.0271683577 -0.0504577309 -0.0301233102 0.01559438 -0.00403653365 -0.0036003436 -0.013790898 -0.00930186175 -0.00609918544 -0.000149673797 0.0300098974 -0.021842882 0.0119652124 -0.021120768 0.00096736569 -0.0079996055 -0.0253515653 0.0132733332 -0.00537861558 0.0153456386 -0.0481130593 -0.0103983823 0.00184688414 0.0183938928 -0.0307978187 -0.0222036466 0.0169075578 0.0219963267 0.0208006408 -0.0334032588 0.0313972011 -0.0233949181 0.0273922216 -0.0240340717 0.00944359228 0.0414949134 -0.0422748588 -0.00864276849 0.0136308828 0.00834069587 -0.00763742486 -0.0483987518 0.0117770256 -0.012281687 0.00568732712 -0.00629195664 0.0394547842 0.0154726738 0.0176805276 -0.0095830122 -0.0185869038 0.00571228238 -0.0266817473 -0.0135988966 -0.0168564096 -0.0475572459 -0.00870199502 -0.0143935978 0.000622648629 -0.00584999379 -0.0136981672 -0.0119750826 0.0143169975 -0.0216132235 0.0340908244 -0.012852096 0.0189069156 0.0429272205 -0.00254730112 0.0413564071 -0.0214136634 0.0133771887 -0.0238498766 0.00551624177 0.0449101329 0.0375671461 0.0136850802 -0.0063391882 0.0295624267 -0.0178735759 0.0326968506 -0.0167270992 -0.0183018278 0.042626828 -0.0167389382 -0.00750314118 0.0161512811 0.0077012768 0.0129766511 -0.00968580786 -0.0029662319 0.045176588 0.0357632264 -0.0172825623 0.0107210884 -0.018312661 0.0351689309 0.010509287 -0.00840521697 0.0427151322 0.0303691421 0.00423929607 -0.00195364677 0.014495139 -0.0405934155 -0.0315306447 -0.0665139481 -0.0258583371 0.0420852229 -0.0151791899 -0.00810230244 -0.0374099948 0.0219505373 0.009974977 -0.00925199408 0.00804650411 -0.0164894275 -0.0105223581 -0.0396037921 0.00317164394 -0.0306293424 -0.0298730675 0.0135807889 -0.00636005634 -0.0193553828 -0.0338120013 -0.0472647808 -0.0220857877 0.0222607534 -0.0207242314 0.0316194594 0.00394220557 -0.0441815108 0.00513391942 -0.0151501 -0.0178938415 -0.0370775498 0.00902338326 -0.0156476833 0.00265790964 -0.0209456384 -0.0333399735 -0.0528636165 0.00583264977 0.0016647944 -0.0194027405 -0.00784059521 0.0363642238 0.0105958749 0.0353306606 0.0397962779 0.0125332559 -0.0336921364 0.00267473469 -0.043340914 -0.0243801773 -0.018239148 0.00616183784 -0.0418796092 -0.0299222805 -0.0334284268 -0.0321828127 -0.047649432 -0.0502997749 -0.0450814292 0.0119409235 -0.0359973684 -0.00328257377 -0.00774331018 -0.0146655226 -0.0127670383 -0.0259663798 -0.0312087238 -0.0150741199 -0.0529153906 -0.00129167282 -0.0225514993 -0.0449762046 0.0151262954 -0.0477591716 -0.0322092213 -0.013643044 0.0030551299 -0.0232273042 -0.0235615112 0.00677747652 0.00984699372 -0.0217459239 -0.0407542288 -0.0464667343 -0.00660798233 -0.0434050635 -0.00775005668 -0.0188015997 -0.00476801116 -0.045673307 -0.0511527173 -0.0350087807 -0.0342276543 0.0159238763 -0.00942478981 -0.0261423495 0.0156029081 0.0357231572 0.00243538246 -0.02083892 0.00944291335 -0.0135027273 -0.0216990933 0.0315993465 0.0320287906 0.0430574603 -0.0365928747 0.0155611262 -0.00994047802 -0.0152337076 -0.0211568419 -0.0142987827 0.0217062403 0.00315504242 0.012115391 0.00365642644 0.0454973653 -0.000667008746 0.00606611371 0.0064653717 0.00465536909 -0.0112400977 -0.0174790826 -0.0438581854 -0.0479650646 0.0451550521 0.0174535941 0.00873537082 0.00559145166 -0.0263595264 0.0244033057 -0.00841204356 -0.00924841966 0.0322138704 0.061633341 0.0218822733 0.00460246345 -0.0194478985 -0.00250403769 -0.0423151031 -0.00244342419 0.00529081188 0.047224734 -0.0188189149 -0.0243116301 0.0320732482 -0.0410532653 -0.0259224568 0.0128031056 0.000991367968 -0.00458952831 -0.0357486755 0.0181570668 -0.0363335423 0.0107096527 -0.0423875861 -0.042520199 0.00466768956 0.0100366604 -0.0418012254 0.00409155106 -0.0101466998 -0.00154983089 -0.0053266813 -0.0109789427 -0.000305242487 -0.0414158925 0.00428755069 -0.0231580008 -0.0358399227 0.000643239473 0.0140957925 0.0132689029 0.0143662244 -0.0454514362 -0.0211546998 0.00645405008 -0.0259214845 0.0171296466 -0.0264187958 0.0146622546 -0.00960069895 -0.0180401765 -0.0191861857 -0.00572867645 0.0162995812 -0.0119037721 -0.0404641367 0.00684829475 -0.0138229411 -0.00863388926 0.00791279692 -0.0263193659 0.00247469172 -0.0283807591 -0.0043367818 -0.008625268 -0.0218355674 -0.0313162729 -0.0134550752 0.00128847535 -0.00657080952 0.00451140432 0.0030125333 0.00563875865 0.00163730513 -0.00974122062 -0.0326079205 -0.0318924077 -0.0499345846 -0.0166759919 7.15686911e-05 8.71023076e-05 -0.0128950235 -0.0145206004 0.0120974751 -0.0181261338 0.00307953754 0.0116466368 0.0433524549 0.000210016326 -0.0162552726 -0.00103709393 -0.00841090176 -0.000621473708 -0.0049937428 0.00484100683 -0.00262240018 0.0183212515 -0.0270115696 0.00166331232 0.00600965181 -0.0301685743 0.00235095597 0.0117757339 0.0267421268 0.0100734662 -0.00318010524 0.0552374721 0.0117975166 -0.0096284505 0.0371303968 0.0028484792 0.0164916031 0.0404684842 0.0241255183 0.0406466946 0.0183020849 0.0269091334 0.0165309571 0.0399987847 0.00850564148 0.0223487411 0.0515739024 0.0352963023 0.0595664009 0.0223750304 0.0648484081 0.0293474663 0.0445960537 0.0186767746 0.0545066744 0.0422356725 0.0452938527 0.0574016944 0.029452676 0.000269885204 0.0264806617 0.0273320954 0.0677660182 0.0401834473 0.0542685166 0.0555947945 0.0263119843 0.0308199134 0.0651644096 0.0692835972 0.0348735079 0.0706507191 0.046471186 0.0691463426 0.0344398245 0.0583439842 0.0519675836 0.0584723875 0.0543245599 0.0157179926 0.00717423437 0.0260673296 0.00679367781 -0.00624646712 0.0220000856 -0.0375388004 0.00396292238 0.0209741183 -0.0184225291 0.00987896882 -0.0205140077 -0.00886548962 -0.037173681 0.00285368576 0.00846021064 -0.0551685207 -0.0129575664 -0.0286454186 -0.00973872747 0.00580085674 0.0326045081 -0.00680323364 -0.00722017931 0.00122112664 -0.0133790001 0.00180482445 0.0123755736 -0.0140798613 -0.0228084084 0.00580694014 -0.00179530168 -0.00256396737 -0.025636401 -0.0235081352 -0.0528222322 -0.0314478539 0.0135375159 -0.0214526653 -0.017068075 -0.0090027554 -0.00734042702 -0.00334213208 -0.0118429884 -0.034749683 0.00666388264 0.0101414612 0.0434307791 0.0305950921 -0.00905195531 -0.0121681821 0.00547245378 0.0261178482 -0.0135653708 0.0131553486 0.0343499407 -0.0114979632 0.0131029449 -0.0285723228 0.0228798632 0.00159778551 0.00471697142 0.0258147549 0.0350045338 0.00952181593 -0.00201990851 0.0144307613 -0.000856979808 -0.027555557 0.0420356542 0.0308358315 -0.0222486462 0.0295013096 0.0234430451 0.0258819442 -0.0268309917 0.00606189622 -0.0167696159 -0.0286318902 -0.0179084372 -0.0239150245 0.0213247966 -0.00108015246 -0.0121376254 0.0066386587 0.0342680514 0.0154189076 -0.0106739718 0.0389681682 -0.0197883453 -0.0216694977 0.0276448932 -0.0280581359 -0.0232777838 0.0375270247 0.0387309641 0.00820811652 -0.0310395826 -0.0378556922 0.0406948589 -0.0704492554 0.00508048106 0.0425881445 -0.0176047087 0.0282719973 0.00860284641 0.0188485589 -0.00814216211 0.0344888009 -0.0176033806 0.0163854286 0.0272042435 -0.0176864062 0.000623363885 -0.0199570339 -0.00493040308 0.0169152692 -0.0319428071 -0.0206509586 0.0404851437 -0.00599555019 0.0124582518 0.00768596167 -0.019530708 -0.0537563078 -0.00736468891 -0.00724558719 -0.0244192723 0.00930331741 -0.00260870252 0.0266132597 -0.0028027927 -0.0275416691 0.00532519398 -0.0248518791 -0.0294471476 -0.00297645503 0.00649005314 0.000779549591 -0.0276305843 0.0186001658 6.60076475e-05 0.00120504911 -0.00891082734 0.0377643257 -0.0514052808 -0.0277614426 -0.0446579717 -0.0129378429 -0.0276230592 -0.0514592491 -0.0119208945 -0.0473805703 0.00451902207 -0.0568467714 -0.0473942496 -0.0275391359 -0.0475735068 -0.00246388046 -0.0414585955 -0.0200367011 0.0121446429 -0.0198433176 -0.00187903654 -0.0547680631 0.00121242239 -0.00358327804 -0.0343949124 -0.0284985043 -0.0279442426 -0.0538544282 -0.00335624628 -0.018930411 -0.0408720598 0.00318181375 -0.0279995073 -0.032166183 0.000256674131 -0.0476178117 -0.0528894439 -0.0502193496 -0.0393588059 0.00804500934 -0.0255093649 -0.00842155423 -0.0426317863 -0.0198002849 0.0129577117 0.00141431333 -0.0234907642 -0.0296695232 -0.0316051207 0.0295226537 0.0238839444 0.0241464004 -0.0225792341 0.00785719045 -0.0108853951 0.0171069428 0.0106752086 0.0275743138 0.0480880588 -0.00497720623 -0.00194818294 0.00841584429 -0.00664600357 0.0246808641 -0.0261305589 -0.00762212416 -0.00449747965 0.00719476119 0.0146573763 0.00816867594 -0.0115104439 0.00489878561 -0.0101207923 -0.00438483339 -0.00488198595 0.00561702671 -0.0353009067 -0.002045003 -0.00251440844 -0.00571739255 0.0226568915 -0.00477926573 0.0172322392 -0.0114887469 -0.0111001078 -0.00226535951 0.000754241133 0.0120952856 -0.0283644684 0.000833675091 -0.0173648726 0.00855767168 -0.0194815788 -0.0149470773 -0.015575286 -0.00539487088 -0.0254395604 -0.0278127398 0.00730794156 -0.0239609089 -0.0359250344 0.0673103258 0.0366773009 0.0646652654 0.017963279 0.056045346 0.0489628017 0.029293092 0.0233868305 0.0496838391 0.0188476536 0.00243462087 0.0573348776 0.0659882575 0.0545093194 0.00910168793 0.0377849489 0.0419892147 0.0709146932 0.0143173905 0.0422008634 0.036060974 0.0620888248 0.00630905759 0.0558620021 0.058470346 0.0699742287 0.0632400066 0.0196318347 0.0229959171 0.022109611 0.0472268537 0.0380333215 0.0105112167 0.00300511369 0.0348379835 0.00311716017 0.0299468208 0.0359130502 0.037828736 0.00454045739 0.0551087633 0.0456462651 0.0440789908 0.0333862007 -0.0204919819 -0.00656235497 -0.00212490233 0.025826389 -0.0310051441 -0.0258077513 -0.00651018182 0.0128363343 0.0600427687 0.0360344723 -0.0016985432 0.0130189154 0.0211814698 -0.00330269453 -0.00206057355 -0.0297208354 -0.00130290689 0.00314715551 0.00502707809 -0.051694721 0.00994840357 0.0123892082 0.0188537445 0.021157857 0.0110708792 -0.0430008844 -0.0320699662 -0.00703838933 0.0165173206 -0.00987225771 0.0260048267 -0.00539625715 0.0218123216 0.000730470871 -0.0419445373 0.00435597776 -0.0170150809 -0.0104749538 -0.0275704507 0.0261433516 -0.0164917558 -0.0322426222 -0.00836185645 0.036983557 -0.0169815421 0.0238861628 -0.0204594582 0.00246101432 -0.0321226977 -0.0213977732 -0.0505358428 -0.0529091507 -0.0190986674 -0.0711246729 -0.0617996827 -0.0245659854 -0.0374797061 -0.0698429346 -0.08665438 -0.0711952001 -0.0398124568 -0.0192029271 -0.019366568 -0.0729188919 -0.0782888085 -0.0322087854 -0.057957802 -0.0291685779 -0.0820689052 -0.0418849513 -0.0647515506 -0.0592353083 -0.0740813613 -0.0900514275 -0.077770561 -0.0565862283 -0.0837369412 -0.0623795837 -0.0650072694 -0.051810775 -0.0239633899 -0.0577262118 -0.0514395796 -0.0898748785 -0.0486905873 -0.0867320448 -0.0451331064 -0.0822824985 -0.0876232982 -0.0709806979 -0.0291598383 -0.0366095155 -0.0223518331 -0.0554140657 -0.0688341558 -0.0463957116 0.00716111483 -0.0184718668 0.0124088889 -0.0319538191 0.0227044318 -0.0161377173 0.0016739741 -0.0135891326 -0.0137919011 -0.0237786658 0.0108205024 0.00808201917 -0.0421536639 0.0201655254 -0.00180707895 0.00634727487 -0.033959832 -0.0299314503 0.00051106466 -0.0132815363 0.0180991273 -0.00313542644 -0.00167849625 -0.0130139086 -0.00196425337 0.00766752055 -0.0212768055 0.0213300455 -0.0289475508 -0.00662144274 -0.00707814982 -0.00995300896 0.00327624404 -0.0214367155 0.0162195098 -0.00484719221 -0.00486079417 -0.0365573093 -0.000780343835 -0.00208681682 -0.034324225 -0.00750282966 -0.0289849769 0.0413930416 -0.0327096991 -0.0154907973 0.0657017007 -0.0203508753 0.0537406206 -0.0209474098 -0.0119503308 0.0165287592 -0.00605041813 -0.015335083 0.0418131426 -0.0192331821 0.00920205377 -0.007687442 0.0145070329 -0.0146047529 0.0305522326 0.0339953378 -0.017840188 0.0201343782 0.013115162 0.0426228642 -0.0193336084 -0.0145637747 0.000274461403 -0.018437352 -0.00407091156 -0.0118762869 0.0121347271 0.0213036202 0.00288268691 0.0220126621 0.03106457 -0.023435805 -0.00986528955 0.0433268026 0.0321818367 -0.0259267949 0.0292920284 -0.0250398554 0.03392414 0.0284041502 0.0156651177 -0.0250498056 -0.0138524994 0.0437144414 -0.0174725521 -0.0237910151 -0.0237054117 0.00734385476 0.0257353932 -0.0125256144 0.0400602482 0.0328446589 0.0123361647 0.00269309292 -0.0246068463 0.0070691146 -0.00420837244 0.0563439094 0.0284738503 -0.00940942485 0.017240556 -0.00620056037 -0.00753635867 -0.0372801051 0.0158710219 0.00849762652 -0.00534868427 0.0251102429 -0.0137658911 -0.0185196139 0.0148828784 0.00864822417 -0.00705365231 0.0124990577 -0.0199931655 0.0184491444 0.00944807753 -0.0104770372 0.021581525 0.0163466502 0.000816281943 0.00138036232 0.0129062971 0.00166004361 0.000826435455 0.0158204883 0.000928578258 0.0111493599 -0.00381034589 0.0381635241 -0.00717449933 0.050229121 -0.010408273 0.033758007 -0.0247094501 -0.00759315724 -0.0475341976 -0.025366297 0.0198028572 -0.00849166885 -0.0191015527 -0.00277549285 -0.0204402339 -0.0209806841 0.000146853679 -0.036072854 0.0151611408 -0.0134350425 -0.0306625627 -0.0039647636 -0.00711297756 -0.0230834763 0.012085692 -0.0533755608 0.0175017323 -0.0473036505 -0.0124705499 -0.0272548739 -0.0215042774 -0.02083092 0.00764048519 -0.0343988575 0.00487158401 -0.0162681732 -0.0138372956 -0.0121042086 -0.00878181029 -0.0138135897 -0.0523219816 -0.047001671 0.00631030137 0.00339075876 -0.00718519231 -0.0151692489 -0.0303643625 0.0113086598 0.0138267046 0.00310201244 -0.0375815742 -0.00379064493 -0.0145320976 -0.0059666005 0.00541795744 0.0158334449 -0.00913473312 0.00349632744 -0.00724868337 -0.0435282066 0.0172921382 0.0196795259 0.0426208414 0.032597661 0.00591782853 0.0263265334 0.0106393034 0.0100160753 0.0105821826 -0.0237002056 -0.0139018614 -0.0191551168 -0.0119702742 0.0255159885 0.00895092357 0.0132358391 -0.0161770824 0.00775977504 -0.0246854555 0.0124504315 0.00198594038 -0.0340400375 -0.0245819837 -0.015303663 0.0378030911 -0.014387724 -0.0246587358 0.00393069163 0.01173025 -0.0125768632 0.00949278381 -0.0420107841 0.0122793689 0.00511158025 -0.00124994502 -0.0340471938 -0.00454300363 -0.0231823754 0.000591054035 0.0148803107 0.00415145187 -0.00380158401 -0.0371529609 -0.0238466859 -0.0301166698 -0.00935002882 0.0264557321 0.0114266882 0.0283401143 -0.0177639294 0.0164611656 -0.0363619216 0.00500465091 -0.0335453264 -0.0469889604 -0.0177322831 -0.00731054787 0.0113938488 -0.0401010253 -0.0168547574 -0.0138201956 -0.0370172523 0.0122277942 -0.0422417484 -0.0507559218 -0.0195526648 -0.00914267078 -0.0471022986 0.0186865013 0.00638926309 -0.0327480026 -0.0352216177 -0.0190570857 0.0148747452 -0.0229153056 0.00192843832 -0.0351609401 -0.0170439687 0.0143786836 -0.00723503809 -0.00410606433 -0.031600479 -0.0166903082 0.016904233 -0.0252448637 -0.0267606247 0.0170593616 -0.0179213081 0.0160558093 -0.00879272819 -0.00158949837 -0.00534209795 0.0192086417 -0.0372987129 0.0193616487 -0.049121432 0.0366708227 0.0128982197 0.0169722345 0.00796277262 -0.0221763737 0.0212941524 0.00529987225 -0.00333333318 -0.00998682249 -0.00909667462 0.0249826647 0.0042150924 -0.00932444725 0.00157902006 -0.0264336523 0.023709381 0.0131987799 0.0174056776 0.00932457112 -0.00221496308 -0.00662036194 0.0130832829 -0.00367431948 0.000821957015 0.0233328026 0.000929946487 -0.0163503569 -0.0167839564 0.00273568952 0.0277198385 0.0284128897 -0.0103620281 0.0239745677 0.00965098757 -0.00677049672 -0.0119589716 0.0153444745 0.00860601664 0.00955998246 -0.00169299496 0.0279973745 0.0211386532 -0.0185333192 0.0147474529 0.0136594344 -0.0108121894 -0.0119101629 0.0281475931 -0.0566600263 -0.058181487 -0.0390231535 -0.0305279326 -0.0136551922 -0.00495158508 -0.0223172363 -0.01734096 0.0134099917 -0.01087246 0.00618107989 -0.031385202 -0.0418793298 -0.0317012221 -0.00485042762 0.007590672 0.00455730874 -0.0113979308 0.0213242602 -0.0356557854 -0.0298916753 -0.0208905991 0.0116934469 -0.0209374074 -0.00162770669 -0.0424184464 -0.0143140415 0.024355026 -0.0143983355 -0.0374547578 0.00721193105 -0.030876236 0.00213899207 -0.021161804 0.0265099388 -0.0231971946 -0.0118434271 -0.0107287252 0.00118294265 -0.0148617132 0.0208450947 0.00320006185 -0.000318669365 -0.0113736363 -0.00740215648 -0.00646086782 -0.00570542132 -0.0321611799 0.0108039724 0.00760239363 -0.00443152431 -0.0183998756 0.025170695 -0.00329706701 -0.00397824962 0.0155424122 0.0207163226 0.0209008679 0.0273857713 -0.00790820085 0.00538523449 -0.00420490885 0.0243023392 0.0139596686 -0.0175386108 0.00869921781 0.0139475847 -0.00919997692 -0.014297693 -0.00525193848 0.00168990763 0.00400878629 -0.00222926633 0.0040696566 -0.00184259971 0.0285271537 0.0155179314 -0.0440739989 0.0255282987 -0.0238084663 0.0130016822 -0.00261431257 0.0416887887 -0.00753933005 -0.00241003674 0.039960064 0.0337963328 -0.0361431018 0.01669522 -0.027352294 0.00371759851 0.00793469884 -0.0190433729 0.0154160056 0.0369855724 -0.00422941847 0.0469529293 0.0231942888 0.00080769608 -0.0378025398 -0.0410150103 -0.0143959718 -0.036455825 -0.00463978574 0.0192529522 -0.0438643582 -0.0119256424 -0.0107445503 -0.0190107003 0.00799058191 0.00014263601 -0.0169830546 -0.0306535363 -0.0157667622 -0.0271441862 0.0079237856 -0.0253550299 0.00970882829 0.0225491561 -0.0223117769 -0.00848438498 9.00404339e-05 -0.0472924449 -0.0367252566 0.012177757 0.00288939057 0.0228900984 0.00918421615 0.0188934132 -0.0262844414 -0.0319931395 -0.0352259129 -0.0421626866 -0.0215581916 -0.0394937955 0.00161985075 -0.041153919 -0.031468343 -0.0408975445 -0.0155979795 0.0201839171 -0.0146320211 -0.0283935349 0.0107021192 0.00488140201 -0.0205634106 0.0256215539 0.0257583242 -0.0300572831 0.00827317499 -0.00272066612 -0.00944564119 0.00601097988 -0.0175190587 -0.0166106652 -0.00613191631 -0.01264608 -0.0149319619 0.00245668902 0.00616687536 0.00387265882 0.0512652732 0.00923647918 0.00604864256 0.0198469125 -0.018842509 -0.0213265959 0.0122314589 0.0222292263 0.0376286507 0.0393631123 0.0374444723 0.014634042 0.0150677375 0.0127394805 -0.0139959995 -0.00796915311 0.0468524322 0.0343459509 -0.0101382844 0.010216671 0.0127395755 0.0407025963 0.0112217739 0.0150463078 0.00220182491 0.0183918737 -0.00868718047 -0.0121174557 0.00232125679 -0.044913061 0.0233872626 0.00979089551 0.0597356521 -0.00397074781 -0.0352286324 0.0160926972 -0.00230680243 0.0102657536 -0.0237590577 -0.00148290454 -0.00398030318 -0.0444118753 -0.00633321889 -0.00352580682 0.00343213673 -0.0252194721 0.0160995368 -0.00653259084 0.0169785786 -0.00559867639 0.0102376649 -0.0503527671 -0.02615753 -0.042255424 -0.0273062121 0.0139124664 -0.00431823265 0.00901139993 -0.047937125 -0.0178180765 -0.0409977213 -0.0411952436 -0.0336748809 -0.0239102449 -0.0532440096 -0.0542423278 0.0166959781 -0.038257204 -0.0528289825 -0.0416052938 -0.00989257265 -0.0198589917 -0.0137166074 -0.0363990217 -0.0218572188 -0.0177857447 0.0115676979 0.0186968036 -0.000340302417 -0.00713769021 0.0383094996 -0.0573473684 0.0218820069 -0.0111907069 0.000274805614 -0.0033568847 -0.0321418978 0.00698670791 0.0110375732 0.00221076445 0.0335118212 0.00761799188 0.0426630341 0.0197896957 -0.00933437329 -0.0171514433 -0.00223159045 0.0185067803 0.0101945419 -0.0160253849 0.0210948847 0.0350131691 -0.0119591998 -0.01775828 0.013589601 0.0201462358 -0.0163748898 0.0376219712 -0.0313208178 -0.00848610699 -0.00349892024 0.0198832434 0.0100826686 -0.0295913164 -0.0234864224 -0.0298420843 -0.0112751136 0.0326350182 0.00469330652 0.0103863776 -0.0182890389 0.010553916 0.00998002384 -0.00349649275 0.00647804886 0.00820095558 -0.0405687578 0.0268624779 0.0109817004 0.0070881974 -0.018338453 0.00570866186 0.00859118067 0.00638821535 -0.0167471804 0.0157153476 0.0260616466 0.00803937018 0.025185287 -0.0244024768 0.0112782735 0.00220015855 -0.0213113129 -0.0171984881 0.0287804417 -0.00541111454 -0.0400526673 0.022838667 -0.012371989 -0.0414530858 -0.0400790498 0.0108657666 0.0267817155 0.0153140482 -0.0414123684 0.0120971724 0.0028923417 -0.0297458544 -0.00377191766 -0.0394314229 -0.0129225198 0.0117735732 0.0200942159 -0.0256489031 0.0289849527 -0.0401804894 0.00450864527 0.00850789435 -0.00997327082 -0.0167297907 0.007166964 0.0261829384 -0.0345561653 -0.0260611139 0.0245832969 -0.0463450029 0.00486662658 0.0201148447 -0.0109910332 -0.00804113504 -0.00305833621 0.00443299115 -0.00251720287 -0.0125062 0.0355768315 0.0114827296 0.0310459211 -0.0109489961 0.0310523566 0.0295643527 -0.0110930903 -0.00427352684 0.0214079525 0.0107033914 -0.0203796383 -0.0207608137 -0.0381587334 0.0256168023 0.0110668605 0.00551573001 0.0247917138 0.0279899351 -0.00592626585 0.00907176174 0.0293517057 -0.00357455364 0.0344188772 0.0309078563 0.0116930306 0.00247653294 0.00185363786 0.0166012272 0.000349133479 -0.0147247873 0.0413878076 0.0490347743 0.046551425 -0.041304756 0.0210559722 0.0283091459 -0.0456923209 0.0458667763 -0.0271013882 0.0300888307 -0.0655230731 0.004023307 -0.0172671638 0.0097041456 0.0224492736 0.00684908079 0.0145121058 -0.01995188 0.00990377646 -0.0155502371 0.0082610352 -0.0221463256 0.0300667956 0.0197219439 -0.0230828486 0.0196565092 0.0240838379 0.0296131335 0.0134873269 -0.00653104251 -0.0264147446 0.0247612 0.0165078603 -0.00337948371 0.0212880187 0.0317063518 -0.0331292003 -0.00941493642 0.00813259929 0.0175366215 0.00564526347 -0.0236920156 0.0056537292 -0.0365964398 -0.0142478114 -0.0146986088 -0.0319023505 0.0194069259 0.00201466819 0.0128688449 0.031759873 0.0260316841 0.0223563835 -0.0164957158 0.0321159139 -0.00687099947 0.00245076604 -0.0120943207 0.0251807086 -0.0219558477 -0.00399080617 0.00299819838 0.0132524734 0.0371821597 0.0282093827 -0.00966814719 -0.00734800007 0.0273385718 -0.0342958011 -0.00324431621 0.0283352174 0.0108845513 0.031636171 -0.00274985493 -0.000296100159 0.0123186 0.0340274498 -0.0150315538 0.0330529958 0.00325136073 0.0137489252 -0.00037249134 -0.0197866727 0.0260036588 0.00722377934 0.000462692464 0.00778598757 0.0392468199 -0.000786351215 -0.00731505174 0.0309752487 0.0059774965 0.0110012367 0.0135759553 0.00375687215 0.00524297124 0.0277150515 -0.00568267889 0.00198395946 0.0239843037 0.0180277973 -0.00374582293 0.016751783 0.0189644285 0.00853207801 -0.0272173584 -0.00561520318 -0.0456309505 -0.0350115038 -0.0311358329 -0.0429260544 -0.0343635343 -0.0141971046 0.0239834897 -0.0393798091 -0.0262935273 -0.0107018435 0.0150121367 -0.00751948683 -0.0392291211 0.00821790937 -0.0378546007 0.0246736966 -0.00494240364 -0.0413039066 0.000441577373 -0.0355025716 -0.0250281151 -0.0437309779 -0.0421341769 -0.00639091386 0.0129317911 -0.000481100258 0.00540498132 -0.00799571816 0.0243795551 -0.024594862 0.0196003094 -0.0344301648 0.0239073969 -0.0373949446 -0.0373799093 -0.0409389101 0.00197229302 0.0103219813 0.012216826 -0.0458707921 -0.00404152507 -0.0453604199 -0.0326120965 -0.00956271309 -0.00765839219 0.0437255837 -0.0155618461 0.0413461849 -0.0337997563 -0.0203595441 -0.0121902162 0.0144567173 -0.00548800407 -0.0277675465 -0.0122422865 -0.0117061315 -0.00603422057 -0.00509690726 -0.0101047819 0.0136726256 0.00883827452 0.0111896573 -0.0208431836 0.0154321902 0.00627873745 0.0220185239 0.0375798233 0.0101167653 0.00728854025 0.0229403563 0.00317965611 -0.0139089627 0.0377349332 -0.00117550802 0.0388277397 -0.0309035759 0.05274738 -0.0224183761 -0.0300175603 -0.0129007529 0.0378180519 0.0345660672 0.0388107114 -0.0148239462 -0.00469173305 0.0432924181 0.00220426475 -0.0112782642 0.0155733731 -0.0340451226 -0.017108148 -0.0265730806 0.0456656441 0.00860028807 0.0549047291 0.0610201433 -0.0177054182 0.00875785016 0.0194983669 0.00350536639 -0.0255376063 0.00752006378 -0.00540127512 0.00850202702 0.000522254093 -0.0098173786 -0.0302537493 0.0203766897 0.0345983356 0.0293543041 0.00701613259 0.00160936173 0.000327546848 -0.0276154615 -0.0336635709 -0.0142253153 0.0140281692 -0.0143264495 0.0256846696 -0.0336298794 -0.0221694857 -0.0253223032 0.0190128461 -0.0326623917 -0.0241390988 -0.0299976319 0.0236922987 -0.000512787723 -0.023408033 0.033145912 0.0113133956 -0.0182560496 0.00541188195 0.00586361252 -0.00955425948 -0.0132246409 -0.0142405815 -0.00468977727 -0.0257597156 0.0303353816 0.012301893 0.00425027171 -0.00645137252 0.00617502723 -0.0206477623 0.0292945765 -0.0094823055 0.0475779139 0.0220274832 -0.0314117335 -0.0174683724 -0.0601071976 -0.0241400544 -0.0101779653 0.0277893264 0.0155727668 -0.00519962143 -0.0027983177 -0.0358158834 -0.00926574878 0.0255640559 0.00826828741 -0.0243314076 0.0237342231 0.0711947083 -0.0254551191 0.0250898805 -0.0487050004 0.0130059896 0.0304480214 0.0320459865 -0.013695797 -0.0528021157 0.0106376195 -0.0278425533 0.0152787026 -0.02245274 0.000164044104 0.0262399595 -0.0219498593 -0.00658689626 -0.012296252 0.00170521997 0.0272326507 -0.0120181823 -0.0151718697 0.0127762873 0.0625787452 -0.000542278634 -0.0561964102 0.0352156088 0.060520459 -0.0159796458 0.0193819534 -0.0390083045 0.0172717851 -0.0232414808 0.0208022203 0.0201508459 -0.0103804227 -0.00589285837 0.0149499979 0.00763154728 -0.00816545449 -0.0230804998 0.0119518451 -0.00640742248 0.00239586877 0.0108510349 0.00240540598 -0.0180660766 0.0233347695 0.00226372248 -0.0195408557 -0.00956532545 0.00402190024 0.00159305218 0.023422407 -0.00889522582 0.00767963892 -0.0330153406 -0.000679680903 0.0220585968 0.0256483834 0.00223861309 -0.00695959991 -0.0198415164 0.0181517396 0.0171918068 -0.0186767671 -0.040632613 0.0126300324 0.00266191084 -0.0161825363 -0.00162346289 -0.0164968837 -0.0204214454 -0.0331383049 0.023086505 -0.0183320157 -0.00172160263 0.0127124488 -0.0197329912 -0.0173629913 0.0201642457 0.00798631739 0.00920647569 -0.00450927438 -0.00176815188 -0.00971153006 0.0140728103 0.010239278 0.0136386249 0.00468957657 0.0130893458 -0.00282617961 -0.026037205 -0.00793064944 0.00968155358 -0.00997890625 0.00314523699 0.0272961594 0.000535654894 0.0176720303 0.0127906892 -0.0189083386 -0.0183241162 0.0100055933 0.0137425112 -0.00278626103 0.0109933149 -0.0139892884 0.00554446038 0.0177993681 0.00801471435 0.00918816589 0.011130414 0.00274572894 0.0522842184 -0.0220516007 -0.0177747961 0.00482653407 -0.00796976965 -0.0155585203 0.00639432529 0.0187952369 -1.77867041e-05 0.0488425829 -0.00539513491 -0.0259435028 -0.0234372541 0.0275084712 -0.0251575038 -0.00107744709 0.00680319872 -0.0111328168 0.0108226044 0.00143795274 -0.0103772329 0.0114307394 -0.0100116218 0.000642712461 0.0302469246 0.00992250163 0.0368613973 0.0325460061 0.01105016 0.0256158039 0.0140474653 -0.0166588575 -0.013246973 0.00919947866 0.0285936743 0.0182822831 -0.0250440687 0.00561578292 0.0382485092 0.0272828303 0.0348826423 -0.00112217478 0.0429198369 -0.00510501955 0.0390811563 -0.00900110137 0.0256743878 0.0188273452 0.0372238159 0.0176960193 0.0222429596 0.0130364923 -0.015723031 -0.0227502882 -0.0013006893 0.024474429 0.0115743941 -0.00897578802 -0.00388313411 -0.0466706157 0.0123605337 0.0141896587 -0.0112015465 -0.00674338872 -0.0509743057 -0.0410045497 0.0266626719 0.0279790126 -0.0237297658 -0.0392044336 -0.00906002335 0.00570054911 0.0233142283 0.0174582805 -0.000636954734 0.00828569103 -0.00838831719 0.0120062735 -0.00564844208 0.0214874521 0.0111207096 0.00949167274 0.00932595786 -0.0293566845 0.0126143973 0.0101556731 0.00399249513 0.0228413027 0.00145140267 0.00334024034 0.0208430365 -0.035482157 -0.0100783762 0.00480675185 0.0355394483 0.00188200269 0.00238505658 -0.0431658141 0.0356117748 0.0258217882 -0.0229457933 0.0487645864 -0.0556616299 0.0113557568 0.0266081765 0.0210379045 -0.0157540403 -0.0309053864 -0.0383660644 -0.0371082351 -0.00472175749 -0.0174757559 -0.0124973999 -0.0365017876 -0.0226738062 0.0154211642 -0.00970594119 0.0104143238 -0.00274105812 0.0328381285 -0.00485882862 0.0290377419 0.00279184827 -0.0132852448 -0.00615881151 0.0222234074 0.0155361006 0.0154090421 0.0215436388 -0.0376345143 0.0272028018 -0.0196712557 0.0171961989 -0.00424659858 0.0218526069 0.0248527545 -0.0116725182 -0.0160306599 -0.011325418 0.00770534528 0.0295286532 0.023937108 -0.0334817916 -0.0214505028 -0.0156488977 0.0297933389 -0.0207146425 -0.00188720529 0.0215858649 0.0235254373 0.0236330125 0.0224872865 0.017759569 -0.00308366097 0.0222354196 -0.00851424318 0.0294205137 -0.00279777031 -0.00975977443 -0.0106357345 0.00952718407 0.0048520281 -0.0315069072 0.0347866155 0.0115287993 0.00996630639 0.0163411666 -0.00111995183 -0.0139620835 0.00850383099 -0.0111129945 0.0284400769 -0.00445625605 0.00661821431 -0.0468789674 0.0221941322 -0.00777192414 -0.0248597618 0.00694764219 -0.00478369975 0.0121756615 -0.0203162525 -0.020849226 0.00591501826 -0.0196869131 -0.0303861834 0.00103638915 -0.00407863874 0.0199607573 0.0577752665 -0.0557812639 -0.0284124389 -0.00405816035 -0.0234426837 0.0292315446 0.00911745895 0.0109325778 -0.00452296482 -0.0134555502 0.0693982989 0.0197374988 0.0427646711 0.0238459855 -0.0188601613 -0.00343163963 0.00511335535 0.0269527584 -0.0134870484 0.0119978376 -0.0363462754 0.0047573722 0.0228454173 -0.00317576062 0.0319880322 0.0336412862 -0.0192150027 0.00198270287 -0.0369784124 0.000924891501 -0.0089254491 0.0276990496 0.011972148 0.0199680254 -0.0201925114 -0.0129373483 -0.00759905623 0.0179428086 0.0110776033 -0.0375395119 0.0185766518 0.0235250965 -0.0273346379 -0.0329980291 0.0214234293 -0.0166204348 0.0147247277 -0.0144985244 0.0208005682 0.0224042535 -0.0106467381 0.0270188414 -0.0159280449 0.00110776222 -0.00707198726 -0.0119559225 -0.0138137974 -0.0059639588 0.00575445266 0.0174471345 -0.00525569357 -0.00322108786 0.0319069512 0.0121155968 -0.00765345618 0.0176502001 -0.0180005152 0.00182305276 0.0256207064 0.00202760799 0.0405694768 -0.00105308124 -0.0143005596 0.0226335619 0.0191512592 -0.0166858118 -0.00969455764 -0.00776069472 0.0221580602 -0.00471344683 0.00375517411 -0.00169315585 -0.00167691079 -0.00987001788 0.0175824743 0.00858846493 0.012848191 0.02080011 -0.0225796439 0.0127382874 -0.00760355685 0.0327622369 0.00308687799 0.00693247933 0.00937889609 0.00923133921 0.013035913 0.016332062 -0.014106838 -0.00997672416 0.0227435175 0.00492798025 0.0174556356 -0.0143155716 0.0113242734 -0.0125927469 -0.0228079911 -0.000611046213 5.39312605e-05 -0.00879372377 0.00190758856 0.034368746 -0.00824113097 -0.0106614577 0.0164367091 -0.0157978814 -0.0221439507 -0.00762342336 0.0267527681 -0.0167087819 -0.0095519321 0.0296324547 -0.0168870706 0.00665792031 0.0445425361 0.0359876901 -0.003657158 0.0156200789 0.00720876874 0.02903709 0.0410162732 -0.00788666587 0.0154564278 0.0328384489 0.0139433322 0.020321751 0.0228670668 0.0400050581 -0.0256635305 -0.0247998554 -0.0256332587 -0.0124485241 -0.0205144044 0.0400138646 0.0166172031 -0.0256128479 0.0236322191 0.04048796 -0.013759193 0.0336784013 -0.000753253698 0.034049958 -0.0208601411 0.0204554591 0.0202497002 -0.0258728974 0.0169292856 0.0415953994 0.00954773463 -0.00170573324 0.000853382924 -0.0529492125 0.0229224209 0.0124510666 0.0168404784 -0.0130473869 0.0076244045 0.00479279924 -0.00264707371 0.020557737 0.011510768 -0.00763423974 0.0249748528 -0.0290833302 -0.000873363519 -0.00217508827 -0.0170615688 -0.0279150084 -0.0243371986 0.0381405167 0.00929705333 -0.00591373025 0.0285354368 -0.00907170866 -0.0116085345 0.0013823004 0.0358106196 0.0331574641 -0.0345534794 -0.0448571034 -0.00190659799 0.00876943208 -0.00941620488 -0.0490762144 0.0148484195 -0.013775399 -0.0218102168 0.0199189819 -0.00411007553 -0.00174455519 0.0161631089 0.0210932065 0.0279646944 0.00350077474 -0.0900908187 0.0142034739 0.0148114469 -0.0469208732 -0.0186870228 0.017705055 0.0140543096 -0.0344296098 -0.006088241 -0.0099443011 -0.0322939232 -0.0479783192 -0.0344550833 0.00396902766 -0.00468374789 -0.0306635331 -0.0459609777 0.0117221158 -0.0469407812 0.00878128223 -0.007862648 0.00430109818 0.0112880152 -0.0191862416 -0.0195896197 0.00170290435 0.00294957636 -0.0405761227 -0.0417827219 0.0181147922 -0.036101982 0.0136624444 0.0091497954 0.0145221055 0.00564032421 -0.00722787715 0.0104463529 -0.0281433929 -0.0138270631 -0.00232149893 0.0119361375 -0.049266465 -0.00345578836 -0.0185028035 -0.00458912179 -0.007161655 -0.011634727 0.000998395728 0.00245096767 -0.0373603217 0.0114764813 -0.0114984876 0.0315072462 -0.0281716418 0.00696577737 0.0188445412 -0.00102313864 0.0505810231 -0.019759303 -0.0163728837 -0.00064634817 0.0309721492 0.0207134802 -0.00101601984 0.00098314404 -0.00786811206 0.00570559548 -0.0203798786 0.0269036386 0.0161846653 0.00590419304 0.0169362929 0.00649341103 -0.0202177484 0.00838299189 -0.0127865579 0.0347409658 0.0253916141 0.00251789461 -0.0149001973 -0.0118460264 -0.000766137964 0.00703119067 -0.0021904076 -0.0191998668 0.0258209091 -0.00662803324 0.0381917283 -0.0517619662 -0.0167731196 -0.000183820724 -0.00453794003 -0.0121286502 -0.0187740773 0.0228993315 0.0128165428 -0.0366608538 0.0149744637 0.00290211989 0.00541608827 0.00625965977 -0.00918285921 -0.00903370976 -0.0301558599 0.00640349882 0.0310017187 -0.0218778402 -0.0307438858 0.000539492874 -0.0136193186 -0.0223934837 0.0124366153 -0.0296540372 -0.0180282369 -0.0327681936 0.0330680981 0.00912936963 0.0353114158 -0.0225956813 -0.00314143253 0.023044575 0.0391131751 0.0377641432 0.0273460858 -0.0293430351 -0.00385600375 0.011883039 0.0375305042 -0.0136836655 -0.00526006101 -0.0203220807 0.0310279783 0.0248043053 -0.0265784673 0.0260868557 -0.000104680003 0.0223677009 0.00742788007 -0.0275502168 -0.000626926136 0.0352789164
rn_enc_fc_b 6 0.00287269987 0.00881237257 0.0146897445 0.0760892853 0.00545190927 -0.022337148
rn_dec_fc_w 4608 0.0788795352 0.491543531 0.0134252403 -0.140364975 0.315869004 -0.232576981 -0.150496751 0.202623993 -0.31620121 0.0849902555 0.304011613 0.187914863 -0.295927882 0.426241994 -0.310864121 0.43676728 0.218244925 -0.250982612 -0.0670007244 -0.0326058045 0.128938928 0.428279907 0.0972974747 0.197565347 -0.337239712 -0.0749310777 -0.0550415516 -0.249043018 -0.0259120986 -0.162238106 -0.241487905 0.158673614 -0.336162448 -0.211575836 0.387689829 0.00967835262 0.33306244 0.140812904 -0.475747168 -0.295535028 -0.168907598 -0.319311678 -0.189787835 -0.214698389 0.262212306 -0.170496166 0.103954248 0.234110147 0.101405248 -0.0103716347 0.116447099 -0.457777172 -0.347399861 -5.22056798e-05 -0.0881226137 -0.283769727 -0.0357495658 -0.0593378507 0.333360791 -0.315077245 -0.344149232 0.275562882 -0.165072203 0.136362568 -0.403066546 0.267524689 0.350522131 0.224944085 -0.123228833 0.305386722 0.0586643629 -0.0992801338 -0.0542197973 0.236987516 0.0792811438 0.165270776 0.231001571 0.238444284 -0.458542466 -0.029382484 -0.20509997 -0.273828238 -0.0888336152 -0.320982367 0.136471167 -0.136788532 -0.00642111339 0.160218269 -0.348496914 -0.314041942 -0.514206767 -0.147062317 0.0999421775 -0.156147584 -0.130676717 -0.00536525063 -0.0702398345 0.150200546 -0.348349392 -0.228855073 -0.370880276 0.217457429 -0.302863747 -0.636439502 0.200100049 0.00275606895 0.411308438 -0.384139121 -0.354481488 -0.158287734 -0.302559912 -0.232566863 0.0149807651 0.229862243 0.000300549436 0.210639104 -0.152730778 -0.502475023 0.444717944 -0.000113686896 -0.0189906023 0.468473196 0.203637123 -0.451897085 0.320753485 0.103302032 0.430844635 -0.478317976 -0.30112952 0.403728724 -0.319007337 0.0250317287 0.0255882386 0.241942912 -0.00443796115 0.182060704 0.293062747 0.0222873576 0.263949305 0.223556623 -0.277906001 -0.252898484 0.257639974 0.122698262 0.124323063 0.42809394 -0.255952448 -0.0809818581 0.197181895 0.0582040176 0.0392175242 -0.357000947 0.08846654 -0.141098112 -0.131239668 0.0352403149 -0.0358247124 -0.138206795 -0.15470396 -0.247459799 -0.197696537 0.241116211 -0.133238971 -0.28033039 0.235698789 -0.33329159 0.375946641 -0.100376688 0.0385318547 0.151203811 -0.120267011 -0.0329070576 -0.0220685806 -0.322471499 0.169940427 0.091426 -0.448025942 0.201286972 -0.0344395489 0.195933208 0.342469901 -0.224934697 0.380412132 -0.25324133 -0.0977385789 -0.191176087 -0.360230029 -0.0145112984 0.0820343494 -0.22020027 -0.0993321091 0.15190275 -0.246782497 -0.232808456 -0.149830654 0.248381123 0.398914814 -0.276418179 0.362714022 0.116850376 -0.165478423 -0.208706856 -0.12286552 0.107355148 0.37039271 -0.194707915 0.151114717 -0.241128981 -0.176361218 -0.353098124 -0.33772859 0.208252177 0.0349662453 -0.200242952 0.331740379 0.0729009509 -0.101649076 0.167687953 0.221729904 0.220559731 0.276785016 -0.191904783 -0.0845502168 -0.223266065 -0.127364472 0.0900989994 -0.113100983 -0.13351424 -0.176440865 -0.0957960635 -0.19829534 -0.203192458 -0.181470275 -0.108386986 0.547691822 0.233217269 0.387376636 0.420026839 0.270467043 -0.0162366331 -0.053854309 0.305843621 -0.245863333 0.161625117 -0.0653049797 0.0703388229 -0.338803142 -0.107867733 0.0627037063 -0.102909982 -0.16726236 -0.0969777182 0.0755375102 0.228437528 -0.0262630302 -0.0833340064 -0.373132974 0.413950652 0.31887424 0.220948726 -0.11684259 -0.469586492 -0.102623701 -0.14164269 0.185098246 0.176846758 0.0582453571 0.16503562 -0.00782036688 0.328261435 0.434003264 -0.204002485 -0.370140344 0.0260911062 0.0977954343 0.414855033 -0.210730568 0.191600516 0.371604413 0.200192407 0.273915708 0.308912694 0.112032659 -0.292935014 0.516683698 -0.111265518 -0.256567627 -0.00765465759 0.212875456 0.281781465 0.403165042 0.20873943 -0.117427491 0.0421724655 -0.046767965 0.0789592192 -0.181762084 -0.308426887 0.313286245 0.109611511 0.331988513 -0.196253717 -0.21941033 0.25513792 -0.219185859 0.292530388 0.232606739 0.376313388 -0.0639383048 0.191552952 -0.335763365 -0.104386173 0.033576671 -0.0573396459 -0.0178096574 0.0398984589 0.0390373878 0.0436974466 -0.117225774 -0.133616373 -0.0168939363 -0.25076732 -0.246598452 -0.0610232204 0.283553481 -0.281662792 0.350064754 0.234937742 -0.286224246 -0.000949226669 -0.229603782 0.0690394044 0.153278872 0.271357864 0.0218192004 -0.165615752 -0.0563877933 0.286219954 0.123801671 -0.231200203 0.188322797 0.394042164 0.0411066189 0.0981815606 -0.282778084 0.358060956 0.321415216 -0.0264591295 0.228621811 -0.194253296 -0.162433162 0.166854843 -0.0971379131 -0.28865698 0.0102340868 0.264726877 -0.130843312 -0.201372415 0.328723639 0.138492674 -0.0688362345 -0.108937182 0.161124319 0.225748211 -0.0494492799 -0.34072274 0.0744087994 -0.16335234 -0.244501427 0.193416506 0.165985078 0.122968979 -0.0121676 -0.150680482 0.219192103 0.0312915705 0.167169333 0.0560718328 -0.171532199 -0.00356725161 -0.305122882 -0.263243109 0.472244054 0.413085759 0.126770332 -0.263623655 -0.305555224 0.0924367681 0.198700488 -0.247297004 -0.192212448 -0.216431648 0.0469619147 -0.140981719 -0.307771623 -0.164316207 0.0349664167 0.110570163 0.224585712 0.0110387513 -0.250097722 -0.249327943 0.228817746 -0.214367047 -0.108225614 -0.0343808457 0.108687185 -0.0236697439 -0.0961672887 -0.357904762 -0.287780732 0.262269676 -0.243139565 0.355277866 -0.340486348 -0.0947919786 -0.23480545 -0.26435402 0.190682158 0.207941458 0.135109112 -0.029721221 -0.328486115 -0.350179642 0.0954561979 -0.136189729 -0.274612695 0.0689417198 0.0640070736 -0.250398636 0.0340968482 -0.159553081 -0.141594395 0.331441671 0.427710146 0.127396539 -0.231536224 -0.208266094 -0.184276089 -0.196179941 0.31561169 0.0719221309 -0.0473354496 0.0810843632 0.0453113243 0.171318367 -0.000828148099 -0.167762563 0.3050538 0.105756275 0.227515206 0.159732118 -0.20150356 -0.269863576 0.305749834 -0.00206522481 0.119827837 0.0216395352 -0.451743692 0.144168064 0.0140876286 0.0453593917 0.109326355 0.382774383 0.0130937565 -0.388506681 0.550715506 0.0837965384 -0.219518572 -0.342584074 -0.0759312212 0.122809969 0.110679179 -0.23001124 0.0775381252 0.275913626 -0.264723957 0.118782885 -0.315051526 -0.143316239 -0.206390351 0.299630105 0.362296253 -0.11051444 0.0197204985 -0.049223341 -0.288508475 0.336223841 0.131962463 -0.359601885 -0.0630422011 -0.051708024 0.218306988 0.125030816 -0.152455822 -0.277355582 -0.00497630611 -0.0437122509 -0.239146665 0.139500529 -0.346757591 -0.0973347202 0.284529328 -0.268289536 0.0110009639 -0.0932646841 0.12745744 -0.207074165 0.147928908 -0.179789469 -0.204311669 -0.182060108 0.0642158389 -0.14761579 0.189110249 0.0353092775 -0.242313713 -0.30369252 0.122736067 -0.206204951 -0.126889393 0.090053983 -0.210243821 -0.0628934503 0.121344037 0.274065495 -0.255079806 -0.204978645 0.17495577 0.054689344 0.258785039 0.07577198 0.0756975561 -0.181151301 0.314901084 -0.323437482 -0.043452058 0.277349889 -0.160105929 -0.172991067 0.0936107934 0.150395766 -0.265639037 -0.190712482 0.278808147 -0.0972115844 0.166097954 -0.328065038 0.150036484 -0.133382291 -0.281881988 0.188828409 -0.469980121 -0.339086235 0.0686415136 0.258975118 -0.066009827 0.32172361 0.324326187 0.248435348 -0.108938634 0.101871528 -0.116310187 -0.0436580218 -0.127726793 0.210875005 0.0250854604 0.366080284 -0.285910666 0.0279177725 -0.279841691 0.11340221 0.0630259737 -0.241229638 0.129329234 0.0813691169 -0.0841173753 -0.18484427 0.380141497 0.552905619 0.140839621 0.346069187 0.343009859 0.161682859 0.314366877 -0.24242337 0.0202256907 0.438664138 0.184477806 0.0339700766 -0.0934395269 -0.302764803 -0.0925826579 -0.0305729676 0.0604534522 0.101983823 0.135952979 0.411572963 -0.0974122211 0.526037693 -0.0218069348 0.390454501 0.327500015 0.0470327064 0.155839205 -0.393618375 0.405349612 0.107959464 -0.122980751 0.268241882 0.2095211 -0.268035889 -0.361208528 0.186917111 -0.24164471 0.00353851682 -0.187848985 -0.569565177 0.329360843 -0.462823927 -0.256922096 0.235880315 -0.0986693278 0.38244912 0.105382279 -0.461768746 0.27761066 0.337153405 -0.0975732952 -0.0686540455 0.374816239 0.307018578 0.268271923 0.16378358 -0.134619609 0.0626023412 0.282940716 -0.33667618 0.124204069 0.0410721488 0.251187027 0.10459508 0.404393226 0.0526463538 -0.303773612 -0.631711364 -0.232443646 -0.0508091971 -0.340781301 -0.114752546 0.240310326 -0.0416362658 -0.0265977364 -0.399809003 -0.301680028 -0.546769381 -0.441665977 0.00491179293 0.0900952667 0.23450458 0.246713966 0.0279838294 0.00417249324 -0.183746055 0.344647169 -0.171916917 0.0571798608 0.109622344 0.413599283 0.0891653001 0.0782670528 0.241884544 -0.253094524 0.100203343 0.0426718257 -0.0629380122 0.0393864959 0.0794279426 0.301638097 0.375968248 0.405830413 0.0718659982 0.00755148102 -0.468034714 0.046691712 -0.45588097 -0.26415953 -0.289583206 0.122731172 -0.237466291 0.284624666 -0.319242954 0.306622237 -0.169360951 0.191350833 0.0160942264 -0.201769352 0.295811892 0.249045789 -0.321537316 -0.0468286276 0.483895421 -0.179493457 -0.418946952 0.248966932 0.388337165 -0.255564749 -0.21680747 -0.0871791095 -0.217402875 0.304710239 -0.161036387 -0.124282785 -0.257313222 -0.357898027 -0.391213268 0.247028649 -0.0767459869 0.261539459 0.145789474 0.12642096 0.37785849 -0.218272209 -0.15010725 0.479839146 0.0617014654 -0.0606753193 -0.430141449 0.283349931 0.415012717 0.0595366508 -0.196431085 0.391220182 0.329848379 0.0975604728 -0.32805416 0.340137452 0.29468444 0.220171273 0.0452235006 0.14285399 0.145881042 -0.103953652 0.0414704457 -0.305543691 -0.0743134096 -0.223637864 -0.264342606 -0.0478843711 0.0975547433 0.535726786 0.195718795 0.0356370211 0.0699342787 0.465491742 -0.23390311 -0.0418666899 0.142642394 -0.0309043527 -0.366492033 -0.197808817 0.248265713 0.281186908 -0.340912372 0.272228479 0.128116742 0.127824098 -0.0987490714 0.0302703474 0.29079929 0.132336736 -0.317832798 -0.309388489 -0.113579452 -0.150247812 0.100846037 -0.0286938511 -0.0888180509 -0.207133472 -0.118782386 -0.387695521 -0.0118751079 0.29882434 -0.28160125 -0.115792364 0.00498614088 -0.0824499354 -0.0670483038 0.251007944 -0.061995402 0.0090599712 -0.129330665 -0.383762807 -0.368136793 -0.14326562 -0.362163335 0.196984142 -0.370548397 0.047073599 0.0183877293 -0.17550762 0.151613563 -0.385139078 -0.263438016 0.286219984 0.140127853 0.373795003 -0.0985653028 -0.160331503 0.0561363883 0.103304498 -0.10636317 0.19696492 0.0148568824 -0.163318619 0.234419987 -0.0853644013 -0.156592667 -0.171479017 0.138050929 0.231978253 0.310526937 -0.264374912 -0.312635452 -0.300879955 0.0438502245 -0.297072768 0.291219145 -0.0178824831 0.171409532 -0.0915570259 0.14163886 -0.497086257 0.140827969 0.0878302902 -0.0613462739 0.297352582 0.0125325872 0.117701173 0.269025117 -0.0799336508 -0.0297311842 -0.379710197 0.217828736 0.198789299 -0.233720511 -0.495895505 -0.22043106 -0.232698426 -0.0420267619 0.0482725911 -0.143285662 -0.219842672 0.273787588 -0.152160093 0.276029646 0.291264385 -0.389361173 -0.229093611 -0.339631408 0.142860785 0.0979909971 -0.292073011 -0.24197726 0.291761637 -0.136524633 0.211591318 0.356415808 0.144690692 -0.128857717 -0.278518707 -0.291795254 0.0335554555 0.211312965 0.321906775 -0.156549126 0.15709874 0.142080441 0.263417691 -0.292757481 0.273153126 -0.434450239 0.215399235 -0.0150319077 0.222133994 0.0329093821 -0.317551821 -0.198775947 0.209451571 -0.224121571 0.176575705 -0.241391361 0.200407267 0.0161275808 0.0961090177 0.0379990675 0.0760757625 -0.0174945686 0.187725231 0.270595193 -0.326233149 0.00244123978 0.0814564824 0.136742905 0.257811785 0.244869724 -0.334701866 -0.357858777 0.0303093065 0.0257993303 -0.15484716 0.197263867 0.171124995 0.127661213 0.23269324 0.261516631 -0.229984835 -0.0756173059 0.310858518 0.154722273 -0.417524368 0.181111276 0.244367763 -0.27278161 -0.298807859 -0.440399617 -0.255383849 -0.327729374 -0.0434621088 0.111717314 0.0161601491 -0.119320042 -0.222163975 -0.32318303 0.166978985 -0.197349712 0.126934946 0.301173389 -0.489616573 0.210978791 -0.0987766162 0.0659335405 -0.0689968914 -0.289983869 -0.0318137072 0.00265819463 -0.0763263479 -0.0272164028 0.0378795639 -0.154475704 -0.358354568 0.144348949 -0.00194742414 0.105466269 -0.100978144 0.0367758237 0.331083447 -0.0770310462 -0.0871164352 -0.0376069993 0.183093593 -0.312517464 0.0693159178 0.13980411 -0.27244091 -0.288204312 -0.0780548453 0.285507828 0.303192109 0.277138203 0.234679699 0.288887382 0.035015434 -0.33063513 -0.249660194 -0.22083959 -0.260347009 -0.282079756 -0.155377105 0.0628381968 -0.09104985 -0.0909285545 -0.316952139 0.317765176 -0.0231146831 -0.268392175 0.157329112 0.183507472 -0.0989050716 -0.0509250872 -0.250298887 -0.0234883074 -0.139936849 0.0443882793 -0.170749605 0.0503968969 0.0505180061 0.0352208354 0.152196392 0.0334536545 0.20389612 -0.203329697 -0.120371282 0.244639292 0.15964283 -0.242792487 -0.296294838 0.0360453241 0.282302231 0.281949103 0.00614100462 0.235167295 0.265671194 0.353156954 0.159355551 -0.323676705 0.0915454179 -0.0358260199 0.247553736 0.322945833 -0.0600661188 -0.0458409041 -0.249011427 -0.116866253 -0.10524416 -0.193570599 -0.0180265419 -0.0210736003 -0.015943598 -0.267628759 -0.289090306 -0.0471031256 -0.322991997 -0.00612198608 -0.105376653 0.256904215 0.0267442279 -0.0804934129 0.255663484 0.0097207427 -0.0937688872 0.225847885 -0.0827711448 0.0368847176 0.248044565 -0.144637436 -0.268974483 0.178233206 -0.114593424 0.192104116 0.333113849 0.157414824 0.256664127 0.427820981 0.144494772 -0.292957008 -0.144379213 -0.115611635 0.121835202 -0.414672554 0.339133769 0.143916354 0.320172787 0.175657332 -0.069711782 -0.247207746 -0.138789892 -0.0825203732 -0.0131872762 0.0763433725 0.101979189 -0.400766313 0.125124931 -0.167681932 -0.202750906 -0.318232208 0.191038445 -0.017485179 -0.296796411 -0.0551577285 0.288918108 -0.0470816009 -0.225245446 0.037027739 -0.269569993 0.0189997479 0.208400026 -0.265903473 0.205746546 0.188493952 -0.17928645 -0.0406383164 -0.111790903 -0.311619312 -0.198021501 -0.0991137847 0.0164522566 0.0460479595 0.105836593 -0.271333843 0.109085634 0.123010933 -0.203964636 -0.169184312 0.259028852 0.0269084163 0.334784597 0.00490644667 -0.174864829 -0.0736870095 -0.141041011 0.272737116 -0.33596468 -0.149015501 0.141679481 0.115656972 -0.126857728 -0.311354071 -0.000273277255 0.0511304811 -0.305154979 -0.146935254 -0.196714506 0.0807791725 0.202916235 -0.244102895 -0.114827104 -0.105288565 0.0633438304 0.19439885 0.0271090399 -0.0487156883 -0.151339233 0.168638736 0.372577578 -0.186641499 -0.266496509 0.245529786 -0.105407216 -0.21767059 -0.0219014529 -0.354783624 -0.279312372 0.0796698928 -0.0924653485 -0.109910816 -0.108330302 -0.399479985 0.179351315 -0.300959438 0.204780862 0.0502477065 -0.549346387 0.532644331 0.112848856 0.263497293 0.0344765298 0.414680034 0.604249239 0.158471078 -0.176706687 -0.356370062 -0.204546243 -0.385588557 0.0485847369 -0.445521802 -0.091857098 -0.0977079719 0.256236792 0.559671223 -0.374987304 0.0479649156 0.011058935 -0.27764976 -0.181548417 -0.523483932 0.345707923 0.215829641 0.159168184 -0.192691058 0.299968541 0.0618035123 -0.125074655 0.401990294 0.18064402 0.27449131 -0.445621699 -0.289062917 0.0407298617 -0.0506623387 0.50981468 0.306921244 0.0732383355 -0.00827638898 -0.0394516848 0.488644719 -0.326491416 0.147690117 0.170646816 -0.24140127 0.48150456 -0.471218437 -0.480325371 -0.142574787 -0.22320427 0.216778263 -0.085557282 -0.137550235 0.493623912 0.259101838 -0.254983246 -0.50935632 0.150898665 -0.415187299 -0.362767935 -0.331878483 0.366444439 -0.000847231073 -0.246307015 0.192467779 0.0195797179 0.257683337 0.323090613 0.283520073 -0.277143508 -0.0762064606 0.22228539 -0.156473368 -0.279759198 -0.0251775291 -0.388062686 0.341495335 -0.131549641 -0.00217167009 0.160180405 0.294706315 -0.309339792 -0.377693921 0.243668094 0.364624292 -0.205218509 -0.372744948 -0.368137151 0.422697216 0.0773573667 -0.270703256 -0.43289271 0.0409164019 0.0607052706 -0.387976378 0.0988936648 0.100141436 0.392118156 -0.0597890392 0.27942881 0.0328741297 0.093435131 -0.136429444 -0.253508061 -0.185535818 0.168713748 -0.261801749 0.100472942 -0.304639399 0.244093031 0.219217032 -0.115854152 -0.303686887 -0.290503055 -0.314419329 -0.120935321 -0.254374832 0.130944863 0.114869811 -0.187739864 -0.0404250287 0.138584077 -0.295399994 0.435761392 -0.407224923 0.0894585401 0.22574544 -0.183350801 0.0417174026 -0.186103508 0.116371356 -0.249073446 -0.243272707 -0.208023056 -0.371943772 0.234107554 -0.355995476 0.0227939021 0.317890048 -0.27072385 -0.164137676 -0.562757194 -0.00439059827 0.193146348 -0.311558455 -0.0334762149 -0.254446149 -0.140960574 0.0264383666 -0.389998347 -0.0879942924 -0.268020809 0.196144626 0.345027059 0.273614526 -0.275075763 0.164146006 -0.324677348 0.050480254 0.11787618 0.0828912631 -0.396407008 -0.0723492503 -0.0739726648 -0.517605126 0.199522451 0.386826783 0.0275858548 0.210052505 0.132311746 -0.162585914 -0.0426986031 0.0942780599 -0.144062519 -0.431096226 -0.19302249 -0.139321417 -0.0786852315 0.154963091 -0.0588159598 0.00463626347 -0.25261575 0.0399264023 0.0617699474 -0.26045844 -0.642740905 -0.19744733 0.159157827 -0.134757563 0.147228032 0.0987556949 -0.282400846 0.130221725 -0.448614329 0.243981406 0.0929069594 -0.344466358 0.218120143 0.111275382 0.142868951 -0.24084495 -0.206984103 0.349909931 -0.018138228 -0.314102203 -0.377769738 0.286157906 -0.141681552 0.0074888845 0.301769763 -0.16424647 0.26620087 0.0706660673 0.450212002 0.020655293 -0.242276251 0.379418254 -0.0867001414 0.456008404 -0.0188956968 -0.183630899 -0.0949167535 -0.29952696 0.348386824 0.0303429533 -0.153521642 0.0162496418 -0.249118418 -0.114846855 0.0708856359 0.15673092 0.152104005 -0.278401166 -0.329023242 0.223617196 0.232075676 0.330544353 0.0878070965 0.254697531 -0.131219074 -0.344005048 0.163151741 0.290948659 -0.0464428999 0.171322092 -0.236976311 -0.252139241 0.245783687 -0.0191323999 -0.226689115 -0.132477865 -0.259231299 0.240079448 0.0691098273 -0.217794135 -0.302177548 0.338842481 -0.531287491 0.463319838 0.420919925 0.0234242175 -0.282058895 0.208320692 -0.0664121658 -0.430902213 -0.21182169 -0.0788756981 0.147025436 -0.338340193 0.237526834 0.0316722244 0.042793192 -0.0224140026 0.10301055 -0.342519641 0.394854188 -0.141582757 0.0364052504 -0.285321295 -0.276070982 0.197112158 0.0732757375 0.0716635585 0.277403861 0.0417080782 -0.0378853902 -0.390739024 0.0389658064 0.367129058 0.229021817 -0.325067401 0.172351554 -0.210950822 -0.0568380654 -0.181418166 0.394152284 0.1696897 -0.346936136 -0.118246473 0.317234427 0.243668094 -0.127074808 -0.132104754 -0.0181576349 -0.0570675507 0.0476545095 0.208948776 -0.203613743 -0.284211308 0.373382092 -0.0233455561 0.115522198 -0.188789457 -0.071416758 0.419220626 0.0501087047 -0.177541584 0.210006595 0.020356467 0.0867679343 -0.197691813 -0.370274901 0.276853234 -0.0116380407 0.0783765167 -0.0570193678 -0.420570314 0.316480994 0.277774245 0.327191949 -0.363008976 -0.17457445 -0.0190066975 0.058843825 0.343499959 -0.0258857589 0.113958232 0.169637978 -0.219675913 0.192853555 0.335715324 -0.325518429 0.128760159 0.274364144 0.223399952 -0.130541518 -0.0783884674 -0.193630591 0.018400982 -0.133140817 -0.0183286127 0.212872416 0.271031499 0.118418753 -0.229847863 0.288830847 0.1566111 0.0242052544 -0.313002229 -0.0582196526 0.378220439 0.141445383 0.183036759 -0.17739965 -0.213160113 -0.0894789845 -0.276552498 -0.117465951 -0.248138621 -0.13133353 -0.357121885 0.207381636 0.366942644 -0.271251827 -0.255919695 -0.11829517 0.315800577 0.297396958 0.280043125 -0.321168005 -0.0469934233 0.309384018 -0.231542408 -0.12536253 0.0961173177 0.247969061 0.00157979189 0.181518465 -0.0289733745 -0.0940093473 -0.264907032 0.206126168 0.173808604 -0.043847084 -0.101635978 -0.0986161679 -0.00317940279 0.0333703198 0.202692837 -0.338560104 -0.110190436 -0.350684404 -0.31162256 -0.0311618969 -0.0881757513 0.0400881469 0.0480081514 0.399484128 0.0387090072 0.176796392 -0.0318308398 0.00560119981 0.282333553 -0.0909861401 -0.2153292 0.218809456 -0.289717376 -0.16483596 0.0994846374 -0.11960151 -0.263428807 -0.138249248 0.112123638 -0.305362046 -0.184687823 0.12451151 -0.257612258 -0.265399575 -0.171985298 -0.267851055 -0.196133837 0.0633381829 -0.13682951 -0.107451782 0.127162352 0.141302153 -0.205233321 0.0465489924 -0.116170354 0.257487535 -0.185109809 0.0656572431 0.041311983 -0.0697281882 0.185213462 0.322788477 0.0289411508 0.378646284 0.148108199 -0.0995706841 0.10915821 -0.0683272928 0.274407268 0.0953576937 0.289467275 -0.243855223 -0.233027905 0.198147222 0.267852873 0.245083079 0.103750288 0.092511043 -0.0532025509 0.159185946 0.152077958 -0.167267635 -0.30125773 0.191565976 0.0986486301 0.00893712975 -0.32410118 -0.0264963992 -0.123296104 0.066829212 0.282542855 0.110893264 0.304992884 0.187945142 -0.241950363 -0.110408865 -0.326290607 0.238257527 0.157907099 -0.0442430489 -0.148159876 0.132939741 -0.171640456 0.249893278 0.243842393 0.131125361 0.338880748 0.228491277 -0.245231926 -0.231249511 -0.147647351 0.0291506089 -0.154836714 -0.046124544 0.0187463835 -0.112741739 0.0309785586 0.0242348835 -0.230348527 -0.126077861 -0.246283278 0.205804229 -0.124618456 0.378125072 -0.0556217134 -0.21232371 0.124876022 -0.300888449 -0.133504331 0.0563056618 -0.152222559 0.331098109 0.0261424426 -0.131462723 0.248410434 -0.205745727 0.316712111 0.145087913 -0.17467016 0.215058699 -0.176359311 0.222446665 -0.276162028 0.350248545 -0.183945 -0.144251317 0.0805462748 0.019185517 -0.276265085 0.251085699 -0.0452068262 0.31783852 -0.328457117 0.336480856 0.283159792 -0.0179837123 -0.265203089 0.000666576729 0.245601192 -0.0725973323 -0.284067035 0.242984563 0.145737469 0.217998907 0.124124482 -0.0658950806 0.288547426 0.064923048 -0.377598792 0.241977289 0.355035186 0.00313655054 0.28062582 0.334385335 -0.25721544 0.280567616 -0.205317914 -0.00656876666 -0.172798604 -0.0908326507 0.315154284 0.0440927856 -0.121964276 -0.331830978 -0.211166009 -0.118389741 0.264575928 0.13583146 -0.194488645 -0.198448151 -0.395657331 0.623111784 -0.116033122 -0.17951709 -0.348535419 0.0360808857 -0.147268146 0.201632991 0.412346661 0.131213024 -0.276995897 0.039827954 -0.082841754 0.377760321 -0.269690782 -0.114563696 0.0463395081 -0.452831566 0.415970176 -0.67854166 -0.152973354 -0.141327053 -0.278061748 -0.42783457 -0.482126921 -0.0436069705 -0.193081215 -0.116021119 0.0933267772 -0.114871427 0.00901654176 -0.133581311 0.0957926735 0.400402009 0.462388813 0.137920469 0.341951966 -0.0700721815 -0.229785278 -0.116744593 0.0303038545 -0.254615575 0.396774799 -0.260020941 -0.380073428 0.167390227 0.476614028 -0.0195111148 0.0505163372 -0.142087221 -0.0129480297 -0.207155928 -0.302870035 -0.0566592403 -0.164075807 -0.181390524 0.268766224 -0.303648263 -0.069307752 0.428295285 -0.481996208 -0.244376466 -0.171819687 -0.321973026 -0.443550467 0.320291877 0.157501116 0.345230162 0.523052335 -0.206302777 -0.293794841 0.393305033 0.0853184462 0.0043704873 -0.290701538 -0.231964111 -0.0232179221 0.415043026 -0.0493299924 0.359238774 -0.370313764 0.470768899 0.435199291 -0.413468122 -0.0853086561 -0.417998463 -0.248045847 0.326657057 0.257641226 0.453999698 -0.122676477 -0.169874832 0.214909196 0.0818993896 -0.436363846 0.164133579 0.136187926 -0.475658566 -0.491410226 0.40015772 0.396539271 0.0925356522 0.111028001 -0.178934768 0.171747997 -0.161022156 -0.186175734 -0.332398415 0.256958157 0.107173398 -0.15291436 -0.0861567333 -0.0930903852 -0.404512227 0.166286424 0.302721947 -0.508151293 0.215262532 0.229525536 0.0654486865 0.140404195 -0.16092661 0.352455467 0.27737692 0.117005281 0.203481495 -0.192407772 0.360430121 0.351587057 0.125321284 -0.100847416 0.282945603 -0.261950165 0.399709016 -0.229004994 -0.343559116 -0.169501096 0.360802203 0.220009878 -0.389202237 -0.0852489099 -0.19952409 -0.17417784 0.352330506 -0.347616613 -0.111698277 -0.175535694 -0.0130323758 -0.31249702 -0.277288735 -0.396913111 0.0172650088 0.114597715 0.242503822 -0.167701378 -0.126766548 0.493366092 0.337325633 0.307168305 0.309427947 -0.0225769728 -0.113909684 0.176138043 0.0316280201 0.480838895 -0.0417886823 -0.211329058 -0.342278481 -0.224969059 0.0707433596 -0.145010635 -0.15205127 0.334800959 0.0826424509 -0.141581923 -0.325288594 -0.339131951 -0.185184211 0.0369877405 -0.116393805 0.0279442742 -0.270294577 -0.168323413 -0.333924681 -0.056749057 0.0728289858 -0.237616926 0.424846232 0.277525067 -0.208630174 -0.20407033 -0.0177352689 0.100183927 0.401491463 -0.137191534 -0.251706034 0.199157014 -0.0174488109 0.0684866235 -0.204695657 -0.192660481 0.337873012 0.154657021 0.328801543 -0.31546703 -0.218235433 -0.0156436861 0.071511142 0.365165085 -0.183407545 0.397318512 -0.290749967 -0.334221721 -0.052760113 -0.0829655677 -0.0922654867 0.45690462 -0.39600426 -0.124107771 -0.0478617325 -0.271965802 -0.246536061 -0.125178277 -0.187813118 0.0361187756 0.214638963 0.425933659 0.15841794 -0.417893618 0.229533136 0.300091773 -0.318568558 -0.284234941 -0.456837147 0.249774039 -0.214664131 -0.217953146 0.300046921 0.324459881 0.18175821 -0.151365563 0.132862017 0.386152178 0.239570633 -0.467790484 0.191201821 0.180743098 -0.0515173823 0.367556512 -0.139452457 0.31504482 -0.0942443684 -0.357144505 -0.00642105332 -0.272097737 0.00466290303 0.0937995985 0.127796382 -0.398902297 -0.294823885 -0.438069016 -0.12114118 0.0355071351 -0.0385056809 0.0981799737 -0.0450952984 -0.0790550411 0.345325857 0.128318876 0.123265006 0.216334686 -0.0306637418 -0.23819676 0.117574945 -0.228185013 0.103480279 -0.185446411 -0.285888642 -0.128684223 -0.0460759774 -0.22631216 -0.079271093 -0.296133488 0.323129714 0.131167054 -0.158958346 -0.239525303 -0.153236851 0.0818782672 0.214716092 -0.23707068 -0.309173733 -0.3645868 0.41133523 0.0746760368 0.0844371095 0.196715936 -0.0306458399 0.336197317 -0.11414399 -0.283907145 0.461693227 0.0362677202 -0.0537059866 0.253801227 -0.157375187 -0.182582349 0.151133969 -0.0108490931 0.115095064 -0.208971813 -0.14574939 -0.0857871249 -0.280253381 0.0771459937 -0.287066668 -0.193244115 0.0189149063 0.0594209097 0.0788134187 -0.25065431 0.113297038 -0.0729542151 -0.0564134903 0.154483989 -0.153086647 -0.219885677 0.0163800269 -0.142292663 0.127035633 -0.0465183817 -0.0813316926 -0.144531399 -0.0919121727 -0.325705618 -0.0867296904 0.0666546375 0.442094266 0.0155463619 0.314631253 -0.35350734 0.112579331 -0.0784545988 0.102942042 0.233478233 -0.291981488 -0.101619206 0.395671666 -0.380271465 0.177241042 -0.209712163 0.272641987 -0.235625669 0.294549286 -0.0487442501 -0.232975811 -0.149662882 0.275627434 -0.212021425 0.063110128 -0.157598287 -0.198841617 -0.0839119107 -0.235182345 0.335143477 0.00480087427 0.0809283182 0.224716663 -0.0328618586 0.0239511766 -0.136045367 0.234788328 0.112853378 -0.178306848 0.307053477 0.355733633 0.216706648 -0.0577455126 0.0414569601 -0.189964384 -0.149299487 -0.258546323 -0.44765234 -0.259978443 0.0979739726 -0.175042301 -0.37009719 -0.00456547691 0.237117499 0.13034904 -0.124357119 -0.0533364303 0.186329767 0.0877506956 -0.0304351617 0.340197504 0.250701785 -0.047264263 -0.188465685 -0.136438698 -0.250352293 -0.329939723 -0.076290451 -0.288224667 0.276062608 -0.566706479 0.320020825 -0.0402024351 -0.160660803 -0.185324535 -0.042149052 0.3366023 -0.312019885 0.190699488 -0.0172961373 -0.240872547 0.310968071 0.110506386 -0.203819469 0.181719437 -0.0691492409 -0.0898678824 0.204046309 -0.388740927 -0.408507675 0.0775741711 -0.256665617 0.208784983 -0.156602457 0.135989308 -0.0347160622 0.128304362 -0.0976034701 -0.125819221 0.164563537 -0.0601394363 0.256774396 0.251408726 0.0229533613 -0.172070101 -0.256041467 -0.0406597331 0.189994201 0.249586657 0.167912588 -0.221475571 -0.318517298 0.235586524 -0.210449308 -0.0426742882 -0.0137231173 0.297121197 0.283226132 -0.363860548 -0.307038158 -0.146908209 0.0283384509 -0.07204777 -0.168023661 -0.300493032 -0.146011472 0.135263994 -0.294662207 0.222593248 0.167108387 -0.216272965 -0.026775226 -0.0945759863 -0.244835764 -0.167736515 -0.177258119 -0.0269001015 0.164445579 -0.352641344 0.223096132 -0.205627382 -0.0308659971 -0.108825572 0.0593716837 0.0111343414 -0.134179622 0.0563443676 0.214899734 0.301131725 -0.291492313 0.0262679402 0.113777548 -0.167610675 0.196816579 0.247429043 -0.173211306 -0.277749091 0.0554673001 0.219521523 -0.268023729 0.165172428 -0.16854611 0.148268163 -0.218984962 0.205463931 0.0487435348 0.0836332664 -0.133994445 -0.407206982 -0.322915137 0.0734428316 0.319255501 -0.220911682 0.186170429 0.221925899 0.0844341069 -0.314894438 -0.13153325 0.121089764 -0.17283076 -0.213668421 -0.260143459 -0.251891524 -0.103168175 0.147782013 -0.130982727 -0.293416888 -0.174604014 -0.0482420549 -0.205313563 -0.0224479884 -0.117203519 0.317854762 -0.190413311 0.17494753 -0.00448290026 0.223127708 -0.198615059 0.00480721751 -0.133277252 0.00657952577 -0.273519337 0.256792903 0.217016295 0.0184620004 0.188679352 0.215180278 0.192656741 0.0180635396 -0.00599860772 0.152774617 -0.194880083 -0.15874806 0.268030465 0.0125587909 0.203178823 -0.512696028 -0.166804492 0.111028835 -0.168723449 0.149460897 -0.106970258 -0.178373083 -0.253130555 -0.0123316655 0.0354493149 -0.116771735 0.294036776 0.294650048 0.124431491 0.209999651 -0.414517969 -0.292666942 0.203274116 -0.14405629 -0.405379772 0.119159572 -0.112921439 -0.242952481 -0.11662598 -0.298377633 0.211800382 0.175040111 0.300329357 -0.138737097 -0.173905194 0.00376162096 0.0234244335 -0.206537485 -0.600021124 -0.215255573 0.199931785 0.443458617 0.355165929 0.427761704 -0.347863287 -0.406290144 0.421717525 -0.208169594 0.440175712 0.0851474926 0.292048365 -0.151478946 0.0700278729 -0.0709445551 -0.0625402257 0.112927668 0.272884578 0.329903692 0.0512670055 -0.355357587 -0.103850365 -0.0811709166 -0.191472366 -0.315512985 0.129824474 -0.237521529 -0.273957968 -0.259588182 -0.388664842 -0.426407695 -0.119545698 0.00494077988 -0.277286738 0.190226823 -0.300919741 -0.263195038 -0.499075294 -0.300568372 -0.151705772 0.00367029547 -0.328958154 0.0732224062 0.232178047 0.0917638168 -0.27771607 0.290681124 -0.0123443175 0.169171199 -0.219826147 -0.156995088 0.190734416 0.130160227 0.235444203 -0.113522135 0.178802907 0.21039018 -0.250647962 0.434125364 0.119485907 -0.221094921 -0.380607605 0.245386153 -0.171790838 -0.373845696 -0.0826700553 -0.0909182951 -0.220231146 0.137518436 0.232674345 -0.296639204 -0.0193492789 0.345021635 -0.287058115 0.13333489 0.126409605 -0.231701866 -0.260863125 0.00082379079 -0.151960015 0.0629066154 0.367053151 0.000739061565 -0.122981764 -0.0441507697 -0.0510711856 0.182861954 0.0044623008 0.271793395 -0.0536572188 -0.18612808 -0.242229089 -0.136162668 -0.397851974 -0.160686672 -0.423491389 0.120122567 0.0535819829 0.234359175 0.199925631 -0.308977067 0.340096653 0.20522365 -0.0502927154 0.217691943 -0.25889492 -0.353669524 -0.105123878 0.329505235 -0.195893571 -0.0787440017 0.350021452 -0.196699873 -0.251565129 0.264379948 -0.10190732 0.53632158 -0.084530741 -0.170113713 0.30088973 0.0368709117 -0.0501987934 0.1136702 -0.239857763 0.284211576 -0.325347871 -0.257069707 -0.0473867431 0.146011069 0.223080277 0.360712051 0.337061673 -0.157338142 0.38906154 0.184648305 0.257447124 -0.389025301 0.00169785647 -0.000931742543 0.234330699 -0.0720966756 -0.334012628 -0.166012019 -0.266521364 0.329558015 0.00178642932 -0.00181427179 0.159625977 -0.171473294 0.369706899 0.382869899 0.334633797 0.122723661 0.328693062 0.106893122 -0.182111889 0.00855869893 -0.0540417247 0.25181365 -0.238189042 -0.124255657 0.180571005 -0.0680831149 -0.0353790857 0.23575975 -0.317093283 -0.398115933 -0.364785016 0.359427631 0.0592730716 -0.103883691 0.279584855 0.185505792 0.18572557 -0.176816925 -0.0321262591 -0.0329748243 -0.271024883 -0.283752829 -0.316345155 0.174773008 0.154323712 0.0899901465 -0.372916669 -0.38499549 -0.313806593 -0.120749265 0.116462059 -0.0832463354 -0.277637392 0.24245663 0.221713588 0.315850556 -0.0175755825 0.168929905 0.416486561 -0.106638983 -0.302886039 -0.331835061 0.372103751 -0.503429174 -0.211755916 0.0849942863 0.0252911765 0.261054635 -0.143887296 -0.335490555 0.151247323 -0.247734487 0.311192811 -0.283161968 -0.124797836 -0.21926409 -0.352019042 -0.463667512 0.0399498045 0.435927689 0.243482888 -0.0743011683 0.0582757741 0.310949892 0.420185715 0.128046229 0.0397907458 0.00875834562 -0.115000337 -0.357028604 -0.321072012 0.290831864 -0.254703999 0.09706036 0.199351445 -0.295318156 -0.184675306 0.299172312 0.00430389261 0.214289546 0.126597658 0.0317158774 0.00371680083 0.285544932 -0.325904578 -0.0841564089 -0.0686902329 -0.320862561 0.0628686473 -0.279268026 0.37768212 0.19515042 0.12818478 -0.221758291 -0.0811107531 -0.0692349523 0.329751283 -0.0470686443 -0.256823003 0.41805923 -0.350068897 -0.0856027752 0.0501613505 0.0467783809 0.164717913 0.0021801875 -0.0111204991 -0.258978337 -0.225041687 0.319345891 0.39088428 -0.386885613 -0.305826545 0.0861825198 0.203858703 0.129514933 0.28182596 -0.373821139 -0.274955422 0.289589107 -0.0761269853 -0.100746147 -0.0748824924 -0.19725059 0.154856041 0.280708522 -0.157925844 -0.240867451 -0.0356520005 0.000639114995 -0.0951864496 -0.111469567 -0.201898664 0.138343051 -0.100730352 0.282558322 -0.0112555427 0.189280972 -0.417388797 -0.0696811303 -0.0124724424 -0.131054133 -0.172460824 -0.238028035 -0.141561925 -0.0575659536 -0.289368421 -0.213951439 -0.0790672004 0.47322616 0.424441755 -0.227446035 -0.199536309 -0.101299308 -0.0109291691 -0.309790611 0.106913067 0.174335822 0.00127191411 -0.331966162 -0.126871735 0.194302395 0.00952141173 -0.0148786716 -0.0253091753 -0.31797725 0.230823115 -0.116744049 0.338522881 -0.145760506 0.0195321981 0.205319136 -0.281455368 0.335393786 -0.0778848752 -0.359838814 0.405751854 -0.0125231724 0.184165597 -0.236892834 0.268351734 0.365911335 -0.100637585 0.244998932 0.0780247301 -0.272340566 -0.156018317 0.19433859 -0.130817413 -0.287115932 -0.065947324 0.488144606 0.279190153 0.000377263234 -0.0663623214 -0.218724161 -0.0814490616 -0.217546582 -0.132649019 0.0959076807 -0.265696317 0.0256530251 -0.159846753 0.0846244916 -0.0901351795 0.305045336 -0.112761751 0.212990493 -0.293766439 -0.34389624 -0.0081429854 -0.171335384 0.038922105 